0.0031870678,0.0098446235,-0.05735459,0.041136123,-0.012550227,0.07424887,-0.02453566,0.010497332,0.02851595,0.009684913,0.030189909,0.064246275,-0.036544397,-0.0070053786,-0.019405946,0.010244638,0.0346395,-0.013825044,-0.015568957,0.033916496,-0.032657728,0.046116553,0.06899739,-0.06359481,0.015134208,-0.07642134,0.039806746,-0.009718344,-0.07833408,0.060429804,0.07759293,0.032422036,-0.0026967674,0.05232645,-0.03782529,-0.078461885,-0.0699652,-0.0034889802,0.026085295,-0.0064568445,-0.054311633,-0.050730817,0.036915325,-0.02251419,0.042759784,-0.0036042929,-0.056859903,-0.04516955,-0.05360954,-0.016733564,-0.029455345,0.01563368,0.012978941,0.03276395,0.045823865,-0.045382,-0.008900881,-0.0056327805,0.053736694,0.023744896,0.06274634,-0.044222284,-0.030021377,0.010640942,-0.05577019,0.06836685,0.07487192,0.037013,0.03006044,-0.011055671,-0.036330845,-0.07247242,-0.0184685,0.000612773,-0.05024351,0.0047267824,-0.04565444,0.03151209,0.0014747158,0.015837409,-0.010729834,0.070228,0.0020572841,-0.072242066,-0.04635006,-0.07815514,-0.020009376,-0.044295266,-0.0014071316,0.024711601,-0.023079585,-0.005163096,0.0053424984,-0.023221586,-0.04296334,-0.012033626,-0.013024747,0.049502023,0.010162197,-0.07779261,0.005725451,-0.014982931,-0.00956782,-0.007960863,-0.06886622,-0.048071243,-0.013144091,0.06967389,-0.0010356456,0.0014220625,0.015093058,0.029644534,0.038550496,0.018306874,-0.016238078,-0.06495609,-0.03214588,-0.035774715,0.063853435,-0.03946131,0.030817494,-0.05471211,-0.056473717,-0.026600972,0.0532893,0.013110384,0.06583024,0.0772491
-0.071778834,0.023768201,-0.07568098,0.0013906583,-0.019578908,-0.037833877,0.037774332,-0.02748914,0.013546944,0.06330275,0.062195666,0.01381468,-0.047376882,0.058600657,-0.022856731,0.0543055,-0.05505407,-0.061388023,0.013398968,0.054913275,-0.00746122,0.07961423,0.05885256,0.056066133,-0.04316349,0.032032557,0.024923682,0.017124586,0.05693809,-0.03330883,0.02209635,-0.07915762,0.0677597,-0.065139204,0.059734233,-0.032124996,0.03395071,0.05814662,0.04384116,0.019387998,0.006497897,-0.044250593,-0.041003924,-0.08032499,0.059056126,0.023694582,-0.07310575,-0.0809788,0.032116488,-0.033621587,-0.04255774,0.07048894,-0.04432824,-0.008692369,0.049731664,0.012638472,-0.02324104,-0.021768853,-0.02710019,0.08079844,0.02767773,-0.07810938,0.00074150413,0.026923418,-0.047096748,-0.062936746,-0.020056292,-0.050394587,-0.0086680055,-0.009907164,0.021053836,-0.033156887,-0.054019667,0.024819896,0.024501085,0.03919477,-0.05609826,0.07247426,0.0061500818,0.02364929,-0.045983072,-0.06315802,-0.06505085,0.07359832,0.0051577017,-0.06781232,-0.02163836,-0.044301163,0.03764291,0.02761627,-0.014811628,-0.07939366,0.080388285,-0.033834253,-0.021239236,-0.027066503,-0.06893617,-0.06455455,0.026098602,0.032818682,-0.008103095,0.019027382,-0.056098588,0.02162221,0.06062285,0.06916999,0.04616932,-0.012575462,0.019591302,-0.025841191,0.021791749,0.015604883,-0.052624445,0.00083798915,0.071528606,-0.044478204,-0.06104386,0.02034472,-0.07618532,0.027070329,-0.001529023,0.061490692,0.07373858,0.038312443,0.053045787,-0.04612469,-0.07319659,-0.06864627
0.070373364,0.058765076,-0.07695918,0.06987583,0.0676906,0.06884166,-0.0036891252,-0.023356084,-0.026895825,0.029287972,0.0046062693,-0.06959067,-0.079460844,0.054024003,-0.04669658,-0.008108184,-0.037909064,-0.055638418,-0.053568367,-0.077614985,0.045195766,0.07990276,0.059808426,-0.051007435,-0.03726792,-0.024570104,0.03740143,-0.031954605,-0.03891185,-0.031496868,0.075276665,0.024673276,-0.025559023,0.04476153,-0.06076759,-0.072827324,0.05693289,0.060429253,-0.011343554,0.03542535,-0.029031217,0.06767046,0.074336715,-0.023628503,0.06519113,0.045447253,0.026279762,-0.040428765,0.03606554,-0.0640797,-0.04096078,0.07025019,0.044186674,-0.06279067,-0.05247724,0.018471807,-0.013291642,-0.016584568,-0.06087432,-0.06148007,0.04940539,-0.06952828,0.03063643,-0.07397232,-0.04205738,-0.013597839,-0.0060137883,0.0720556,0.05968585,0.06761596,-0.021018371,0.07476542,-0.07698715,-0.008955762,0.015499026,-0.032859135,0.07903188,-0.032959346,0.062599115,-0.026054937,0.013005935,-0.0018121153,-0.039108578,-0.07834054,0.063096024,-0.07463878,0.051358946,0.05785816,0.032528237,-0.018511102,-0.05738571,-0.044203717,0.06923751,0.071857415,-0.064105615,0.050985835,-0.07384347,0.064229034,0.07526878,0.045140006,0.02786363,0.017956346,-0.007043086,0.05431681,0.049018793,0.0024109632,-0.066354156,0.010113388,-0.020994104,0.06064924,-0.07258004,-0.0029748306,0.07973624,-0.011036739,-0.06369651,-0.0732353,-0.040432923,-0.07216537,-0.01381205,0.062392704,-0.049817994,-0.05572567,-0.002760619,-0.0691794,-0.03403777,-0.07250327,0.049238943,0.018550783
-0.07684091,0.06484216,-0.031061776,0.0042648315,-0.052297764,0.07823748,-0.04199507,0.040711746,-0.061289355,0.04462748,-0.05667168,-0.072493926,0.012636088,-0.044248004,0.016310096,0.07486654,-0.061431646,-0.07559986,0.020083249,0.07684275,-0.00036806613,0.060660265,0.078238584,0.009267554,0.06642217,-0.037933197,0.008623682,-0.014878407,-0.04371906,-0.04061482,0.026513368,-0.04496329,0.06824451,-0.03540373,0.030605063,0.029684886,0.027351707,-0.04651176,0.037880793,-0.012097828,-0.04349609,-0.036258906,0.076095946,-0.063449,-0.040307786,0.0065401345,-0.056171842,-0.071641944,-0.012565777,0.080362745,0.038164325,0.015544996,-0.0073638335,0.033581458,0.004293509,0.008999385,-0.023425218,-0.07718477,0.05550427,-0.05888673,-0.011506446,-0.051556006,-0.046580065,-0.019786134,0.04352825,0.039361946,0.03023833,0.025581382,0.049266405,-0.06396218,-0.06117961,0.0014249235,0.035388783,0.07530487,-0.03644146,-0.017086469,-0.080024265,0.041530117,-0.0753935,-0.059351698,-0.054693393,0.032186992,-0.076988,-0.0565705,-0.017971352,0.023057774,0.056767486,-0.0072567165,0.043516263,0.024059072,0.05666112,-0.045673218,0.024242766,0.07293568,-0.013020977,0.077753134,-0.05016059,-0.041993465,-0.058165543,0.07853583,-0.06542946,0.053566195,0.021632634,0.04165723,0.057486378,-0.054309912,0.00849247,-0.017538913,-0.069830425,0.0536082,-0.0052650645,-0.056727044,-0.06811504,0.034812458,-0.021472514,-0.06382766,-0.06981194,0.0037287697,0.07765899,-0.02330681,0.033083595,-0.037393853,0.06368137,0.07705175,0.005114034,0.013314612,-0.020939589,-0.031016197
-0.060044628,-0.05651183,0.018362448,-0.0025636554,0.07141777,-0.062135004,0.07624867,0.031478554,-0.052214704,0.07406927,-0.030944124,-0.01175262,-0.026668329,-0.030163996,-0.037166454,0.030506693,-0.008501291,-0.03649996,-0.012475289,0.014018759,-0.050105184,-0.04391171,-0.024924632,-0.05981636,-0.0762935,-0.0036926642,0.030481495,-0.05189367,-0.03429435,-0.046495266,0.066510655,0.07141907,-0.027859643,0.06836703,-0.0149843395,0.022049569,0.043923102,0.031733125,-0.032422245,-0.043036014,-0.012064934,0.024082564,0.008331016,-0.009063765,-0.029529333,-0.06150523,-0.004737094,-0.055806004,-0.05989472,-0.03893063,0.03534869,-0.079535566,-0.0030172393,0.02683945,-0.07810159,0.032384634,0.056247346,-0.059412807,0.04002864,0.07049588,0.059801154,0.046552368,-0.061565276,0.047963463,0.0604276,-0.046137508,-0.0014139041,0.081094675,-0.06005176,0.07181192,0.025539532,-0.0650419,0.035290383,0.065753095,0.008024894,0.018775769,0.031115554,-0.057730626,-0.07583071,-0.037329067,-0.006197825,-0.025451135,-0.041716598,-0.08049927,-0.058070593,-0.015787631,-0.04598288,0.028149098,0.056160398,0.033049002,0.08035628,-0.052888624,0.0669901,-0.028489474,0.0465476,-0.074149385,-0.065790966,0.017883964,0.021738663,-0.07496405,0.071538426,-0.07784445,-0.026848562,-0.05727786,-0.0028791428,0.01300104,0.02890759,0.025107183,0.048451968,0.05783733,-0.069088824,0.012619443,0.005908817,-0.026854806,-0.048623275,0.054632105,-0.024524193,-0.017732367,0.04823471,-0.014006458,-0.0012022778,0.023481414,0.038891315,-0.072182156,-0.07522063,0.075195976,-0.04152871,0.0044344664
0.06597663,0.07376916,-0.074460424,0.033731587,-0.002524212,-0.018131219,-0.045563858,-0.065453954,0.050430693,0.018904291,0.0039486513,-0.067153364,0.05843123,-0.03101341,-0.06513878,-0.071177356,0.038045727,0.06431518,-0.005760625,-0.006677918,0.06875641,0.051787056,-0.026842915,0.0794004,-0.057803825,0.05758535,-0.02855859,0.04689782,0.079650454,-0.059485674,-0.010347225,-0.04222019,0.069978364,0.047568448,-0.03955684,0.07576444,0.051771216,-0.029212493,0.050704382,-0.02043482,0.07594497,-0.06828323,-0.07426988,-0.077784985,0.017959498,-0.01813209,-0.057419978,-0.01530505,-0.020202741,-0.006110944,0.03832996,0.043250397,0.06983138,-9.699911e-05,0.06797395,-0.0065322816,0.051981173,0.04397931,0.019763455,0.06666448,-0.027346484,0.002101399,0.07244838,-0.024749909,-0.06838904,0.06989179,0.045495935,-0.0059209242,-0.05983802,0.07440632,-0.041231442,0.044008367,-0.046638235,-0.053446554,-0.025681667,0.04586511,-0.07201269,0.0676487,0.038127743,-0.02061658,0.06826178,0.029821709,-0.018877044,-0.03785161,0.032065496,0.07901647,0.0020872802,0.047619976,-0.06332551,-0.0040502697,0.08034127,0.06357982,-0.013613276,-0.07607838,-0.054925065,0.031539917,-0.002223134,0.029378451,-0.06268678,-0.050499476,-0.07832582,0.025061332,-0.011690795,-0.009060673,0.02148804,0.00515455,-0.047516502,-0.061423507,-0.06820679,-0.05114729,-0.035350643,0.014431305,0.011740781,-0.072181754,-0.014386281,0.010147385,0.008696899,0.055340104,0.04074487,0.037896857,-0.007989638,0.045462526,-0.014516741,-0.08094635,-0.063776106,-0.047903523,-0.0066439062,0.026923843
0.031630732,0.066779114,-0.06606342,-0.008027539,0.02241622,-0.043151695,-0.042988382,0.06488175,-0.030069336,-0.045816105,0.05752065,-0.03424554,0.07643647,-0.01406014,0.065550216,-0.027177371,0.053484537,0.037089773,0.02539616,-0.05355355,-0.059563316,0.007110812,-0.03191719,0.041177638,0.06346666,-0.019727696,0.009343781,-0.025243018,-0.055891786,0.000817433,0.05211153,-0.04670074,-0.0658904,-0.05272106,0.000824742,-0.0056089982,0.011072919,-0.06288391,0.016703725,-0.043439005,0.02279123,-0.038370397,-0.0045355856,0.04600554,0.077190675,-0.05294952,0.04474751,0.054554872,-0.032374345,-0.031532202,-0.051503636,-0.03360523,0.034368046,-0.028168555,-0.014165632,-0.018655483,-0.00046963245,-0.007912733,0.030152299,-0.07336094,-0.08101398,-0.03333124,0.044965796,0.055964164,0.0060469136,0.0752848,-0.012816668,0.0010382906,0.03382147,0.02803626,-0.014319509,-0.024145376,-0.010291651,0.06420585,0.015988097,-0.04525263,-0.060715824,-0.065227896,0.060994677,0.008286424,0.03483764,0.021532267,-0.03374454,-0.07920579,-0.0483431,-0.06973298,-0.069233626,-0.005104631,-0.05395086,-0.06894284,0.04106635,-0.06535326,0.0047296286,0.033531293,-0.009215571,-0.0062504113,-0.0033650994,0.0146892965,-0.032604102,0.030675322,0.061022706,0.07351818,0.05687406,0.02540797,0.0808825,0.062125735,0.06603115,0.057505406,0.063931815,0.077472724,-0.011662409,-0.04869061,-0.05469016,-0.008986257,-0.06461435,0.05099169,-0.010292888,-0.052950352,-0.008588254,-0.0019523203,0.0038169324,0.023234561,0.06981679,-0.025562253,-0.0279609,0.07058651,0.0066325516,-0.08003606
0.02196274,0.032419033,-0.06936008,0.07237502,0.003989063,-0.036226667,-0.05400168,0.05390992,-0.012275413,0.07566219,0.041284695,0.007121332,0.07430684,-0.046004694,-0.06053969,0.05943074,-0.043288358,-0.022029903,-0.04610212,-0.07324149,-0.049288627,0.012745447,0.030389652,-0.07051806,0.07345276,-0.056478977,0.035698406,0.016010582,0.009973012,0.06971859,0.009855047,0.06486543,0.008856185,0.03280808,-0.035643272,0.027964339,-0.05021967,-0.07819003,-0.020888343,-0.07903824,0.012296066,0.05830326,0.062377565,-0.0411969,-0.07707498,-0.029297564,-0.066994384,-0.002860576,-0.01269985,0.040167756,0.05043467,0.0031167716,0.03375359,0.048335217,0.06990454,0.015915617,0.07351657,0.07762674,0.03531856,0.04810337,0.023260802,-0.042459983,-4.1037798e-05,-0.031965863,-0.056095514,0.053161882,-0.06265329,-0.075014114,-0.053533982,0.033205755,-0.07392802,0.04165087,-0.026894972,-0.06896144,0.031722702,-0.016355172,-0.032478675,-0.02498578,-0.018928695,0.0051323622,0.06533339,0.04033722,0.079534344,-0.038937822,0.07857511,0.009444766,0.0039652437,-0.020954866,-0.016088575,0.07784375,-0.02594316,0.034508772,0.08059979,-0.0027319193,0.032202058,0.008926809,0.07981203,0.074546866,-0.057254016,-0.03607448,0.036079176,-0.0040090606,-0.036264706,0.047712453,-0.053855658,-0.038946986,0.053686626,0.007712327,0.032912336,0.004753433,0.00088437647,0.065480165,-0.046808027,-0.07977985,0.020150453,0.016426377,0.006749861,-0.07882531,-0.0002792254,0.014569394,0.02040276,0.029414698,0.05520735,0.033770278,-0.047506254,0.0110856,0.049663328,0.042436138
0.0012838095,-0.009849787,-0.06315251,0.044189624,-0.058769926,0.06367744,-0.024806708,0.057882212,0.04566147,-0.04859829,0.0029623732,-0.05427754,0.006243758,-0.05123321,-0.057411194,0.02617845,0.029108956,0.047489606,-0.08093417,-0.040017866,-0.035334032,0.039987504,-0.07772744,0.008544147,0.06647783,0.042998537,-0.07357999,-0.059523113,-0.059894834,0.009021357,-0.014131136,-0.07281266,-0.048396282,0.07968498,-0.011424929,0.06567418,-0.02855853,-0.079813264,-0.004706733,-0.0069126263,0.043195806,0.0717449,-0.021112144,0.01545608,0.021958888,-0.0013258308,0.04327192,0.07443408,-0.026658386,-0.05117968,-0.03185047,0.023411892,0.035761677,-0.046145264,0.02801112,-0.015784562,-0.06029974,0.072497375,0.03114754,-0.0024148151,0.041270502,-0.0040477216,0.028186694,0.035666883,0.0039051548,0.07068325,-0.070006944,-0.027274873,-0.055545226,0.060996808,-0.07116583,-0.052837744,0.02900134,0.015480503,-0.020679392,0.014848255,-0.020383168,0.0056187436,0.06099882,-0.056762554,-0.0023195744,0.035378493,0.014324881,-0.06520413,-0.045308594,0.05092875,0.01657886,0.0052556098,0.006177075,0.014292419,-0.06546927,0.05628497,-0.065052554,-0.04010707,0.027169831,-0.060871206,0.07024009,3.3572316e-05,0.02167309,0.06844168,0.027605347,0.007140279,0.07831717,0.03228564,-0.058772847,0.029295959,-0.019380514,0.0025869235,-0.080184,-0.016739078,0.012049675,0.016828015,0.06215658,-0.067624085,0.069787405,-0.07992024,-0.03216783,0.061360277,0.045234077,0.03851673,0.039947033,0.039819106,0.05999679,0.080835365,-0.038828097,0.03630226,0.07055744,-0.012710795
-0.06172876,-0.0068122074,-0.037038162,-0.06866667,-0.011293568,-0.033038635,-0.07464945,0.07163242,0.045360483,0.037927955,0.012596041,-0.07759723,0.0028289035,0.06332556,0.01362174,0.04350245,0.07185563,0.035653174,-0.015201896,-0.004701741,0.006400436,0.033932216,-0.07978248,-0.05124688,0.042098492,0.062070392,-0.053385485,-0.076439135,-0.065131955,-0.029883921,0.0633099,-0.07789483,-0.042343702,-0.0711598,-0.058851436,-0.06435339,0.07668988,-0.057028994,-0.054280072,0.038183473,0.052175395,0.029353954,0.00668028,-0.015054598,0.050249793,0.021712422,0.032918483,-0.007863939,0.061529778,0.0327029,0.06430515,-0.061322175,0.0013235509,0.042973414,0.0013642982,0.0531239,0.0052483976,0.053767063,0.072764896,-0.07078483,0.04023488,0.0112173185,-0.054111946,0.07686322,0.046717368,0.075516365,0.052974932,-0.020037167,-0.055018626,-0.03785915,-0.0801337,-0.038847648,0.037921242,-0.012614742,-0.039233215,-0.057660237,0.026662119,0.041118987,0.03592184,0.012988508,-0.03711795,-0.062207714,0.07098726,-0.0045721754,0.07148979,0.06775143,0.015972294,-0.060652122,-0.0013703108,-0.015938915,-0.030115921,-0.042859647,-0.047381405,-0.05725026,0.019173056,-0.0059732497,0.048928745,0.06553518,0.045436643,-0.027276538,0.05081945,-0.06788571,-0.011107437,0.03635154,0.050353743,0.058224447,-0.060092933,-0.06314038,0.0038041323,0.023068562,0.038332514,0.057637043,-0.035770208,0.067482136,0.05010269,-0.033855695,-0.019229386,-0.011722855,0.05935044,0.07567028,0.05200716,-0.050491564,-0.05311177,0.062449254,0.0027711168,0.061480172,-0.03918303,0.0004191026
-0.075843364,0.0050621703,-0.011349961,0.006335765,-0.040581807,-0.027783897,-0.044958394,-0.07570476,0.005319074,0.040248223,0.04985892,0.0539814,0.04545056,-0.039482214,-0.014275357,0.039587997,0.021698885,-0.0133388415,-0.05881338,-0.06457194,-0.00078805536,0.028570928,0.06315359,-0.044699397,-0.07953963,-0.025117591,-0.05315963,0.02993273,-0.033791628,0.041155346,0.008274086,0.060075186,0.054600276,0.0045117214,0.06875124,-0.060861014,0.043681704,0.067859925,-0.065653816,-0.0074907467,-0.07860327,-0.05690732,-0.016049512,-0.031749718,-0.06498945,0.039939426,0.06918285,-0.04686136,0.0039187297,0.0641012,-0.078255445,-0.04767649,0.0027114227,0.06241163,-0.057613805,-0.07444507,0.042806022,-0.0427576,0.07577009,0.049709834,-0.029655844,0.06741487,0.020180866,0.00978642,0.022472769,0.011295497,0.029346198,-0.07941085,-0.03383489,0.024190493,0.06650046,-0.023750216,-0.0033302456,0.039367013,-0.0039863363,0.00266172,0.0012450218,-0.041794863,-0.045863003,0.021084957,0.0118505135,0.030063398,0.06743198,0.04683668,0.024118379,-0.017618567,0.051449217,-0.07126067,0.07114566,-0.047629595,0.01547242,0.013759874,0.048437677,-0.07376349,0.03558719,0.06012646,-0.061899655,-0.0540326,0.021342076,-0.05342321,0.06971683,-0.034192957,0.069319464,0.016193412,-0.027114734,0.049706332,0.008575782,0.0072611272,-0.06839373,-0.0568991,0.028341629,0.06328585,-0.071516454,0.04400476,0.049077205,-0.06169264,0.008988462,-0.07082085,0.07214973,0.02544839,-0.06841956,-0.032938596,0.007890239,0.021431416,0.008945957,0.026994549,0.04598313,0.06811472
0.050512202,0.024858013,-0.061896812,0.016635694,-0.030268695,0.018441021,-0.07829962,-0.07938775,0.012036271,-0.05966355,-0.07571375,0.03952449,0.07760539,-0.04975346,-0.036468785,0.04570248,-0.005189918,-0.072070636,-0.0377285,-0.056088727,0.075964995,-0.04248135,-0.06776896,0.07714089,0.043593265,-0.06239885,0.060251452,-0.035947174,-0.0699662,-0.015409321,0.06655989,-0.018193588,-0.005978182,0.045518495,-0.050982952,-0.041007735,0.07154324,0.0061332956,-0.029757526,0.054879643,0.002781637,-0.03588612,-0.0657508,0.006834738,-0.042474195,0.056680344,0.06856225,-0.013266616,-0.07820248,-0.058732256,-0.045159165,0.07926733,-0.07884938,0.058668844,-0.009860694,-0.058758184,0.052581914,0.060442083,-0.0059849694,-0.06629003,-0.011528119,-0.0727204,-0.06453881,-0.008382209,0.027493432,0.074084274,0.06819629,-0.0041416287,-0.07812978,0.0040897056,0.07499803,-0.07212403,-0.040965423,0.02898939,-0.010292925,-0.0016515702,0.07194165,-0.012631409,-0.0067035407,0.024998546,0.04176367,0.0039662644,0.037861764,0.07386499,0.06277651,-0.0323798,-0.07504525,0.02062279,-0.00070985407,0.041336954,-0.03655571,-0.009000376,0.0667531,-0.0006072223,-0.04352156,0.06333902,-0.079579756,-0.032135807,-0.06130717,-0.0036417097,0.023896374,-0.010425545,-0.06222485,0.0740496,0.048957415,-0.07828886,0.048236705,0.06293499,-0.0065283775,0.07128488,0.024429187,0.011081524,-0.022660602,-0.0052554756,-0.008781388,-0.020904973,0.0037566572,0.075314455,0.04380539,-0.058686115,-0.015233144,-0.009344846,0.021214694,-0.0418095,0.03510104,0.013526693,0.030512512,-0.007474214
-0.020473924,-0.11018954,0.103160724,-0.06398173,-0.05871784,0.15466313,0.09395481,0.012502379,0.06507708,0.012618376,0.14150292,-0.07677149,-0.067098215,0.033566087,-0.07321304,0.056394093,-0.031000473,0.11434535,-0.08996318,-0.13079175,-0.09446909,0.119611315,0.046578016,-0.021590766,-0.014680898,-0.07644722,0.04138774,-0.032138396,0.012600005,-0.14195126,-0.035314787,0.08411156,0.057367504,0.0205019,-0.0059001353,0.15118536,-0.040641643,-0.061174124,-0.1051156,0.028879736,0.14352077,0.034256928,0.04085148,0.078111075,0.07334872,-0.15562145,0.021371482,0.030381527,0.093199015,0.022323718,0.13561724,0.04681015,-0.074326746,0.05042281,-0.06305927,0.064050496,0.088467106,-0.07224743,0.038686357,-0.067945406,0.08918855,-0.025360148,-0.00060765794,0.03234998,0.030268356,0.042782973,-0.044543024,-0.0066118613,-0.015021967,-0.08116857,-0.023734825,-0.030332398,0.06425703,-0.023173273,-0.081786826,-0.03862561,0.13353029,-0.1525728,0.02507617,-0.001412197,-0.04635412,-0.13688569,-0.019013619,0.07174167,-0.018071525,0.07763096,0.06514824,-0.0034163608,-0.025192,-0.13859777,0.039895706,0.112935856,-0.044720072,0.13871692,0.09313198,-0.01889865,-0.023470754,0.062157504,-0.060326315,0.031405058,0.037065774,-0.012125275,-0.16896875,-0.0042441227,0.11427243,0.036806572,-0.06979633,0.16925481,0.15205178,0.098629214,-0.05569397,0.086504966,-0.07363168,0.035995387,0.022926621,0.15710755,0.002469835,0.037626933,-0.025797542,0.0791013,0.040187173,-0.082870245,0.14194855,0.0015587062,0.08869833,-0.024011478,0.087278895,-0.079262026
0.03371056,-0.10244653,0.14236131,-0.04405672,-0.0016290012,0.021349337,-0.015019256,-0.0024124947,-0.020054195,-0.004826585,0.013515687,-0.062073957,0.00909391,-0.016356023,0.025796652,-0.0334921,0.09515449,0.104678124,-0.058757063,0.010816668,-0.11646126,0.046676323,0.013096028,-0.053929016,0.022157962,0.017419612,-0.005772934,0.056091003,-0.0063787773,-0.09914677,-0.019540606,0.08239224,0.17110772,0.012613359,0.090252735,0.07829841,0.057657875,-0.024790075,0.06960923,-0.06279558,0.11692524,0.01730635,0.07400466,0.027795156,0.0018387134,-0.21273611,0.022703774,-0.02223014,0.065955184,-0.033481676,0.08263523,0.0450158,0.044503506,0.1459435,0.010142896,0.012099989,0.05624534,-0.026785914,-0.029834228,-0.061134785,0.0689665,0.052705206,0.09822223,0.036978908,-0.0045962795,0.04436568,0.09517739,0.050055005,0.03369781,-0.029043712,-0.10382859,0.013250234,0.064021684,0.06022235,-0.09268998,-0.09886231,0.10744559,-0.15823188,0.06305328,-0.107516676,-0.064375095,0.018473877,0.08505844,0.13685349,0.049339138,0.088524036,0.06564607,-0.051622655,-0.14800869,-0.114500865,-0.032857742,0.12181136,-0.049976878,0.11849384,0.043912675,-0.028303256,0.021092668,0.058395706,-0.10651416,0.00881337,-0.00020119619,-0.010828999,-0.10099362,0.037530143,0.04329031,0.024507381,-0.07025421,0.04974116,0.03997587,0.027281992,-0.14412646,-0.049002755,-0.0005769804,-0.08107047,0.0021308884,0.050338935,0.052036542,0.053813197,0.012839429,0.02019782,0.07209007,-0.029065996,0.11096287,0.024208225,0.010897651,-0.07800428,0.091430075,-0.033320528
-0.058425453,-0.029822102,-0.007873219,-0.044565577,0.0065802825,-0.04586911,0.06397338,0.077741966,-0.028686374,0.01300189,0.04940891,0.13461162,-0.037885703,0.053831067,0.079614796,-0.06595385,0.061411675,-0.10701418,0.014636651,0.06699048,-0.05287029,-0.037193153,0.029262768,0.022644082,0.098525494,-0.08112655,-0.0014428144,-0.07049615,-0.03442424,0.072033934,-0.07499911,-0.011042008,0.010375929,-0.011578828,-0.025867246,-0.11214721,-0.0239161,0.017639797,-0.019726053,-0.05383579,0.0031250592,0.06284421,-0.023122031,-0.028290346,0.015164072,0.045053076,-0.04682121,-0.027185183,0.039841972,-0.073870555,-0.07624538,0.0136047825,-0.097925365,-0.08621809,-0.08273923,0.03947243,0.09980004,-0.052993257,0.017726392,0.016077608,-0.058311574,0.05267393,0.030675955,-0.06932603,0.028249338,0.009273434,-0.022496764,-0.0474926,-0.037464548,0.096234545,-0.01599554,0.019292647,-0.031087998,0.1055532,0.117785834,0.09018634,0.013828047,-0.04501645,0.07561454,0.12267054,0.026953295,0.051746126,0.06092301,0.06082744,0.062247895,-0.005247116,0.09361712,-0.01796436,-0.0095274355,-0.08948646,-0.05120314,-0.101021335,-0.059059575,-0.09642591,0.06262524,-0.08261196,-0.081088565,-0.031498205,-0.06993377,0.06334772,0.06407961,0.07083114,-0.016171042,0.027854126,0.054488417,0.081186034,0.006381154,-0.08541542,0.03614427,-0.026931629,-0.11196069,-0.036315337,-0.018912762,-0.009472616,-0.068708725,0.0025927052,0.08622176,0.022997271,0.054056056,0.01713057,0.063371845,-0.015796237,0.092286475,0.046590723,0.07690322,-0.03161025,0.06432131,0.032306097
-0.0053887144,0.0857943,-0.08615318,-0.06884928,0.0073122764,-0.005827564,0.022613125,-0.017505141,0.07434406,-0.049459726,-0.06941476,0.020658882,0.06409832,0.006010463,-0.06719141,0.07981808,0.016693009,-0.06722528,-0.07586702,0.0030884645,0.055602074,0.028392948,-0.035546515,0.0008969169,0.03223898,0.058502402,-0.08725599,-0.008585028,0.026551716,0.071411826,0.080435194,0.00018481602,-0.07310407,0.026232675,0.0069097485,-0.029880902,-0.0028942302,-0.017369237,0.02043643,0.05311271,0.049868096,0.05174417,0.044039734,-0.060731232,-0.037829272,-0.041597977,0.05165712,-0.03992978,0.032654244,0.009116033,0.03147888,0.040244587,0.024393028,0.04473745,0.016253566,-0.05037872,-0.026389364,0.044604357,-0.051648673,0.077615194,-0.092042156,-0.03637772,-0.032331835,-0.07195598,0.03828389,-0.03498514,-0.044359967,0.017054662,-0.033874616,-0.017040113,-0.012874126,-0.075909495,0.015257418,-0.058933895,0.01127562,-0.07679066,0.00761614,-0.0153566,0.032521844,-0.033557646,-0.07111567,-0.06202535,-0.05759439,-0.04515346,0.01617121,-0.045810763,0.056198545,0.056627784,-0.011056506,0.019036459,-0.07024214,0.03887997,-0.036911905,-0.033852283,-0.051200476,0.06413168,-0.015436057,0.044938035,-0.023280831,-0.058064934,0.062271558,-0.0067115235,-0.032729115,0.03327995,0.055176083,0.040889196,-0.034930345,0.03798787,0.042298116,0.008239783,-0.07520113,0.07672316,-0.0014903471,0.04425143,-0.018729974,-0.07151157,-0.03007805,-0.059295714,-0.035096094,-0.045115665,0.07328781,-0.020028137,-0.011469778,0.020727813,-0.026420292,0.08018174,-0.041069917,0.0750403
0.03709407,0.07362478,-0.04738955,0.00068376213,0.030039787,0.03677754,-0.019332014,-0.013150141,0.035199262,0.048922054,0.0035734847,0.04228559,-0.04084839,-0.05350153,0.022330515,0.043142237,-0.048111834,0.022923715,-0.0673477,0.07267103,0.0036969632,0.029025592,0.07443484,0.022998556,0.06766077,0.06406719,-0.07896394,-0.041755587,-0.049555436,-0.0312534,0.0014428496,-0.032268874,-0.049680635,-0.06399354,-0.07131963,0.028173424,0.07092186,-0.007290788,0.030014724,0.077756904,0.009469092,-0.0020021722,0.054498456,0.06397497,0.08059225,-0.038052224,-0.028135832,0.05635784,-0.047731005,0.07352746,-0.067972,-0.06358431,-0.044039167,0.027885288,0.029871061,-0.00066398084,0.018542506,-0.06486095,0.01102598,-0.04264627,-0.045898933,-0.015358672,0.07576614,-0.016348734,0.061096244,0.08022872,-0.05430202,-0.06535597,0.07699401,0.016444474,-0.04908453,0.008943148,0.04165429,-0.034682196,-0.016078807,0.056960188,-0.06530759,-0.029568028,-0.063711986,-0.022738997,0.04344873,-0.028657582,0.07411773,0.018178314,0.0010678023,0.009469114,0.075423874,-0.060915664,0.047027104,-0.018572912,-0.06677074,0.06307576,-0.052546784,-0.06237901,0.032232888,-0.05126328,0.06385846,-0.024760488,0.04153745,-0.07486005,-0.041141246,0.056966953,0.05113805,-0.022369288,0.026310295,-0.00083498657,-0.07179044,-0.0566413,0.06423963,0.019093014,0.042865314,-0.008604579,0.061137654,0.03425575,0.05448807,-0.06551288,-0.029434342,0.0050108805,0.051012553,-0.07661374,-0.0032819211,-0.014567636,0.008351475,0.035607286,0.030024506,-0.01833371,0.05477067,0.071855284
0.06586004,-0.026185237,-0.073277384,0.018624872,-0.052653395,0.05398927,0.016991422,-0.03763813,-0.06818729,0.041496202,-0.06475271,0.032091543,-0.053636458,0.07480062,0.040663935,0.065956555,0.053335287,-0.0018097758,0.008850113,0.013106167,-0.04305185,0.0046285093,-0.0037122369,0.080111094,0.057430185,0.0724364,0.025866076,-0.029471084,-0.023885064,-0.0048681647,0.009276271,0.011484072,-0.004288964,-0.04103974,0.07727256,-0.046231493,-0.075185895,-0.06273282,-0.034085803,-0.035622288,0.04275456,-0.015873961,0.0037911162,0.07727604,-0.02238582,-0.039536245,0.0058238283,-0.022804111,-0.032108538,-0.015839405,-0.046623945,-0.020026356,-0.0644281,0.056174062,0.06103135,0.07306252,0.009594388,-0.036035277,0.068516485,0.017616458,0.057278387,0.059144087,0.028916426,0.0370318,0.034331784,-0.0029064491,-0.0046060756,0.0048042685,-0.051905002,0.0694394,0.028072909,0.033883773,0.07959198,0.014994606,-0.035791133,-0.060243484,0.06581239,-0.055869646,-0.042568877,0.03530758,0.07139874,-0.07501048,-0.073361926,-0.022254672,-0.061115526,0.02419974,0.031789303,-0.054420665,-0.0037559047,0.0070466846,0.003094457,0.077923305,-0.021416452,-0.07754807,0.07630881,-0.011268854,0.027310476,-0.041229334,-0.025724541,-0.07454717,0.06282971,0.016811386,0.023940101,0.0372895,0.051189177,-0.073363125,-0.0023614392,0.022626974,0.05021497,-0.07117322,-0.02912118,-0.032847494,0.032755077,0.020072944,-0.025738426,-0.020306375,0.041265726,-0.06653967,-0.07270628,-0.06362347,-0.055014312,0.0058901384,-0.05343592,-0.017905973,-0.0017150342,-0.016156882,0.04815308,-0.07739087
-0.059512477,-0.018677857,-0.024509788,0.06909909,-0.047527973,-0.028337494,-0.018992435,0.041479357,-0.06601011,-0.06336638,0.06507508,0.0043626428,-0.03895012,-0.071992755,-0.035737235,0.04371614,0.058973096,0.007102683,0.080138184,-0.049141984,0.077089615,0.078753,-0.039096646,-0.008929864,-0.043200042,-0.06441988,-0.010120682,-0.01221589,-0.07759866,0.023968197,-0.002213113,0.07623818,-0.07011615,-0.013968594,-0.008078866,0.01782158,0.00018493086,-0.017370068,-0.021258168,0.07166528,-0.06708737,0.005788803,-0.050737336,0.027963087,0.01952383,-0.059262045,-0.038405728,0.063135795,0.038857818,0.015013851,0.026597507,0.0062589794,-0.059801176,0.060507856,0.076740555,-0.07373726,-0.045934863,0.078210734,-0.031682555,-0.04920785,-0.048701014,-0.030122574,0.014495544,0.0067383945,-0.04208925,0.07354692,-0.03978335,0.03650172,0.062222876,0.060521774,0.01939585,0.07887184,0.014597848,-0.07039984,-0.055784013,0.04817257,-0.06374927,-0.07135823,-0.031544153,-0.060185064,0.0041249394,-0.054863818,-0.047361024,0.07784777,-0.077318735,-0.005203262,0.0012655929,-0.008013889,-0.000106692314,0.008777365,-0.0291147,0.031127408,-0.046617523,-0.0077490285,-0.07918695,0.0055757314,0.020619884,0.05261425,0.036619447,-0.07142309,0.045352392,-0.05166836,-0.010101669,-0.032492038,0.024322957,-0.0058390275,0.038612127,-0.002568245,0.0454965,0.008158423,0.074054755,-0.006616384,0.015503801,0.05538615,0.08053685,-0.026833225,0.04658792,-0.003981814,0.0094424635,-0.057195805,-0.03551819,0.038646936,0.0136741325,0.008349061,-0.059124224,-0.029932112,-0.019667227,0.080843575
-0.041262846,0.039011188,-0.02737495,0.05907709,-0.0025021061,-0.036697324,-0.05130706,-0.045974042,0.051435463,-0.041638378,-0.07267559,0.077692784,0.056533076,0.05651138,-0.006773919,-0.03785619,-0.047007944,0.052943476,-0.022779666,0.04854683,-0.020828314,0.064035006,-0.04296976,0.041216552,0.017520845,-0.021495778,0.04772278,-0.06954768,-0.051087633,0.038460627,0.050712414,0.07142582,0.08051983,-0.046223022,0.016026348,-0.043783903,0.069507115,-0.03569334,-0.05118417,-0.025446687,-0.07334468,-0.055379532,-0.06202247,-0.008633487,-0.07698716,-0.023669694,0.011765115,0.069765486,0.0058228746,-0.024115615,0.05823127,0.06473098,-0.0052165613,0.020367622,0.010370083,-0.027582757,0.054688223,0.02353821,0.07011425,-0.04863439,-0.025035266,-0.029264979,0.079563715,0.026010402,-0.049531534,-0.077477425,0.026190631,-0.062665835,0.06526894,-0.015080281,0.019350484,0.031658404,0.01585944,0.045684554,0.074112095,-0.068055905,-0.029242333,-0.027328923,0.06587132,0.06906993,0.0044450015,0.04333982,-0.031333614,-0.06586826,-0.07094354,-0.075538166,0.076404326,0.07382692,-0.016258076,-0.071100704,0.039921887,0.051293217,-0.058295615,0.055265166,0.024470918,-0.07554495,0.036140442,-0.061210282,0.025564402,-0.07661386,-0.044550568,-0.07340078,-0.07351758,0.059672438,-0.06007897,0.011739723,-0.056264415,0.031961218,-0.059781685,0.053317197,-0.049275458,0.067767255,-0.056258574,-0.0061202273,-0.030025281,0.037405223,0.055030383,0.03128767,0.060453437,0.06016957,0.03054972,0.0059098974,0.056132488,0.016381897,0.048163064,-0.010801546,-0.07862978,-0.07446742
-0.069124736,-0.07638561,0.0027987584,-0.0040658414,-0.0045464933,0.047203906,-0.07288052,-0.0389555,0.059906162,-0.005555451,0.039209485,-0.078895465,0.05096715,0.013400689,0.04863202,-0.03327029,0.010890558,0.018308558,0.06086766,-0.073082566,0.020898782,-0.06280811,-0.0313814,0.024002329,0.05317705,0.03219574,-0.037402652,0.056642868,-0.06809499,-0.0493373,0.009555519,-0.0029150546,-0.025524527,0.059332453,-0.07114427,-0.06331425,-0.0726264,0.077411465,-0.072944045,0.05493679,0.03483905,-0.03285115,-0.07932447,0.028519005,-0.0013373792,0.04526431,0.03250432,-0.06755284,0.056023322,0.036625408,0.028481774,0.036725193,-0.00718607,0.037405126,0.025161818,0.03550914,0.019720964,0.06275784,-0.014988169,-0.062961675,0.055065922,0.07959371,-0.055066854,0.06702473,-0.0334277,0.045250617,0.015608311,-0.04240079,0.034845084,0.015979975,-0.07826556,-0.050741225,-0.02260423,-0.06882948,-0.0063416883,-0.047036603,0.02872774,0.039093375,0.014379807,-0.06750695,-0.03527739,0.014140822,-0.053149328,0.01713872,-0.031948417,0.030395478,0.07343853,0.041137286,-0.025880486,0.043480463,0.02248729,0.007176213,0.034828298,0.056192674,0.08105699,0.015473716,0.010954313,-0.048213497,0.04702943,0.06530898,0.07912096,0.023745209,0.06472392,0.057405524,0.013691984,0.061093397,-0.02098072,0.01930502,0.052916564,-0.05525416,-0.062145308,-0.04477416,0.008608058,-0.017421298,0.03482826,0.005608052,0.025046676,8.2306564e-05,-0.05918605,0.06649328,-0.051284395,0.034023978,-0.041353814,0.045394532,0.06899322,0.040742874,-0.011904426,-0.06069196
-0.03750404,-0.002916351,-0.0060141757,0.021879137,-0.049593147,-0.07822689,0.061656766,0.02030833,0.0064027756,-0.04414062,-0.05014249,-0.07570449,0.030077532,-0.02813537,-0.014874615,0.036898717,-0.06328577,0.031657957,-0.060250137,0.063178055,-0.016758397,0.062700026,-0.005989827,-0.018908545,-0.04898453,-0.024172235,-0.0036422312,0.058884792,-0.0024934039,0.07171642,-0.017931305,-0.062323824,0.027599141,0.05405482,-0.050444458,-0.0131227225,0.03886188,-0.019504204,0.055192538,-0.052324124,0.08055543,-0.016539507,-0.024581242,-0.011391379,-0.009199619,0.033189476,-0.015059993,-0.012307145,-0.04636545,0.02818992,-0.06303866,0.06168864,-0.06570008,0.01951304,0.025405243,-0.062785946,0.0015251935,-0.022350859,-0.05645691,0.022267066,0.05958701,-0.07112102,0.056983523,0.011708334,0.0752578,0.01763247,-0.021739032,0.0063264444,0.056529008,-0.039371774,0.0007195398,-0.058091633,0.0051835924,-0.076120734,-0.05979143,0.020490013,0.054686166,0.058563404,0.0741886,0.03915047,-0.0013528094,-0.06458731,-0.039950006,-0.028212763,-0.07238525,-0.080049135,0.00021850318,0.008736834,0.065583624,0.08060173,-0.033844326,0.034112357,-0.04079654,-0.07146227,0.063382335,0.013605967,-0.019656897,0.053992264,-0.05824901,-0.009246282,0.020423949,0.048384182,-0.056407694,0.06629575,-0.042859357,0.0019042194,-0.017459296,0.045354284,-0.025886286,-0.0407727,-0.068471,0.013590857,-0.04877208,-0.05633858,-0.0022527203,0.06251205,-0.077058636,0.057091393,-0.0020603985,-0.07946854,-0.06296523,-0.015053824,-0.055418946,-0.040028695,-0.043325722,-0.029440299,0.031866208,0.07156057
-0.051687717,-0.013077214,0.054087095,-0.039951943,0.07736031,0.0027160272,0.038015865,-0.076067686,0.07357193,-0.036685817,0.046005197,0.025050059,-0.006048076,0.0013582259,0.07094192,-0.02970738,-0.04913516,0.040241435,-0.041759375,0.06512947,-0.048957303,-0.009045951,-0.0058978125,-0.06615216,0.06508734,-0.034369517,0.022700049,0.0056166574,-0.036010157,-0.045082122,0.0017580092,-0.016743645,0.05595816,-0.044783268,-0.013653748,0.024530672,-0.00066256523,0.048420362,-0.012220897,0.0044274107,-0.07576883,0.05956561,-0.016657218,-0.07191504,0.029017158,0.07815532,0.007117443,0.07675371,-0.080950625,-0.0005940348,-0.059635874,0.0053927377,0.036605835,0.062522225,0.018421873,-0.04299256,-0.06114865,-0.08014897,-0.052769385,0.0761871,0.04443889,0.006703697,0.052997388,0.01844982,0.0050369725,-0.0032663345,-0.07336614,-0.074417874,0.035535984,-0.054336965,-0.019990485,0.06322286,-0.04233761,0.0068304986,0.023977093,-0.007437527,0.032707058,0.080645,0.056531437,-0.056596763,-0.01417952,0.01459378,-0.03273986,0.0020799488,-0.05570668,0.0015715286,-0.043777194,0.014532268,-0.05389563,-0.04223241,-0.020068746,-0.057081945,0.035771623,-0.018980097,-0.05846691,-0.0052905157,-0.034914043,0.03777708,-0.04976,-0.0011507273,-0.03788994,0.06081427,0.034019686,-0.048172653,0.075881414,-0.050825812,0.059648044,-0.021617223,-0.039603136,-0.06264269,-0.07195331,0.0202993,0.0022771806,-0.052137196,-0.05734502,-0.07903963,-0.042907182,-0.039374325,0.067489184,-0.060338106,0.03968565,0.017376527,0.047898285,0.016796999,0.024356224,-0.064941086,0.07363733,-0.042348072
0.03763421,-0.07450165,-0.008369155,-0.04448045,-0.060608864,0.05059781,0.027025893,-0.0047482103,-0.056525774,-0.07798595,0.036208823,-0.022863846,0.012738161,0.021492042,0.051977597,-0.00048664957,0.05284237,0.03464762,-0.073617004,-0.057726294,-0.055923484,0.042442754,-0.07836724,0.073486276,-0.0309138,0.054312266,0.0195283,-0.07016281,0.0033830032,0.04976525,-0.045137815,0.019401707,-0.008829907,-0.06349704,-0.03200686,0.063453,0.026334122,-0.0074427873,0.017186292,0.057126485,0.0540132,0.07589751,0.040923476,-0.024755538,0.012263849,-0.0014736205,0.012752391,0.008908153,0.07045867,0.056501277,0.014655508,-0.004458055,-0.027968228,-0.06184247,-0.005964741,0.07604637,0.07541827,0.030748263,0.08059385,-0.006679736,-0.05138447,-0.055683978,0.022234425,0.051940627,-0.04365979,-0.031157754,-0.01862777,0.01724843,0.07818372,0.0668507,0.04595072,-0.047441702,0.035823524,-0.05947059,-0.04870573,-0.07172092,0.011287376,0.024965957,0.050366856,0.07340623,0.034172073,-0.053981915,-0.0328655,-0.009976417,0.063331656,0.023847528,0.07060564,0.047038816,0.044998504,0.0002272278,-0.010704368,-0.016924627,0.009738557,-0.046359167,-0.06833335,0.06315527,-0.04232734,0.0030363277,0.036539525,-0.06461719,-0.006656781,-0.062101837,-0.07227164,0.053944133,-0.002217874,-0.03595599,0.029515773,0.02710694,0.07839619,0.020538375,0.008790866,-0.025446612,-0.017704308,-0.0062999576,0.07693548,0.07298031,-0.015587345,-0.061526075,0.016508892,-0.04354403,-0.036909796,0.07415741,-0.06413244,-0.05839277,-0.020727292,0.07230813,0.031622842,-0.029433686
-0.036349952,0.034125775,-0.011844903,0.02034074,0.050324775,-0.0037387535,0.04608711,0.06801938,0.028556518,-0.07814613,0.010910958,-0.036452036,0.023874387,-0.07626534,0.0186017,-0.048055597,-0.03569208,0.01246421,0.0025808513,0.055068724,0.0637097,-0.0061621293,-0.008406803,-0.037662443,0.060155623,-0.06704223,0.05413378,0.054535203,-0.025640052,0.057261206,0.063298605,-0.015273638,-0.035309337,-0.0553992,0.0446978,-0.032053195,0.01685457,0.0326463,0.04448002,-0.056836016,-0.074063964,0.05534645,-0.06020736,0.048762955,0.055929013,-0.029787749,0.045402654,0.08085921,0.053223394,0.0062679276,-0.05081086,-0.06441433,-0.02063325,0.07998914,0.0075446665,-0.022410206,0.05970835,-0.051645443,0.027311385,0.07286937,0.08077315,0.01482147,0.06610333,0.038975373,-0.07227571,-0.07904592,-0.06002587,0.004715584,-0.0562462,-0.016259335,-0.042991787,0.06890134,0.022074357,-0.06719257,-0.030502763,-0.0353478,0.055598535,0.07010279,-0.051266856,-0.042134173,0.0762502,-0.013322271,-0.0017340854,-0.0731037,-0.06642186,-0.06548569,0.042208023,-0.05062577,0.079950236,0.02998539,-0.02136153,0.006123431,0.033662118,0.07666203,0.019366033,0.048324667,0.06909203,-0.05151849,-0.029819794,0.0072517693,0.05733893,0.004819259,-0.018920612,-0.0068837404,0.044121496,-0.05579173,0.04045926,0.010572828,-0.02459675,-0.038269315,0.001557894,-0.056724377,0.027867131,-0.07536845,-0.07943276,-0.06416686,-0.001733385,-0.0026670024,-0.07107123,0.059727512,-0.047832087,-0.021515291,-0.06792937,-0.005796656,-0.056661874,-0.0536224,0.058913045,0.06291083
0.06171503,0.057878427,0.051216863,-0.022935979,0.07343582,-0.018683117,-0.07977538,-0.05870835,0.03351631,0.01638037,0.021438688,-0.017262042,0.06379297,-0.031534135,-0.051999953,0.05728676,-0.040756725,0.06565494,-0.05050785,-0.013443172,-0.033604395,0.07248733,0.070826344,0.023775607,0.061529465,0.055513106,0.034708694,0.078364186,0.01015611,-0.040091507,-0.06727168,0.043594502,-0.07299626,0.048698418,-0.066832565,0.006501302,0.020638376,0.07407794,-0.037357397,0.042267874,-0.017390892,-0.043432023,0.071136974,0.048506416,-0.049914744,0.029874966,0.039835468,0.048591487,0.03645987,0.07661884,-0.057098866,-0.061339036,-0.013233528,-0.062618226,0.04811833,-0.019621529,0.028524034,-0.02630525,0.04163909,0.029178634,-0.0728671,-0.043357126,0.002077803,-0.07664327,-0.008012012,-0.064343125,0.06848531,0.06108377,0.013028502,0.045289956,0.029344559,0.07801809,-0.020276401,0.06993946,0.015387289,0.039406776,0.04784315,0.029250652,0.0028582588,0.04718996,0.058561303,0.002771467,-0.023045994,0.018521428,0.02441667,0.061688133,0.002336882,-0.0060992017,0.055382915,0.06268027,-0.03409091,0.024831481,0.04312487,0.035966396,0.007689722,-0.06606207,-0.07141394,-0.060895417,-0.06557449,-0.048022743,-0.034920793,0.044076912,0.009212844,-0.078874506,-0.07544787,-0.0068136007,-0.023594059,0.009730548,0.022257105,-0.047867727,0.07910127,-0.0044020712,-0.073394686,-0.07726908,0.07743024,0.0059322193,-0.008796081,0.053736396,0.07934276,0.025877722,0.03872475,-0.016066082,0.051383607,-0.068115465,-0.027757324,-0.0033821315,-0.07458674,0.058418564
0.068538494,0.06233359,-0.0024946034,0.034136333,0.034966834,0.021795094,0.035478644,-0.06785821,0.022050612,0.06989271,0.0073433295,-0.0651612,0.02216196,0.0229991,-0.058638982,-0.052788764,-0.0223777,-0.057373874,0.07289872,-0.07713682,0.0045636073,0.017486408,-0.03150389,-0.07396341,-0.03558982,0.062847264,0.047047533,0.022535697,-0.07390779,0.015590869,0.07971058,-0.00036479533,-0.06318952,-0.02810561,-0.029954292,0.041536964,0.042018197,0.05560536,-0.035303712,-0.019398306,0.01960513,0.058280595,0.07051393,0.01775784,-0.029631943,-0.004438646,-0.047081664,-0.034053992,-0.04277108,-0.07677686,0.027866803,0.07202806,0.024251737,0.027159713,0.014382802,0.028736211,-0.061253756,-0.05188,0.05232314,-0.022013966,0.07561221,-0.079131626,0.061971895,0.005332075,0.059983023,-0.060423546,-0.05508801,0.020540774,0.06524905,-0.06437925,-0.059013397,-0.07410968,-0.002561532,-0.012333639,0.013812751,-0.06802864,0.066351004,-0.0025948882,-0.0713,0.07198643,-0.02323785,0.0380074,-0.038479988,-0.04458008,-0.0571545,0.06950953,-0.05992531,0.019847803,0.034105256,0.041385196,-0.04704819,0.010463141,0.05935978,0.06480657,0.036967054,-0.034533348,0.05836902,-0.011616424,0.011933513,-0.033550113,-0.045595594,0.0716056,0.0076991394,0.02025064,0.0010672808,-0.0765519,0.07392197,-0.05118084,0.017536394,-0.025751248,0.06814145,0.049711935,-0.013420835,0.031871043,-0.019388638,0.049876325,0.05053576,-0.017150074,-0.010630801,-0.03119351,0.02509614,0.02710586,0.05468627,0.015594266,-0.027004331,0.03917466,0.06343005,-0.016191088
-0.043578994,0.010226905,-0.009270743,-0.05671736,0.029956691,-0.05607645,0.07238569,0.010146171,0.0078014582,0.063390635,0.051783152,-0.00015258044,-0.05784878,0.059561424,-0.047893792,-0.06873468,-0.057826158,0.042439677,0.050152205,-0.078041896,-0.009190202,-0.06053261,0.0056722537,0.012884371,-0.03259045,0.050557338,0.050649844,0.016176157,0.04112243,0.03213474,0.0011734068,0.05234859,-0.0713264,-0.05810933,0.07702576,-0.0046086833,0.030103333,0.046364836,0.039994366,-0.026176266,-0.07470346,0.059733056,-0.020125717,-0.070945665,0.0055649653,-0.05871336,0.03481012,0.037143804,0.022331268,0.022530437,0.0043397844,0.01826901,0.035082266,-0.007010035,-0.05640758,-0.057348773,0.046482556,-0.005979888,-0.058519647,-0.03576539,-0.016528003,-0.0096787065,0.009200431,0.004562542,0.021408848,0.072051115,0.06472904,-0.008595586,0.017524637,0.07334451,-0.081059694,-0.060817868,-0.05278791,0.013375953,-0.04407071,0.039513737,-0.03360186,-0.050451808,-0.019479334,-0.078741826,0.045560814,0.078423165,0.01741679,-0.053280342,0.05544821,-0.07181094,0.06779877,-0.060568754,-0.041342404,0.02423495,-0.07003746,-0.03944752,-0.057551034,0.052210264,-0.014807723,0.0319361,0.010638364,-0.023559444,0.061293162,0.023903973,-0.045195017,0.0004838854,-0.054118544,-0.038371306,0.064714946,0.031424217,0.066264965,-0.03662467,-0.010501526,-0.04816958,-0.06345399,-0.018565312,0.030978195,-0.008742131,-0.041396726,-0.022430185,0.044924937,0.0076242387,0.077223666,0.032367907,0.0062341616,0.075333916,-0.06109017,0.029589027,-0.030854024,-0.03792289,-0.07041245,0.058620833
0.02505172,0.0530454,-0.07899622,0.02461458,-0.063348696,-0.030669983,0.016361497,0.026404709,-0.0025290623,-0.037631985,0.00868883,0.0720289,0.020496532,0.073468424,-0.03176157,0.014338829,-0.07362184,0.033245943,0.058427177,0.0049906895,-0.06008829,-0.067976326,-0.0615161,0.007976256,-0.07132466,0.02790416,-0.055248614,0.0755929,0.075336896,0.07501737,0.064791776,0.017360575,-0.060710482,-0.03340813,-0.02069258,-0.059973985,-0.07012327,-0.029732328,-0.052792184,0.015339874,-0.07987973,0.0051811934,0.057203226,0.03698349,-0.009873539,-0.06502801,0.039828025,0.006557092,-0.056800224,-0.011430465,0.020845585,0.0005003363,0.0005211681,0.07713904,-0.01972907,0.02447281,0.048587464,-0.016487174,0.015726544,0.017589115,0.06887964,-0.023824226,0.024314724,0.05238857,0.038868263,-0.015611596,0.013667613,-0.022842612,-0.0037332997,-0.034980044,0.064253084,0.0031021312,0.0058545917,0.04972566,0.054382168,0.024640381,-0.04885139,0.055333994,-0.041114967,-0.01606328,-0.0079959035,-0.07592609,0.07574112,0.022764154,-0.048518866,-0.019096106,-0.06712643,-0.033453055,-0.073630445,-0.066998236,0.08100835,0.016039304,-0.033820983,0.07488755,0.06904287,0.06743754,-0.028469652,0.032463744,-0.014741972,0.042019285,-0.08039088,-0.06447679,0.070437305,-0.06684436,0.041692697,0.041162074,0.06529341,0.011415862,-0.018058144,0.048237436,0.0078847855,0.021293186,0.029005185,-0.004672542,0.062854715,-0.07417804,-0.024095017,-0.020527568,-0.07648731,0.061786853,-0.016510889,0.06322872,0.03985571,0.07065227,-0.02679281,-0.044654977,-0.012402654,0.012317374
-0.055347685,0.020211272,-0.059519768,-0.07430417,0.043240957,0.0057826936,0.029256485,0.068701945,-0.04570735,-0.005376123,-0.06728301,0.025845133,0.059285633,-0.054832704,0.06504429,-0.052700773,0.025287516,-0.028479803,-0.04805985,-0.005558856,0.039504163,0.027660154,0.0003463328,-0.06787223,0.07819215,0.06117811,-0.000385724,-0.014461741,-0.034106303,0.010425009,0.071494184,0.0720659,0.055544563,-0.014726639,-0.035605755,0.021363638,0.018683895,-0.058923393,0.03443163,0.04695251,0.013735302,-0.046869736,0.021020792,0.055844642,0.019967623,-0.036129784,-0.04956793,-0.06085587,-0.053977795,0.061757825,-0.02459066,-0.003987327,-0.0641125,0.04349011,-0.014907047,0.024563529,-0.012333117,-0.07154115,-0.077588566,-0.016264476,0.05706384,0.0017256886,-0.046962347,0.064532526,-0.058822334,-0.07755627,-0.057398994,-0.031378172,-0.027868386,-0.015505545,-2.130866e-05,-0.060356364,0.0075260997,0.019444197,-0.07639721,0.07156352,-0.08003018,-0.06870343,0.018378176,0.022591837,-0.06612188,0.061759748,0.048713513,0.06983016,-0.016154788,-0.07906002,0.077120624,0.014329329,0.033831656,-0.04562452,0.032668345,0.040035196,-0.061848234,0.0030597448,-0.079628624,-0.06735224,0.0018492416,-0.06687484,0.029297791,0.067067154,-0.032597043,0.015616395,-0.03129374,0.021966353,-0.045742292,-0.06282982,0.03167426,-0.06731697,0.002741091,-0.06256743,0.023052126,0.04324042,0.01586309,-0.042696025,-0.073807366,-0.04476967,0.07904657,-0.067574784,-0.017974079,-0.06318527,0.054182105,0.018287614,-0.029755011,-0.0026465654,0.0074707493,-0.03788928,-0.009799913,-0.07990079
-0.0221918,0.020863183,0.07898035,0.01298099,-0.00729087,-0.0656052,0.07018975,0.053300418,0.057096638,-0.07657363,-0.053229928,-0.07517371,0.08087925,0.013301581,0.03271547,0.044035576,0.020333722,-0.008172035,0.05087789,0.025362007,-0.07360621,0.055171914,0.06119568,-0.05444379,-0.053630095,-0.022765376,0.027642459,-0.011984117,-0.075396724,-0.0772836,-0.014190622,0.04588584,0.019687727,0.039528996,-0.07501893,-0.005975552,-0.074979715,-0.014271803,-0.052858535,0.08105364,0.05184386,-0.04295605,-0.056641493,0.016751915,-0.031710885,0.028649926,0.054685034,-0.080598034,-0.0329554,-0.038957644,0.06624261,0.041294016,-0.05071566,0.04869487,-0.02362999,-0.013133861,-0.014819406,0.050856717,-0.05067029,-0.01854568,0.06166727,0.02778326,0.07532237,0.08005851,0.02096212,0.05906444,-0.0808951,0.0075072274,-0.07621808,0.0019807816,-0.008628301,0.06661864,-0.022589687,-0.073163986,-0.0074447617,0.072180085,-0.021795213,-0.014545731,0.01333157,0.034617797,0.04517264,-0.020069424,-0.035097197,-0.03426681,-0.0035691187,0.07518896,-0.06224279,-0.044526726,0.005611919,0.04888498,0.023779534,0.061200492,-0.038183242,0.06900998,0.043889813,0.020460576,-0.027286477,0.0041864514,-0.053283513,-0.07493322,0.022558399,-0.021218874,0.048454426,0.06431887,0.07982435,0.059815504,-0.018820323,-0.07268828,0.022474505,0.07833723,0.021085978,-0.023218587,0.008417286,-0.0350229,-0.05792086,0.014850192,-0.070037015,-0.07317234,0.0077336356,-0.06968491,0.017071366,0.03538414,0.01815255,0.028420419,0.027348362,0.07640021,0.011492774,0.07230439
-0.0045638755,-0.057120368,0.020123959,0.06901211,-0.072741285,-0.017542258,0.031112596,0.031741574,0.02890043,-0.07442873,0.012606174,-0.060782287,-0.050625466,-0.02839313,-0.018970001,0.066368364,-0.074018136,-0.037081923,0.028366253,0.061844535,-0.019839607,0.055232354,0.006897643,-0.063335754,0.056316026,-0.0691888,-0.02084959,0.06257301,0.05464331,0.040425383,-0.035505988,-0.019786078,-0.058826353,0.0479706,0.055933796,-0.078606844,-0.030814711,0.020764172,0.011020742,-0.07736403,0.011930011,-0.03373319,-0.055362575,0.040046662,0.0535407,0.028294966,0.050581835,-0.033054184,0.010349527,-0.029488102,-0.03717591,0.025224239,0.02462671,0.03263036,0.07303699,0.007706873,0.048753656,-0.06992729,-0.060578696,-0.05524101,-0.06744375,0.003620863,0.03704445,-0.07736211,-0.041521475,0.01675383,0.010259934,-0.023599397,-0.07079123,0.06354024,-0.07102144,0.0642714,-0.008481041,-0.042961426,-0.022676498,0.016156703,0.07682326,-0.04488135,0.076735936,-0.0022922456,0.07056741,-0.05189473,0.075792186,-0.07859311,-0.039074544,-0.051727764,-0.056258284,-0.0767587,-0.070242606,-0.042730276,0.0023031533,0.02991511,-0.01979803,-0.04303257,-0.054153755,-0.045864955,-0.050377432,0.012272939,0.05752272,-0.019191656,0.044061773,-0.019371968,0.018196024,-0.028653327,-0.03228011,-0.03249714,-0.052274518,0.050380297,-0.025190786,-0.0071570277,0.01796358,-0.0006361902,0.043749034,-0.076226875,0.0018204302,0.030710846,-0.059051663,-0.044136807,0.0680752,-0.0791471,0.06844578,-0.0017041862,-0.061535686,0.021852858,-0.06541929,0.061981358,0.024548732,-0.050107718
-0.03388449,0.022329476,0.012499863,0.00038415391,0.048007153,0.046805378,-0.023188252,-0.016182,-0.05028822,-0.0057826466,0.07991077,0.015298799,-0.056430414,-0.013591638,-0.02681182,0.03193855,-0.047848828,0.004214603,0.06665784,-0.041500475,0.041393906,-0.030979376,-0.0692758,0.0077876765,0.007320324,0.058331795,-0.03833057,-0.044202633,-0.08052418,0.050291844,-0.0143942125,0.04908687,-0.03772032,0.0339426,-0.06837131,0.04643712,0.055921666,0.02368809,-0.044731308,0.0064570196,-0.005959019,-0.05707816,0.053780816,0.017703168,-0.026294053,0.03578226,-0.03019694,-0.011072218,0.022985196,-0.02855309,0.07304833,-0.018942913,0.066975065,-0.020782216,0.052273862,-0.025337445,-0.04828812,-0.01599092,-0.04521165,0.0712463,-0.02563089,0.017474167,0.04805074,0.03612818,0.031051956,0.03426378,0.060645647,0.07996232,-0.033997774,0.08128028,-0.07924708,-0.03099828,-0.00568486,-0.0035914597,-0.008306349,0.033363547,-0.039455537,0.03376589,0.08697426,-0.0610413,-0.051964592,-0.015020968,0.04496557,0.036222752,0.057038527,-0.04355259,-0.06907554,0.062228683,0.055491805,-0.005097636,-0.02035445,0.025431886,0.060343586,0.08492878,-0.07186707,0.07269609,0.0063692406,-0.0017205477,-0.004909905,-0.014394819,0.055009417,0.057245813,0.0012986789,0.012451283,-0.074054345,0.062367722,-0.03260389,-0.051564675,-0.07029677,-0.012945447,0.0102081075,-0.049155425,-0.06765949,-0.005189855,0.074824296,-0.0034344196,0.0016354142,-0.07302316,0.045435257,0.053505335,0.0022372082,0.03661502,0.011711309,-0.029383987,-0.055902082,-0.077550195,-0.021902354,0.04357946
0.033371948,0.03860777,-0.055667672,-0.048015364,0.049168788,-0.05639627,0.06569553,0.03274954,0.020523194,-0.014054095,0.032721374,0.039622493,0.0075352862,-0.066955864,-0.014223463,0.057844315,-0.06589882,0.008721185,-0.043185435,0.010273557,-0.0685345,0.06014403,0.025142757,-0.071620464,0.07523202,-0.07275925,-0.034623735,-0.011975355,0.07328482,-0.0919547,0.026430966,0.014752886,-0.025972074,0.0046147835,-0.062407114,-0.010110457,-0.06077616,0.024617635,-0.080168106,-0.053194597,-0.06480038,0.06321298,-0.023570102,0.036662668,-0.007748373,0.010057506,0.03343365,-0.037913684,-0.04747506,0.016740866,-0.012331366,0.106916204,0.06224995,0.019598037,-0.067632355,0.10677494,0.057207085,0.027432092,0.05579322,-0.05448102,0.07898239,0.07173175,-0.019323312,-0.035900798,0.05383535,0.08504155,-0.033042293,0.02617509,0.0146802245,-0.0023611735,-0.0048646852,-0.016285466,-0.04522594,0.031812593,-0.0052719093,-0.011070422,-0.0706149,-0.01797232,-0.0037141065,-0.029080365,0.049332455,-0.021782115,-0.0017968832,0.0017527669,-0.059463333,-0.07629412,0.08907348,0.05906892,-0.11368992,-0.006238516,-0.06873792,-0.06245823,-0.04129288,0.038263023,0.09172786,-0.0023679438,0.07575763,0.00021788478,0.063871704,-0.031771522,-0.06495642,-0.040780354,-0.07549139,-0.0049229725,0.007684062,0.02958438,-0.0052974373,-0.0068843146,-0.054648664,-0.0077916896,-0.034130808,-0.034309465,0.044563763,0.030701973,-0.03852959,-0.080207996,0.0978133,-0.0053756833,-0.06636904,-0.0075941347,-0.045741208,-0.036010176,-0.0011202798,-0.013520896,0.05488508,0.033099547,-0.028346196,-0.051823996
-0.04103662,-0.11884805,0.034172438,-0.16730684,0.06237439,0.19199726,0.04983267,0.031537894,0.13687892,0.11133104,0.022732148,0.03605055,0.01972282,-0.030993907,-0.023492146,0.07265832,0.016120126,0.035211004,0.011207636,-0.14431393,-0.075293906,0.12145176,-0.0063884715,-0.08763737,-0.0013474203,-0.053433813,0.0088810045,0.06367422,-0.051817242,-0.008653005,0.17272142,-0.026934763,0.1477376,0.024346974,0.0056695063,0.01256863,0.063325234,0.035928,-0.08268506,-0.026270403,0.031439677,-0.052655328,0.007439196,-0.02330358,-0.11217329,-0.006620936,0.027323065,0.061727367,0.11573611,-0.12351198,0.006365532,0.09636304,0.06938081,0.07371477,-0.04715409,0.09808423,0.010702833,-0.006155073,-0.0640968,0.00401368,-0.013014646,-0.01852557,-0.056375902,0.023228392,-0.022942185,0.12124055,-0.0044993833,0.112211555,-0.03691797,0.10489651,-0.06421405,-0.063956454,-0.04168409,-0.035421453,-0.14591369,-0.17673892,0.0019236633,-0.12060707,0.123564824,-0.015208028,0.095803514,0.085354716,0.032252826,0.06860298,0.012068413,0.0178852,0.12312274,-0.11691705,-0.09677508,-0.059064288,-0.06094424,0.071998745,-0.11664092,0.1406812,0.024343986,-0.18446709,0.0439095,0.0016990602,-0.07028778,-0.06011732,0.07667156,0.07239608,-0.102887504,0.11314754,0.010671983,-0.003941663,0.080652565,-0.065172836,0.086192176,-0.015292332,-0.044732306,-0.026592886,0.0016556084,0.02110777,0.055180937,-0.03466777,0.034917127,0.028813735,0.056397207,0.035563137,0.016187742,-0.08704774,0.062108785,-0.023975682,0.018196706,0.07647974,0.10272926,-0.0747603
0.037360616,-0.08645795,0.13591509,-0.13107257,0.024953155,0.143929,0.05497862,-0.109041795,0.046702195,-0.011487467,0.06683983,-0.055697538,-0.0029712261,-0.050731365,0.12386549,0.023305392,-0.0044454564,0.09538993,-0.09114331,-0.13039307,-0.10411957,-0.0052912,0.033886123,-0.0045041507,0.13485155,0.02259751,-0.11563962,-0.009492591,-0.049528163,-0.07391626,0.12217843,-0.024268746,0.08440554,-0.022891149,0.075057685,-0.10115541,-0.016708622,0.16629112,0.034011517,0.050695598,0.053990584,0.04982068,-0.0010919571,0.08877871,-0.075114444,0.03540964,-0.037256286,-0.052711442,0.032297622,0.01948047,0.15146355,0.0985766,-0.062460452,0.06427778,-0.034100283,0.091988206,0.019548194,0.04856392,0.014371862,0.02134551,0.05360295,0.07669782,0.013689879,-0.05308418,0.055303942,0.15746105,-0.025854344,0.12865672,-0.044335697,0.012871226,-0.03895,-0.028719282,0.015360855,-0.0068396986,-0.09281143,-0.1327941,0.015401894,-0.11023908,0.10378573,-0.029340275,-0.033497263,0.091272056,0.01694655,0.08550411,-0.063994594,-0.010065315,0.019858057,-0.040074646,-0.021880275,-0.15446205,-0.008832729,0.12103403,-0.016598087,0.07955543,0.05640977,-0.14583446,-0.033886205,-0.033374693,-0.017409319,0.01337617,0.09305335,0.0032237682,-0.04882802,0.03519651,0.011191971,0.006622228,0.07059197,-0.0976467,0.10627592,-0.0001613333,-0.18170357,-0.029131163,-0.023362234,0.038845748,-0.0065542236,0.057530932,0.12476567,0.017009735,-0.04516812,0.16664724,0.0648069,-0.05347738,0.10514407,-0.03494748,0.12998302,0.07281012,0.024668846,0.06442558
-0.052018188,-0.1936982,0.04320914,-0.154577,-0.002534139,0.17350602,0.14360829,-0.17622037,0.084409595,0.022671623,0.11388644,-0.058383036,0.048639152,-0.058838796,0.09040644,0.12529583,-0.13283885,0.117990784,-0.09034281,-0.037724886,-0.020998904,0.13640833,0.0032735753,-0.23066859,0.06530044,-0.11712474,-0.0025032514,0.03912834,0.06583151,-0.11613053,0.13601406,-0.050581794,0.08989772,0.03591438,-0.0037826882,0.085441455,-0.028629182,0.113534845,-0.06554408,0.0488785,0.08812509,0.052560814,0.05874855,0.054326795,-0.112594426,-0.03368334,-0.024128165,-0.07597809,0.08528558,0.004238057,0.19086228,0.012138711,0.07327224,0.10488017,-0.10456899,0.016392391,-0.03874437,-0.06842902,0.010672346,0.006100051,0.12282577,0.009054482,0.052676413,-0.07269563,-0.13532238,0.08315564,0.038878854,0.0917977,0.040602073,0.06481447,-0.040166903,0.075993046,0.00084976107,0.09407148,-0.15841684,-0.20582741,-0.10070793,-0.037927825,0.12483258,0.101881236,0.08983239,-0.014404483,0.0042120265,0.18358122,-0.0728986,-0.06408857,0.084849045,-0.08163192,-0.12870096,-0.08552287,-0.0607599,0.19506398,-0.034564264,-0.03262587,0.1507002,-0.14577119,-0.024624182,0.058292877,-0.06769576,-0.037318323,0.0064853947,-0.0699182,-0.101144254,0.058541063,0.088517025,0.10752943,0.14207783,-0.053377826,0.14332499,0.0070523582,-0.18128295,-0.03983105,-0.0793398,0.012771636,-0.06300772,0.010763079,0.14333639,0.049669046,-0.044361208,0.056160558,0.071232654,-0.18690814,0.07517004,0.06788037,0.015767774,0.040872127,0.039473638,0.0037208796
0.023582818,-0.011887824,0.106051676,-0.089476876,0.09504373,0.047795326,0.016425014,-0.20781758,0.14197335,0.03717324,0.00850403,0.034080442,0.0454882,-0.07977615,0.041027687,0.045761403,-0.13520667,0.09688504,-0.00455205,-0.17493129,-0.117184445,0.025403932,-0.032152645,-0.07082036,0.030765273,-0.0067286077,-0.13013487,0.032765314,0.06677885,-0.06594694,0.1436404,-0.033021525,0.06775619,-0.06520593,-0.025602605,-0.027119469,0.022778297,0.1102296,-0.12906653,-0.044789176,0.05173823,0.039289106,-0.058965184,-0.08834863,-0.016397007,-0.0576673,-0.025466967,0.06538791,-0.005553591,-0.007901587,0.07382374,0.106084466,0.0009746173,0.023908509,-0.058525056,-0.0532596,0.023320034,0.04050849,-0.08126197,0.027446501,0.043027617,-0.045931138,-0.070126235,-0.035801224,-0.13865666,0.08406093,-0.00469486,0.0958444,-0.04746716,0.10089346,-0.01394164,0.049028266,0.013364188,0.07173285,-0.11559454,-0.17345905,-0.0785133,-0.07118975,0.12893017,0.006337187,0.046976797,0.058065582,-0.045962602,0.1611454,-0.015428941,-0.11020621,0.025944732,-0.08811336,-0.03900186,0.006439383,-0.06313153,0.05371382,-0.11966608,0.036461055,0.038405575,-0.029015569,0.031403374,-0.023595659,-0.12066217,-0.0135464035,-0.022632051,-0.10754771,0.038253102,0.041121256,0.17222418,0.124309994,0.031962182,-0.017710997,0.17525539,-0.047889218,-0.20938274,-0.032818053,-0.063360415,0.035986003,-0.03337341,0.08517905,0.04638956,0.050679073,0.010236882,0.08342964,-0.012042156,-0.07388996,0.0049141743,-0.017215513,0.008331578,0.027804963,0.043065816,-0.009161115
-0.02862607,-0.16369666,0.23456149,-0.052180808,-0.04442462,0.1649263,0.025421852,-0.12782799,0.08456995,0.012436476,0.18779531,-0.054218456,0.030090347,-0.038006004,0.04690851,0.06574848,-0.030538818,0.080450974,-0.018828163,-0.116352595,-0.11329605,0.10715471,0.0076109343,-0.10076911,0.025344998,-0.027250953,-0.013179063,-0.007873481,-0.01588337,-0.1746946,0.16000214,0.015374682,0.15851049,0.13511814,-0.12815914,0.18042076,0.116412655,0.19840874,-0.0845414,-0.09066056,0.09682602,0.11521118,-0.015974227,-0.031046156,-0.12278109,0.010513945,-0.02167068,-0.115171075,0.17675152,-0.03297067,0.07767537,0.19863625,-0.07740302,0.13039818,-0.03342013,0.05859247,0.001023191,-0.037840735,-0.17607512,0.026444197,0.03425515,0.038112033,-0.051328238,-0.10559622,-0.080614775,0.06050254,0.08450746,0.14433749,-0.024887161,0.072954014,-0.10406083,-0.090306796,-0.052093808,-0.04862117,-0.10470483,-0.07273667,0.15946412,-0.014609863,0.012753927,0.019770205,-0.017635783,-0.07510296,0.063628964,0.15393141,0.014187367,0.07676415,0.08511114,0.017768499,-0.12425444,-0.043553423,-0.06261066,0.05658103,-0.09152444,-0.031188767,0.041201346,0.049662422,-0.08970354,0.009355989,-0.15896432,-0.10629185,-0.10724991,-0.0071952627,-0.018847035,0.129487,0.19553016,0.16599342,-0.0061168494,0.18642978,0.14267176,0.0740519,-0.095222704,-0.010885781,-0.038547188,-0.0121514965,-0.024043184,0.08015527,0.15667206,-0.17395623,-0.03929821,0.09291742,-0.0675402,-0.06932179,0.20517424,-0.07260905,-0.05374031,-0.06345458,0.08934601,-0.016626552
0.052629612,-0.06470639,0.12858978,-0.1057889,0.07952369,0.08531228,0.225206,-0.18098763,0.17323348,0.09979252,0.08589269,-0.10836021,0.07834206,0.029997129,0.1279801,0.07292308,-0.056457374,-0.013309109,-0.040753856,-0.13706997,-0.0790853,0.12370336,-0.08122357,-0.051623967,0.14323527,-0.0385222,-0.052618068,-0.029270038,0.24593459,-0.12032021,0.21200767,-0.0522573,0.10977513,0.0036877622,-0.09818091,0.08562212,0.10083411,0.3147588,0.09291951,0.10276892,0.03560607,-0.0679357,0.018806895,-0.010084949,0.029403789,-0.017068716,0.014290211,-0.050939362,0.14500083,-0.027336061,0.110067375,0.15025128,-0.13054462,-0.036492474,0.008258845,0.28262356,-0.031713337,-0.12199082,0.0031757655,-0.08285432,0.0344522,-0.017800637,-0.033666167,-0.10757342,-0.013943043,0.1955793,0.01653431,0.15769283,-0.042493172,0.08678159,-0.061344914,0.03557852,0.062663004,0.05234203,-0.15635906,0.056999777,0.07366234,-0.031766005,0.09444447,0.054611724,0.094801754,0.07331781,0.08716648,0.33474407,-0.03037595,0.15029968,0.123704314,0.096509345,0.031329125,-0.029005604,0.02552831,0.037611328,0.00091466267,0.030424386,-0.0033031926,0.10167946,0.007730237,0.05714722,-0.23409475,0.13944937,0.16398631,-0.020254984,-0.12982596,0.028305136,0.06505035,0.2060198,0.016457256,0.105890214,0.18393663,-0.07361068,-0.05849953,-0.0150439385,0.014993756,-0.09456952,-0.079302624,0.01654005,0.1617251,-0.036941182,-0.006177514,0.23079336,-0.14017554,-0.16189128,0.09385351,-0.051477067,-0.026301023,-0.16232195,0.0454765,-0.04065417
-0.0185469,-0.24086615,0.26635608,-0.014981307,0.062245104,0.33030018,0.31250632,-0.20412238,0.30049202,0.07556936,-0.04836436,-0.18879838,0.11149382,-0.13185962,0.24053244,0.08821479,-0.19367737,0.14922881,-0.042356025,-0.21854776,-0.12119735,0.26272875,-0.118382305,-0.14659339,0.41019312,-0.10847614,-0.13466625,-0.05638965,0.14219666,-0.3390825,0.28630757,-0.056197878,0.16560213,-0.020965885,-0.17420068,0.20999867,0.051310726,0.23349291,0.071584195,0.07521977,0.24037194,0.048562363,0.02021043,-0.08070609,-0.16930595,-0.14974831,-0.04945714,0.10268465,0.24913715,-0.02125606,0.18770744,0.16426381,-0.019837137,0.0814033,-0.11308547,0.33260217,-0.08702527,-0.057845663,-0.12443036,-0.14189123,0.24760823,-0.08407465,-0.10260816,-0.16609064,0.04164197,0.3256369,-0.01915008,0.19692466,-0.05756179,0.17198542,-0.1620433,0.013959229,-0.0053668357,-0.05118975,-0.1128835,-0.17759703,0.043248035,-0.15259871,0.21261452,-0.036077872,-0.05586581,0.0074679847,-0.062268056,0.3340302,0.019103723,0.06617913,0.06816104,-0.0064262156,0.0039223055,-0.13905162,-0.031988423,0.088623635,0.035728455,0.02085362,0.27036193,-0.011744976,0.053441647,0.15685102,-0.28038508,0.2377857,0.16495849,-0.0015606193,-0.109424576,0.011887729,0.025437985,0.1993515,-0.057469662,-0.08057103,0.40667656,0.0384682,-0.07782235,-0.16011828,0.04024349,0.06506029,-0.054950327,0.11027989,0.38503274,-0.21169339,0.024152702,0.32983467,0.0042803413,-0.14253789,0.14682984,-0.027012937,0.012892192,-0.052469,0.038897168,-0.051402576
-0.16039078,-0.06591414,0.10847867,-0.0139018,0.07694566,0.2906399,0.23896243,-0.12985581,0.40592384,-0.013963762,-0.06398082,0.118794255,0.16178662,-0.26099607,0.29535303,0.07569237,0.06835605,0.27491277,0.055880614,-0.4803027,-0.30377638,0.27543345,0.016566707,-0.21703078,0.42326805,-0.009819352,0.057223003,-0.016100215,0.019111196,-0.15331736,0.56994385,0.024705859,0.11928595,-0.0522043,-0.058914084,0.1922719,-0.16416006,0.3422344,-0.015015517,0.07365377,0.44724256,0.3290026,0.026940526,-0.3323378,-0.37317872,-0.16311535,-0.101728186,0.15209034,0.046689913,-0.022210795,0.24897984,0.21697307,0.04619405,-0.051350042,-0.19854179,0.0085097095,-0.05025053,0.06102309,-0.21572359,0.0034430455,0.25633052,0.0049315076,0.040332172,-0.3543372,0.019547118,0.1964738,0.012092135,0.45767435,-0.14548719,0.11734514,-0.15126888,0.0107795885,0.13527332,0.09790462,-0.61112773,-0.03494023,0.12951894,-0.18941319,0.0087549435,0.15541469,0.0017753936,-0.009891435,-0.1171149,0.41048378,-0.009520154,0.09960326,0.11775698,0.16592108,-0.032981243,0.047576156,-0.056099508,0.08989936,0.029382946,0.12203583,0.0910372,0.017309569,-0.020738946,0.25834915,-0.49101388,0.06603526,-0.007168574,-0.16361429,-0.040550627,-0.1611143,0.14693055,0.14089064,-0.014532644,0.037364718,0.12537596,0.25083748,-0.2604277,-0.14093462,-0.027100444,-0.03202506,-0.12936768,0.07122952,0.24273126,-0.20626222,-0.047218315,0.09067324,-0.06099099,-0.18184403,0.018995183,-0.050863944,-0.16299376,-0.20492326,0.0279255,0.059949197
0.13039832,0.054587703,-0.11765823,-0.12192174,-0.05845928,0.14484398,-0.25752157,0.14989969,0.22233742,-0.16144961,-0.011371531,-0.0039820834,0.01818268,-0.32833636,-0.028321132,0.017065184,0.18055186,0.03672779,-0.062639564,-0.33069494,-0.16127463,0.071475185,0.11962257,0.15222439,-0.06546116,0.2632261,0.09066774,0.044438545,0.03741092,0.20179988,-0.011287856,-0.060090806,0.088273525,0.17683457,-0.15480156,0.16517597,-0.12734322,0.38394713,-0.15498258,0.011446514,0.27439755,0.24849722,-0.035083443,-0.21128514,-0.4052181,-0.060120083,0.050190505,-0.046926543,-0.18538333,-0.03523885,0.15130785,-0.12797543,0.252622,-0.0045200214,0.01825791,-0.1763979,0.12799245,-0.07139642,-0.19169861,0.17178527,0.025275255,0.12117436,0.013589435,-0.31394926,0.3284346,-0.17399397,-0.04896367,0.3500514,-0.033683326,-0.051833056,-0.15434453,0.13260166,0.036660213,-0.17042279,-0.21245472,0.15171513,0.09012569,-0.11928448,-0.04696593,0.061039872,0.049895946,-0.13969752,-0.22186193,-0.05610234,-0.02876509,0.2194416,-0.039024103,0.260433,0.021850059,0.106986314,-0.16674575,-0.18120888,0.20548356,0.15761632,-0.11926268,0.18931563,0.12516321,0.21756047,-0.002444276,-0.16601712,-0.21700491,0.059462555,0.0769794,-0.17356753,0.0031750088,-0.16341862,0.03976739,0.071868986,-0.03284398,-0.1818104,0.07935369,-0.19771688,-0.0361967,0.13263239,-0.029705297,-0.1880582,0.19840173,-0.1904275,0.047607403,-0.14092337,0.055153057,-0.2209452,-0.28758025,-0.071634576,-0.1538323,-0.120241895,0.27387112,-0.06657067
0.2836568,-0.23819177,0.005537022,-0.13716397,-0.16520512,0.25591025,-0.13141038,-0.07817787,0.3529992,-0.12960494,-0.041498195,0.08365117,0.05273017,-0.29108316,0.17817792,0.042212468,-0.03304632,-0.1508524,-0.04220203,-0.3344691,-0.1727363,0.33285263,0.08243722,0.09057117,0.036060248,-0.38463488,-0.32028237,0.02637413,0.22811696,-0.32641777,-0.026243584,0.013933965,0.16698976,0.10546019,0.036280185,-0.19436496,0.26058015,0.17464465,-0.21012415,0.14751154,0.2942478,-0.19265574,-0.024937833,0.18826666,-0.3012962,-0.063980676,-0.062449235,0.09075785,-0.07719064,-0.19684961,0.059146125,0.3218339,0.19217318,0.21963444,-0.007796223,0.4412135,0.07950617,-0.12061734,-0.24311878,0.14801042,-0.07415385,0.09993015,0.02247322,-0.32852605,0.19776928,-0.046167694,0.039953664,0.56735015,-0.060620356,-0.20562215,-0.15046036,-0.022577029,0.13839965,-0.09275999,-0.12792647,-0.341465,0.047624588,-0.10980076,0.30577496,-0.14797036,0.14612404,-0.043311473,-0.028704315,0.07119515,-0.047055837,0.17974834,0.032167874,-0.0061942446,-0.097162314,-0.34192678,-0.16441268,-0.065129764,0.14251894,0.24049978,0.03177814,-0.24375306,0.17093652,0.11961691,0.01130999,-0.11218835,0.016595716,0.1580059,0.010237601,-0.12879805,-0.018266834,-0.08845982,0.07224399,-0.05109906,0.20709611,-0.11225412,0.09644013,-0.2724273,0.03083928,0.01668636,0.07958086,0.098608844,0.26023787,-0.29362476,0.003940149,0.1051449,0.054731313,-0.13617453,-0.11886705,-0.027801163,0.1472551,-0.11758162,0.39711642,-0.06352177
0.17244509,-0.071786866,0.0065390104,-0.062230583,0.010983261,-0.08857909,0.21728575,0.2900607,0.19041683,0.03335154,-0.11826261,0.3167395,0.15636453,0.014129841,0.06987263,0.042984843,0.03302319,-0.16372593,0.106612325,-0.21826969,-0.17575726,0.4752852,0.1598547,-0.03713269,0.16710442,-0.08288367,-0.27735355,-0.18682218,0.07553786,-0.12764344,0.33134663,0.0648216,-0.13585524,0.06513239,0.23254122,-0.12232479,0.4010491,-0.067601725,0.11456667,-0.124992736,0.08489254,-0.16657303,-0.016610868,0.14820996,-0.1430849,0.07405064,0.04157927,0.22755957,-0.13397506,-0.13086705,-0.018428558,0.20139052,-0.13087806,0.028837861,-0.011234339,0.27695838,0.25166708,-0.13991624,-0.0742431,-0.0828159,0.071348615,-0.019443832,0.052697398,-0.13526072,0.28011745,0.0608601,0.19998997,0.29299548,-0.14639506,-0.045599204,-0.2098357,-0.36957973,0.092497185,0.19200413,0.31070036,-0.05344862,0.11169843,-0.16624606,0.26764193,0.15194756,0.33063775,0.2192626,0.22779979,0.22838601,0.07302996,0.077918984,0.252538,0.22654948,0.039151695,-0.14410008,-0.18369393,-0.07191871,0.08431208,-0.029413637,0.009101727,-0.17903987,-0.20088421,0.065806866,-0.22928347,0.22304483,0.11917908,0.01259309,0.23376952,-0.060253013,-0.19903143,0.15452845,0.05537649,-0.109365046,0.13008997,-0.07406632,-0.2096699,0.07418376,-0.06653756,-0.16022967,-0.04649928,-0.12738301,0.28779078,-0.20893565,0.059706055,0.24685098,0.021171784,0.0063660825,-0.074914016,-0.0436151,-0.048373323,-0.09220055,0.31323537,0.016633088
-0.1636311,-0.028499203,0.19875625,-0.07091389,0.02416434,-0.07129239,0.37250194,0.056726582,0.12028769,-0.023622487,-0.12608974,0.21474378,0.24178262,-0.049799435,0.15271416,0.059264075,-0.070474975,-0.036024168,0.045658324,-0.2305488,-0.1947253,0.40193093,-0.04935583,-0.09806876,0.13877091,-0.12196143,-0.08392939,-0.10011242,0.10807509,-0.1921286,0.3574277,-0.045146573,-0.12586847,0.016100759,0.25297427,0.0023872382,0.3319512,-0.283546,0.011323276,-0.03535076,0.19462371,0.015577115,-0.0726727,0.06759359,-0.032104623,-0.039974634,-0.023485662,0.08190595,-0.020661568,-0.08734488,-0.056197863,0.1546535,-0.19124314,0.09905294,0.007990161,0.17779541,0.18422636,-0.026943391,-0.00028225456,-0.10547571,0.21124214,0.035063945,0.034615524,-0.14892076,-0.0025701274,0.22962873,0.17356227,0.20841455,-0.046504255,0.045600113,-0.11550313,-0.41157734,-0.035016686,0.31520027,0.14680856,-0.1727636,0.112682626,-0.09271729,0.28637752,0.20695893,0.23263699,0.13229293,0.26554137,0.4487273,-0.061392684,-0.17936613,0.24686073,0.073744535,-0.000721024,-0.19844326,-0.11544876,0.033135287,-0.09284432,0.09318569,0.037733898,-0.016128963,-0.34906864,-0.074531525,-0.21323065,0.13856164,0.072264865,-0.17473985,0.02569809,-0.023420153,0.0066622216,0.22100286,-0.075547606,-0.11114601,0.13266629,0.15930457,-0.15931694,0.15974727,0.04205302,-0.60543764,-0.10158453,-0.11408693,0.14815862,-0.09206352,-0.064672455,0.24553433,-0.12589988,-0.09723293,0.07926796,-0.0062625334,-0.051512178,-0.20895012,0.20250978,0.0005859509
0.0023493588,-0.11212061,0.18754052,-0.0075532296,0.08806257,0.087155744,0.20554958,-0.19649573,0.13916355,0.02014663,0.18548569,0.03280281,0.03272972,-0.11568938,-0.14628944,0.25360158,0.0059251273,0.04108236,-0.09121861,-0.015477284,-0.16533704,0.123098664,-0.047471274,-0.0061768573,0.10410726,-0.0450062,0.05437741,0.117552675,-0.022328295,-0.19171917,0.25615165,-0.08741945,0.10418452,0.16448241,0.032379188,0.07768545,0.025556572,-0.13191332,-0.32318404,0.01862081,0.15506354,0.043061852,-0.047201958,0.16598564,-0.20310915,-0.033506602,-0.17560957,-0.05208884,0.2256457,-0.043392457,0.07150624,0.17693077,0.011844112,0.09133279,-0.048195105,0.15240729,-0.032195866,-0.0029696366,-0.1135259,-0.008053378,0.17066164,-0.092230044,-0.06448205,-0.0847629,-0.14460687,0.16788958,0.0548894,0.1127364,0.028952936,0.12535281,0.009692323,-0.13535792,-0.072695665,0.22952914,-0.25411245,-0.2668795,-0.014875668,-0.02469263,0.2239306,-0.076120675,0.008122704,0.017700512,0.049877495,0.3789868,0.040320978,0.10014874,0.1434453,-0.18392605,-0.18001205,-0.26666358,-0.020771457,0.11467885,-0.1862471,0.24124753,0.063867845,0.06851,0.013137815,0.07842324,-0.23431131,-0.109614536,-0.14411083,-0.066243194,-0.039066248,0.033716317,0.15811108,0.14680533,-0.015495311,-0.002225822,0.30611846,0.12350997,-0.17778595,-0.08953817,-0.06440988,-0.24897775,-0.008113313,0.15477715,0.12777191,-0.099949054,-0.038929917,0.17751251,-0.017656857,-0.18726061,0.055445254,-0.04611318,0.07751506,-0.09918374,0.024544537,0.066954516
-0.15445021,-0.3201301,0.3407897,-0.1642107,0.11307006,0.102927044,0.14277527,-0.22466564,0.19122489,0.16475905,0.22645275,-0.09840831,0.0568166,-0.15768678,-0.09808927,0.2909929,-0.076756805,0.10460854,-0.089864425,-0.11165557,0.006984763,0.12651381,-0.02354236,-0.17681396,0.110199325,-0.09774303,-0.0590721,0.25558323,0.00318948,-0.23931864,0.20582089,-0.092463806,0.14572652,-0.001706866,0.0013553853,0.05944618,0.026836047,-0.0421631,-0.14197606,0.0800599,0.2807405,-0.014162769,0.031823073,0.07559797,-0.1593157,0.06472469,-0.21260935,-0.07470591,0.28332472,0.012548131,0.30773523,0.21934368,-0.0153203895,0.240644,0.06151248,0.16520259,-0.012634578,-0.08387874,-0.05892685,-0.101166174,0.13104363,0.07453302,-0.025837028,-0.19702853,-0.042490643,0.12982157,-0.08077972,-0.016934391,-0.13170408,0.1322088,-0.13718927,-0.24182281,-0.09569518,0.27521476,-0.3384458,-0.25889248,-0.03705556,0.041141186,0.12321057,-0.34147713,0.17484507,0.100465745,-0.019998029,0.3117413,0.06750149,-0.15075074,0.16554402,-0.26375306,-0.18835832,-0.19686551,-0.08374202,0.25894374,-0.076720215,0.24246855,0.12239482,-0.07273254,-0.027357364,-0.0035096086,-0.19179553,0.16523561,0.011034997,0.19918835,-0.17387493,0.11488943,0.26049918,0.29675457,0.052637573,0.0077736275,0.269903,0.14273953,-0.12961102,0.017987132,0.022987515,-0.14024596,-0.102928,0.27434465,0.073219046,-0.16802807,0.07004081,0.326857,-0.00229828,-0.09301131,0.18276146,0.0067545176,0.22952504,-0.079127535,-0.031926118,0.07769578
-0.14728516,-0.29472777,0.29966968,-0.258113,0.07938051,0.2281087,0.28105855,-0.30959967,0.19562805,0.148214,0.29613212,-0.11254802,-0.04254921,-0.14600076,0.061298933,0.23416673,-0.09094477,0.2440059,-0.19542816,-0.14450993,-0.18944383,0.12982386,-0.21627887,-0.20592926,0.15755047,-0.048382606,-0.0955254,0.29812467,0.006671894,-0.30269969,0.31743056,-0.07421243,0.104630634,0.10046555,-0.17466722,0.010964265,0.18967651,0.07935547,-0.28705266,0.19047858,0.28864908,-0.010921282,-0.028392676,0.22867768,-0.2568763,-0.04057479,-0.1831409,0.04440015,0.2526854,-0.054331157,0.34157255,0.12120457,0.122717835,0.2644345,-0.06699653,0.3209368,-0.124678314,-0.05879972,-0.0645153,-0.1456863,0.1874152,-0.0644045,-0.037891515,-0.1156849,-0.041325405,0.21883474,-0.0018977716,0.028319957,-0.06587483,0.12706411,-0.08462554,-0.15239684,-0.04890351,0.30592853,-0.26798597,-0.22834745,0.057750143,0.0028233114,0.14291324,-0.38812727,0.16135772,0.14351441,-0.16144587,0.36469102,0.08387923,-0.09825356,0.20344433,-0.19215582,-0.3171938,-0.32868934,-0.07015955,0.325794,-0.2864326,0.35301012,0.25164416,-0.12006722,-0.05580673,0.06232488,-0.20614775,0.14050722,0.07409651,0.18431152,-0.21499994,0.23427773,0.27162248,0.19807889,0.00075926614,0.039144907,0.3047201,0.20254119,-0.1605966,-0.10566466,0.030244185,-0.123725936,-0.09924358,0.3438286,0.18384622,-0.13138984,0.083994895,0.29516485,-0.10960371,-0.09114087,0.30693164,-0.028556325,0.29205966,-0.07511953,0.13163148,-0.042285956
0.05812318,-0.18221787,0.24101132,-0.17527607,0.026388716,0.110452406,0.10210344,-0.13233535,0.03794262,-0.040553793,0.16047186,-0.22282693,-0.0500364,-0.03208629,-0.021093713,0.23293,-0.056133352,0.214499,-0.017166317,-0.033549987,-0.20039748,0.1540928,-0.08293677,-0.13457802,0.07613648,-0.19171777,0.032402128,0.16422641,0.009492952,-0.18872432,0.11764731,-0.008814949,0.21793526,0.17283788,-0.17243555,0.073932,0.18390988,0.011311397,-0.24996191,-0.00054510235,0.24741106,0.03333671,-0.088180006,0.21096312,-0.13725251,0.0004362018,-0.13383548,-0.089004345,0.13675353,-0.025747582,0.10420338,0.14046094,0.16752511,0.19489245,0.008566807,0.14862795,-0.0819468,-0.13950345,-0.0051835827,-0.027375253,0.0643665,0.021733582,-0.0919947,-0.070013724,-0.062825456,0.12874387,-0.05777995,-0.034805212,-0.08021193,0.09157245,-0.06955509,0.0014346981,-0.121057265,0.22799444,-0.17276175,-0.11610058,-0.0071913474,0.0066527426,0.13575223,-0.18514428,-0.05568377,0.022231651,-0.037438262,0.26287025,0.049947605,-0.058591016,0.12380271,-0.22780797,-0.23326772,-0.19891565,0.0067936056,0.11017889,-0.10648418,0.19503424,0.26401424,-0.0707382,0.06664333,-0.05718343,-0.16679521,0.060264464,-0.064509414,-0.03220272,-0.19115362,0.1208526,0.21310005,0.10596163,-0.06410143,0.17817971,0.16231142,0.17816077,-0.2175713,-0.0856988,0.049636234,-0.1261126,0.02447251,0.21002203,0.047031302,-0.04968782,0.06674485,0.19328955,-0.026470724,-0.09874394,0.115992725,-0.0056937337,0.25173095,-0.072849184,0.033816904,0.04471486
0.026147075,-0.036469683,0.1316733,-0.09838756,0.08789255,0.17499724,0.0054995995,-0.058781996,0.018814167,0.043035973,0.1276554,-0.088912256,-0.015549794,-0.086622715,0.065865576,0.03938119,-0.13304117,-0.019573767,-0.12307659,-0.05857094,-0.0886773,0.03003346,0.0167715,-0.09999883,0.040500376,-0.009417801,-0.11540786,0.040244892,-0.019738195,-0.07198878,0.044704504,0.018773874,0.06488491,0.057847094,0.021485152,-0.03448246,0.078909874,0.11183871,-0.092921264,0.040886864,0.10592749,0.04567472,0.025205538,0.14563508,-0.05286909,-0.012593951,-0.1533774,0.041327886,0.16073148,-0.06023744,0.018433094,-0.018534195,-0.0036868027,0.09477646,-0.038682126,0.049777955,0.0051457006,0.020054499,-0.037763108,-0.05609271,0.025206229,0.0017208606,0.0060615963,-0.04229522,0.022099568,0.14359236,-0.04617256,0.062237408,-0.042709302,0.08268083,-0.04129138,0.02626969,-0.08812964,0.13791877,-0.111654386,-0.12773503,0.015234772,-0.051758263,0.012485104,-0.07074027,0.011898618,0.06767714,0.030113734,0.08746759,0.0008073151,-0.088982195,0.15298343,-0.11001185,-0.062240284,-0.033442456,-0.103933975,0.14800625,-0.17764878,0.21327825,0.1802382,-0.06798778,0.002389617,-0.05135597,-0.027071975,0.05566908,0.0002953092,0.031808946,-0.12952085,0.1298576,0.08921383,0.019145787,-0.06916047,-0.08047824,0.24963492,0.09241071,-0.13023292,-0.07633407,0.022318047,-0.095072456,0.041061293,0.08468932,0.024378497,0.029042585,-0.026411489,0.104773395,0.031062162,-0.06822921,0.071075715,0.049898826,0.029214075,-0.1145324,0.11297656,-0.016296498
-0.061040666,-0.0042980956,0.03940823,-0.12256907,-0.044994194,-0.029842878,-0.04151869,-0.036048297,-0.0015387773,0.07236891,0.03701025,0.022739016,0.023315974,0.0007918697,0.08206469,0.011317191,0.040897753,0.0020930243,-0.06923482,-0.09034358,-0.08970787,0.058061626,0.0024968076,-0.070109256,0.078882836,-0.06575612,-0.10621612,0.057485647,0.05257886,-0.078300804,0.08015627,-0.057711456,0.070264585,0.07327121,-0.031017397,-0.096106105,0.06999201,-0.007876178,0.0068781986,-0.05976105,0.07454026,-0.04516866,-0.020318288,-0.0073603913,0.06443655,0.10631303,-0.061166994,0.043193467,0.15443315,0.005315239,0.056567084,-0.0063640517,-0.057116404,0.08943032,-0.060040433,-0.024951143,-0.0026533336,-0.08722006,-0.049603693,0.04586362,0.08136079,-0.030648421,0.025194056,-0.043569576,0.05495917,-0.0062432336,-0.0608275,0.086658865,0.005876129,0.061858237,-0.08057256,0.025438976,-0.047559552,0.016156914,-0.0050826594,-0.02892098,0.03091383,-0.032885727,0.018530013,-0.041205376,0.01111971,-0.047859218,-0.020668974,0.08395987,0.058234908,-0.014888382,0.057086192,-0.032244287,-0.10247834,-0.06877271,0.036882292,0.039088663,0.025686724,0.09991289,0.0972763,-0.116398856,-0.06023524,-0.041732784,0.038580466,-0.019652035,-0.07137662,-0.04236561,-0.109842464,0.10345311,0.06472964,-0.037061248,0.0038936767,-0.071876876,0.05463065,0.07381401,-0.007912791,-0.005165503,-0.05718171,-0.0050939023,-0.034412444,0.12923895,0.09305934,-0.0820276,0.0757249,0.05631934,0.032567874,-0.034641244,0.08916703,0.057198443,0.10063284,-0.1500919,0.1198858,-0.07164305
0.0491072,0.038500354,0.044474594,-0.010319613,0.051165037,0.049268,0.077443995,0.014890894,0.021398,-0.07920364,0.030917786,-0.017960794,-0.030891716,0.01949709,0.040461406,0.07014959,-0.020155922,0.023870714,0.08028183,0.056243204,0.059340276,-0.012678131,0.07186235,-0.03560773,0.03897,-0.038532086,-0.043867443,0.013164841,0.06994162,-0.016069643,-0.018808778,-0.043978967,-0.051763948,-0.023352835,-0.011820577,0.06476163,0.044063203,-0.008508526,0.064041816,0.008788601,0.03825137,-0.03773556,-0.046734173,0.013412736,0.031279393,0.035634898,-0.029818442,0.06027215,0.0014559403,0.068774484,-0.0066862553,0.06945316,-0.009587407,0.0025660172,-0.048089866,-0.032102138,-0.04249301,-0.052395478,0.02038914,0.043384373,-0.025042828,0.026901215,-0.03846914,-0.0069148317,-0.045131743,0.070829816,-0.059884973,-0.010506265,0.0034205616,0.05787737,-0.054250218,0.06476126,-0.010395169,-0.00528042,0.049324714,-0.00082843006,0.0690478,0.023606032,-0.026398364,0.05147765,-0.011543922,0.039985493,-0.058052823,-0.037995815,-0.066527195,-0.03433958,0.0031561106,-0.028739829,-0.041090813,-0.010883287,-0.011222169,-0.044916604,-0.012509055,-0.066483274,-0.039946157,0.0667286,0.030992508,0.058463298,-0.046515632,-0.06882878,0.012681089,0.0670227,0.015896797,-0.06445459,-0.069101855,-0.030498896,-0.038244717,0.013134226,-0.080719806,-0.022243917,0.026934303,0.049518444,-0.03889346,0.011479117,-0.05785718,0.053230785,-0.0048964173,0.0067521185,-0.0074938014,0.02455742,-0.023866497,-0.055887572,-0.03452962,-0.06631167,0.021280311,-0.024434462,-0.0021368638,0.032948963
-0.06197285,0.06942097,-0.044116385,-0.06253428,0.0026897043,0.062901236,0.010692708,-0.023800418,-0.014880203,0.014412023,-0.030463487,-0.048504982,0.054109536,0.06835874,-0.042739905,0.051567324,0.054778285,0.07211993,-0.07947697,-0.007591404,-0.064267956,0.0099084005,0.04337482,-0.005149305,-0.030259818,0.07549637,0.017431855,-0.012477629,-0.05377204,0.035752162,0.049000837,0.056500383,0.034862876,-0.01841122,-0.022780113,0.055962645,-0.039245803,-0.0650851,-0.027276188,-0.009891175,-0.017498128,0.061971046,0.022938706,-0.047485564,-0.03535066,-0.055849995,0.060331933,-0.078916684,0.07103547,0.011260018,-0.019594938,-0.060533658,-0.0661709,-0.05932977,0.02267526,-0.0019374043,0.06785164,-0.034786683,0.007994279,0.06463983,0.02642569,0.046637796,-0.079895414,0.008083291,0.07814013,-0.003625989,-0.0150530115,-0.048432693,0.011166923,0.06658197,-0.031855535,-0.034936167,0.042864136,-0.0733232,0.008567102,0.030655347,0.017032385,-0.034263115,0.008208491,-0.07810656,-0.0059274435,-0.002982989,-0.0021729842,0.050687663,0.04819589,-0.057222474,0.075160526,-0.024154328,-0.04314092,-0.0667492,0.0771812,-0.029922247,-0.07171794,0.03850209,-0.057409957,0.049048148,-0.046373688,0.04417009,-0.04702185,-0.0035443604,-0.024525665,-0.014371879,0.007834084,0.036553062,-0.0009941831,-0.07777837,-0.04481914,0.040656067,0.006983295,-0.0642877,0.039452568,0.026243486,0.030542582,-0.062481098,0.04717546,-0.007082939,-0.03640814,0.053013645,0.07822015,0.049623273,0.045853607,0.005417414,0.011349477,-0.012914158,-0.06610084,0.06753469,0.072061665,0.017047115
0.041942023,0.07157145,0.0635648,0.017223813,-0.028513897,-0.06709953,0.06878156,0.04552453,0.0008708611,-0.059472717,0.009277202,0.011253379,0.02450385,-0.07468036,-0.05149824,-0.014748894,0.067702495,0.028252192,0.035899736,-0.02853372,-0.030328061,-0.03224091,-0.012357987,0.07222334,0.0667102,-0.05824986,-0.031643994,0.070301704,-0.03241774,-0.057537727,-0.054171722,-0.048150666,-0.044234987,0.0050431937,0.06833843,-0.048560232,-0.025666371,0.034542963,0.0048747435,-0.04893139,0.056885086,0.039787352,0.031232804,-0.016275287,-0.008454494,0.00951688,-0.068135634,0.021272883,0.014042042,0.026420489,0.067550175,0.014708713,0.022785664,-0.06407964,0.053446703,-0.022858702,0.050935842,0.015300021,0.049889617,0.018464945,0.02288995,0.065531574,-0.076376535,-0.006292589,-0.07770506,0.056135453,-0.033792887,-0.036319222,0.018389389,0.011001155,-0.054532014,-0.0040963963,0.003201224,0.018260248,0.07712265,0.023493387,0.04418861,0.008524939,-0.018587627,0.002258189,-0.0072808713,-0.03337199,-0.007830791,-0.072432995,-0.035482068,-0.071291536,0.07369969,0.016625546,-0.019514896,-0.04820905,0.056455754,0.015736714,-0.008965276,-0.06331986,0.024567515,0.063837044,-0.011402927,-0.046393685,0.003254272,0.028252058,-0.032530848,0.03957531,0.07762442,-0.046607643,-0.013229504,-0.014582641,-0.04039084,-0.06805469,0.042577095,-0.040152654,-0.07603639,0.0005600378,0.056224234,-0.0032479092,-0.040056057,-0.00049109757,-0.0355168,0.027423814,-0.050265945,-0.004848808,-0.07654567,-0.011215247,0.04620821,-0.05985728,-0.0703684,-0.054017343,0.0059809685,-0.009833097
-0.023134932,0.023353338,-0.007856302,-0.018544614,-0.059438933,-0.057514947,0.027566418,0.026653029,-0.028455768,-0.017645925,-0.04538906,0.04781746,0.052857332,-0.047659338,-0.032157715,0.08030153,0.07462225,-0.03836421,0.007213652,-0.037314292,-0.054982014,0.07174515,0.07256084,0.005689867,-0.06951748,-0.080609016,0.027598478,0.066892125,0.0055280104,0.010094531,-0.033969272,0.0026069582,0.036205493,0.065137066,-0.00089312345,-0.04212,-0.0611415,-0.060847227,-0.030307408,0.07828183,0.063719235,0.06625391,-0.021028776,0.06836759,-0.012840383,-0.05290723,-0.024405167,0.07347519,0.042659923,0.07557195,0.017440885,0.07284165,-0.04997506,-0.036301006,0.056886338,-0.034266327,0.03943845,-0.03369509,-0.046488423,0.08107994,0.046520613,-0.011453472,0.026684806,0.035458826,-0.005890928,0.008736543,0.03851988,0.041035004,0.017532974,0.010187864,-0.006599158,-0.07481209,-0.034395024,-0.01711163,0.01872404,-0.01392182,-0.06486383,-0.080129966,0.022036396,-0.016748227,-0.036182463,0.046509005,0.006109044,0.06271852,-0.06034849,0.002017893,-0.0045902133,0.07417873,0.041504905,-0.05391114,-0.07787671,-0.007977277,0.06582289,-0.0139632,-0.03766459,0.026885323,0.049912207,-0.014616348,-0.0641229,-0.015476599,-0.057744686,-0.012816243,-0.038634714,-0.0034186244,-0.054315057,0.062994786,-0.069438964,-0.009915054,0.017742388,-0.055982172,-0.015946016,-0.008167721,-0.05964554,0.012475908,-0.030329395,-0.05776157,-0.08103463,-0.0656158,0.006564446,-0.02430128,-0.045259375,-0.0074332207,-0.009763658,-0.05614659,0.0031136796,0.026267618,-0.051329516,-0.06410031
-0.053948887,-0.007652089,0.038674727,-0.023049418,-0.017717868,-0.07911817,0.004752852,0.032518804,0.025842078,-0.03336731,-0.047912087,-0.05718308,-0.044154927,0.024127334,0.011276998,-0.047319967,0.028154686,-0.0030851513,0.051418506,0.048040725,0.07621651,0.07538109,0.024791524,-0.014141515,0.056376524,-0.050107934,-0.06637709,-0.023175754,-0.033068627,0.033895187,0.041214556,0.0492507,0.019839123,-0.067074716,0.018141456,-0.05477034,-0.0034186617,-0.019592077,0.06500014,-0.01565615,-0.019659799,-0.07020901,0.036297373,-0.027369533,0.012395151,-0.017663851,-0.0051402003,0.04508046,0.056942172,-0.009885974,-0.06974787,0.025005892,-0.050437808,-0.04349443,-0.016397834,-0.015352927,-0.06473216,-0.055092707,-0.06306233,0.048933692,-0.07552446,0.0043105483,-0.00567846,0.05432389,-0.03862489,-0.07326032,-0.011396818,-0.06288966,-0.06636493,-0.07473814,0.038349763,0.080104716,0.08092681,0.031775862,-0.028429449,-0.06344823,-0.01306472,0.039601438,-0.056075,-0.0062735006,0.0346627,0.054163523,-0.0056196153,0.023622312,-0.011032291,0.077884294,0.0329191,0.05787944,-0.06882453,0.073090605,-0.008144401,-0.037463564,0.03900423,-0.07268737,0.050532617,-0.05829633,-0.047802962,-0.08108226,-0.018759795,-0.06683881,-0.025113933,-0.038898177,-0.045734093,-0.04588002,0.010683425,0.06948467,-0.05062618,-0.056591175,0.0627101,-0.027078956,0.06263665,-0.07109997,0.07869268,-0.051900283,0.0077160597,-0.01851961,-0.05285983,-0.008349329,-0.032647595,0.040911525,-0.077288665,0.057166316,0.05462066,0.052778788,-0.027713835,0.050714247,0.042049684,0.06680959
0.011469543,-0.016286932,0.04565368,-0.06601337,-0.041141517,-0.023283392,0.07010528,-0.058423907,0.0022598729,0.062318973,-0.08034787,0.035560638,-0.02743664,-0.03908721,0.067901544,0.0058495626,0.054997943,-0.0560399,0.033335283,-0.0065181255,-0.029600054,-0.018682133,0.006137185,0.05103346,-0.05090262,0.0025758818,0.0063311458,-0.006824948,-0.029150032,0.07904308,-0.08094009,-0.010832332,0.058514915,-0.031139053,0.08000786,-0.017950602,-0.026618842,0.06272406,-0.023037754,-0.08015652,-0.0077455714,-0.07659483,0.00318823,0.01903154,-0.061177697,0.08092912,-0.013316274,-0.056683846,0.026403159,-0.030360725,-0.015889585,0.018805318,0.07214428,0.06016002,0.0033735856,-0.0021045655,-0.029498275,-0.0039359853,0.05267126,-0.037785318,0.07396441,-0.017520286,0.026274137,-0.04089975,0.012570687,0.028489977,-0.06990985,0.062823586,-0.072874025,0.07135209,-0.07053078,-0.06619956,0.005358137,-0.041978132,-0.01952565,-0.06429422,0.035551824,-0.0720846,0.041242562,-0.014137164,0.067677535,-0.056504462,-0.02539755,0.02204065,0.005999647,0.025764108,0.016478628,-0.058025494,0.03200864,0.00048802048,-0.044411335,-0.004981369,0.0076660886,0.052928887,0.005010903,-0.051273145,-0.03474321,0.013384812,-0.06835759,-0.00478103,0.03428723,-0.03963083,0.057059877,0.0076448172,0.0031121895,-0.020430353,-0.021635458,-0.009685107,0.022461377,0.025517464,0.071002044,0.024032012,-0.040759392,0.04965719,-0.059166573,0.02484718,-0.041170254,-0.04806217,0.028088301,-0.028663304,-0.06576925,0.06472423,-0.023112383,-0.06242086,-0.06162546,-0.077138215,0.05335375,-0.072930045
0.06002403,0.015173905,-0.02480731,-0.06314352,-0.04418883,-0.06690932,0.07688155,0.028977416,0.0061295116,0.06713774,0.022187095,-0.017306581,-0.055995844,0.08032543,0.06351558,0.084405534,0.039268516,-0.021981733,0.036438227,-0.054631043,-0.07797081,0.0496547,-0.03324734,-0.012963855,0.015276848,-0.020352572,0.04517699,0.050000466,-0.005676836,0.03492237,0.03383482,0.056300692,-0.051604446,-0.04924233,0.036101103,-0.067375906,0.07659336,0.006894842,-0.023934528,0.08009169,0.057211544,-0.021029975,0.008194253,-0.020531155,-0.01244843,-0.028038472,-0.052702338,-0.015221737,-0.023104487,-0.007869683,-0.064651415,0.10576069,-0.013935871,0.028049432,-0.055417124,0.0015055642,0.0017967597,-0.007656355,-0.025716089,0.021019012,0.0515134,0.026668057,0.050656043,-0.011861727,-0.051086508,-0.0037847962,-0.0465528,-0.06215424,-0.026603874,-0.002194176,-0.026289724,0.034533203,-0.032728527,0.02313263,-0.050094374,0.012232463,-0.09681314,-0.012216702,-0.030924466,0.0029670387,0.045115806,-0.035281032,0.041000694,0.035149056,-0.07686386,0.017163666,0.09401992,-0.0719718,-0.104951754,-0.10003999,-0.065546356,0.0042851,0.036533233,-0.02296915,-0.03639715,0.0006173967,0.056895684,-0.001564987,0.0019195108,-0.031840045,0.026043855,-0.063668005,0.05223218,0.011476917,-0.038387038,0.058353018,-0.036745206,-0.06523322,0.04750482,-0.035295445,0.043386344,0.038864203,-0.039172627,-0.060517464,0.011105742,0.09162034,0.060326237,-0.06406295,0.01276473,0.0687698,-0.003222296,0.011204377,0.0637774,-0.071483485,0.0915858,-0.06218178,-0.05008816,-0.057292305
-0.010026462,-0.25931004,0.123751014,-0.061541013,-0.05872142,-0.011259511,0.18704997,0.24207705,0.0034818007,-0.18516012,-0.18773685,-0.079341196,-0.0785801,-0.074197255,0.13215305,0.14608061,0.030505102,-0.09841661,0.093652785,-0.21113446,-0.0614937,0.07888111,-0.06553489,-0.065556616,-0.008774326,-0.07689393,-0.18388562,-0.012932003,0.23873347,-0.23020895,0.13575998,0.037562117,-0.14641504,-0.18498047,-0.067742854,-0.1293198,0.12485166,-0.037559137,0.18531047,0.22442113,0.02865323,0.16048777,-0.07051722,0.18944685,-0.100096665,0.08851419,-0.03974859,0.055372614,-0.24543075,-0.06862438,0.04102431,0.052218106,0.041767504,-0.0684014,0.04418274,0.17701004,0.040780373,0.074048616,-0.013261236,0.045837574,0.14970863,-0.028249951,-0.029708274,-0.020391446,0.044425182,0.16949894,0.04246882,-0.044781074,-0.0023376942,0.034687065,-0.0779956,0.13653788,0.13905413,0.17737018,0.038106345,-0.1574612,-0.078886,0.021087542,-0.038603235,0.15171713,0.085919276,0.139371,0.018680446,0.11500384,0.0076086745,-0.17690681,0.12529552,0.1508848,-0.07856973,-0.2166073,0.023303501,-0.10083084,0.22770016,0.17503996,0.05614824,-0.25836176,0.05756628,-0.026791591,-0.050546743,0.15538348,0.19219477,-0.07837673,-0.015129087,-0.025639169,-0.20218942,-0.14535156,-0.067652,-0.12806273,0.1362392,-0.21663794,0.12334212,0.07457075,0.09885111,-0.011982415,-0.041523315,-0.25236648,0.09796854,-0.07832101,-0.032932464,-0.23878327,0.06305615,-0.13587521,-0.2216499,0.051909514,0.029262595,-0.14428098,0.05072107,-0.08482487
0.033495907,-0.28547484,0.19362609,-0.035226487,0.0416193,0.15753052,0.21713926,0.08668572,0.14167517,-0.18402882,-0.13492806,0.07274878,0.0030148502,-0.1458563,0.05144438,0.1425994,-0.059862114,-0.07226492,-0.08110939,-0.20755216,-0.05811597,0.029720332,-0.06071088,-0.05585784,0.21737666,-0.17395268,-0.18358016,0.107081465,0.18933825,-0.24825548,0.103475526,-0.06377602,-0.06746696,-0.23800924,0.039746433,-0.14552064,0.13288854,0.090250105,0.22198471,0.1960748,0.056219786,0.1770712,0.0551714,0.22309808,-0.07723611,0.00032359865,-0.06862879,-0.003725967,-0.113728225,-0.07884843,0.02611599,0.07400607,0.07966628,0.18037562,0.04296668,0.1341164,0.00422742,-0.009371679,0.009489627,-0.0077694356,0.25401604,-0.050533958,-0.055965252,-0.09754126,-0.01032684,0.16109885,0.046834663,-0.04041944,0.04084616,0.016022766,-0.033213317,0.1911675,0.10812924,0.2598312,-0.060741004,-0.25759283,-0.07862934,0.0021559075,0.012857869,0.18157136,0.12754871,0.124542765,-0.044776253,0.11456828,0.042546052,-0.17678784,0.2200684,-0.040075134,-0.065267876,-0.18338765,0.03760303,0.079601005,0.20869078,0.20338002,0.04446634,-0.143656,0.011289153,0.021301106,-0.120396346,0.2514448,0.15282881,-0.06217196,-0.08297357,0.11630308,-0.032929607,0.073821805,0.061703585,-0.18535766,0.19212459,-0.07586132,-0.09445922,-0.014212055,0.075289264,0.07206684,-0.01902765,-0.1274458,0.13993058,-0.23306312,0.0693855,0.09605473,-0.036973808,-0.09146459,-0.047015876,-0.014688171,0.089017175,-0.17126136,-0.05939668,0.076867886
-0.015475245,-0.1353094,0.10800822,-0.016754806,-0.0152026005,0.12267126,0.11485795,-0.0484554,0.12370044,0.0834216,0.03719349,0.045197736,0.09433769,0.0027520412,-0.0017605232,0.013782655,-0.0667869,0.14763169,-0.061279338,0.06668327,-0.14052102,0.16118899,-0.021666264,-0.06045223,0.09871595,-0.06100319,-0.07923181,-0.023900118,-0.07339803,-0.09473653,0.20933063,-0.10294073,0.15505372,0.008350538,0.06359423,-0.062293146,0.085956536,-0.032185532,-0.027092118,-0.080206655,0.1307188,-0.05488725,0.043941546,-0.004116688,-0.046790935,0.08484007,-0.14482178,-0.0005680501,0.068374015,-0.015990572,0.13557416,0.09325368,0.06739671,0.13871327,-0.067250416,0.13482942,-0.05134929,0.021872075,-0.055249073,0.033356033,0.02089084,0.06915245,0.022109019,-0.02507899,-0.0024573773,0.1681507,0.05862263,0.046290748,-0.0636382,0.14241871,-0.019522144,0.019154126,-0.091787696,0.10229314,-0.15482092,-0.055954352,-0.024200417,-0.07376737,0.13700385,-0.0076914965,0.07348121,0.09227589,0.123682566,0.21953394,-0.010648646,-0.02183086,0.10614784,-0.0675156,-0.044614896,-0.083080545,0.0036005978,0.10299096,-0.047435228,0.005457411,0.13433167,-0.048423395,0.027567843,-0.04738837,-0.111040324,0.10441911,-0.01479842,-0.06435364,-0.111654885,0.19156848,0.053109553,0.17450245,-0.0035781052,0.11168312,0.079351835,0.030031122,-0.054187957,0.051740687,0.028041372,-0.089953,-0.05877433,0.13087195,0.100166626,-0.044204406,-0.049825255,0.18500535,0.032959018,0.038334295,0.19417953,0.0416651,0.11892692,-0.08331454,0.006370749,-0.078438304
-0.010351543,-0.019540729,0.1112373,-0.13619442,0.045218877,0.17262767,0.24119632,0.007817829,0.010805841,0.15993297,0.123548016,-0.10854058,0.09804789,0.0078082974,-0.00213801,0.09976075,0.023591695,0.13258001,0.009729045,-0.09009625,-0.2008496,0.11571612,-0.076477475,-0.07415659,0.16443247,-0.09690517,0.032059666,0.03807732,-0.011514547,-0.058683053,0.20929825,-0.08856809,0.060647383,0.024972146,0.104642205,0.13166404,0.020038819,0.13302954,0.040672295,0.045716956,-0.014367128,0.07722281,-0.004855113,-0.044499353,-0.07074394,-0.02896597,-0.14868464,0.062811606,0.1742395,-0.05115476,0.120237306,-0.004405336,0.0026363726,0.049247697,0.035385434,0.06180843,-0.02219591,-0.092155844,-0.15883115,-0.07580701,0.106363386,-0.049866986,-0.107544735,-0.044234872,-0.00033158044,0.19183882,0.03752403,0.15898968,0.030423528,0.16797307,-0.13787597,-0.031501688,-0.03926696,0.084833235,-0.096168116,-0.09020438,-0.10609077,-0.13676919,0.013949926,0.05806826,0.0841171,0.098135985,-0.044488758,0.08810333,-0.05709387,0.06875348,0.20732932,0.019655567,-0.17698678,-0.14211532,-0.0014182249,0.07364349,-0.18203323,0.0284722,0.09083548,-0.16163658,-0.107847854,0.07151287,-0.21085994,-0.044717148,0.008920348,-0.053237237,-0.046840917,0.0129402215,0.07212544,0.14869708,0.08727349,0.03971201,0.01885699,0.05900427,-0.1844489,0.0028064707,-0.004603482,-0.084177725,-0.13827838,0.059758417,0.03470084,-0.070689104,-0.07974614,0.19522822,-0.087376684,-0.18615286,0.1405657,0.07910926,-0.055549815,-0.102025494,0.021585578,0.0039576474
-0.083348274,-0.10859361,0.13984504,-0.039102644,-0.006560425,0.15887104,0.23291315,0.046227235,0.1421977,0.09870522,0.06472147,-0.025487216,0.2116257,-0.14767733,0.046119876,0.09664449,-0.19445375,0.1681529,-0.086099654,-0.14111309,-0.21611275,0.20098749,0.0029428399,-0.09801055,0.14534065,-0.006859908,-0.102811255,0.017211763,0.11265989,-0.17084566,0.24121535,-0.02994099,0.17613898,0.0010378415,0.058550734,0.12670125,-0.023056906,0.27052796,0.09407443,0.1175576,0.1263723,0.14333194,-0.052661948,-0.02720755,-0.12514734,-0.08183475,-0.16030562,0.08365971,0.103248075,0.04202638,0.21086866,0.18541667,-0.10896486,-0.0210863,-0.052416764,0.099376254,-0.06224755,-0.010674912,-0.22348675,-0.0700004,0.056156702,-0.11986919,-0.1086495,-0.022529703,0.089955434,0.24169777,-0.013758129,0.31664935,-0.05374083,0.11371823,-0.16980827,-0.11964878,0.13782491,0.14530537,-0.29321402,-0.1117563,0.019844359,-0.17041266,0.1262926,0.010050818,0.113156885,0.0652271,0.014963587,0.2354315,0.06643888,-0.12982702,0.17228884,-0.059302587,-0.1434207,-0.19213323,-0.16281922,0.001610335,-0.049645975,-0.047294635,0.21737681,-0.26822698,-0.16403225,0.08235855,-0.2059445,-0.02209595,-0.04976554,-0.015104408,-0.14234911,-0.041351628,-0.008557405,0.26601943,0.1420011,0.07414947,0.09436713,0.090271346,-0.17388009,0.011991841,0.022981029,-0.1380647,-0.14281851,-0.14806816,0.1362956,-0.15742412,0.048232943,0.30706626,0.019672837,-0.20104505,0.16966504,-0.06890488,0.038704004,-0.07733839,0.09811814,-0.1152948
