
-0.05204182,-0.044333827,-0.07591826,0.013586372,-0.010180317,0.073474504,0.013612367,-0.018456258,-0.057176933,0.02162449,-0.0265674,0.054720826,-0.014053412,0.05997906,0.047681905,0.024345003,0.0070562735,-0.037359238,-0.007909037,-0.010627985,0.026647232,-0.05031288,-0.064545,-0.06115718,-0.07247219,0.012544423,0.008198336,0.07573151,0.027002223,-0.0006268546,0.07992748,0.011101402,-0.04717182,0.050971366,0.06412975,0.02379334,-0.069623604,0.05913765,0.06256727,0.0020412356,-0.04523331,0.026546456,0.052420907,0.04180575,-0.048349656,-0.01868859,0.026527874,0.07367443,0.014730953,-0.012652025,0.019368276,-0.013761833,-0.036541205,-0.057676382,0.019921117,0.067965455,0.046320297,-0.052469894,0.027946569,-0.054582447,-0.020062305,0.025979191,-0.06323461,0.036706686,-0.022405665,-0.065833546,-0.04983246,0.01284796,-0.035548147,0.02950216,-0.024802782,-0.0643374,-0.07685019,-0.0025606975,-0.021553773,-0.07895781,0.03513276,0.012892827,-0.072245315,-0.0017028153,0.0003644526,0.028368704,-0.036094666,-0.0007946864,0.06755883,0.021300636,-0.021224655,-0.0002271682,-0.029235698,-0.04303779,-0.0031930804,0.06850136,0.07575562,0.01134406,0.032537848,0.040490106,-0.064584024,-0.010096796,-0.062536255,0.07909676,-0.0065202788,0.0021313876,0.052184068,0.042341843,-0.031052224,-0.061252728,-0.017078042,0.01815267,0.02826453,-0.062254783,-0.056515023,-0.024170749,-0.052391805,-0.03500068,0.08092315,0.008791715,-0.023182657,0.07621703,-0.018353537,-0.07744156,-0.06272335,0.039251976,-0.0136971995,-0.021364897,0.055555873,-0.046368506,0.023877852,0.023622625
-0.07986741,0.053787716,0.044434287,-0.008840017,-0.013531089,-0.03519472,0.04278607,-0.042775758,0.014026955,-0.07890015,0.008130826,-0.03636753,-0.04073017,-0.055175185,0.07617279,-0.0137894675,-0.06511173,0.08053238,-0.030402843,-0.072048604,-0.010773927,-0.05592998,0.02647616,-0.034187037,0.072067834,-0.013569683,-0.06460346,-0.03724309,-0.017698355,-0.07742214,-0.008140035,-0.06762623,0.07904772,-0.020516563,0.07474632,-0.014193058,0.014728397,0.011576682,-0.049506668,0.062336676,0.07397095,-0.012688823,0.06958494,0.069823526,-0.0060956627,0.07422713,-0.053788014,0.037349507,0.03619124,0.073745094,-0.05712033,0.07974828,0.054607235,-0.029708985,0.012404941,0.027665526,-0.06430505,0.020227648,0.021969274,0.040062167,0.06907456,0.0009780899,-0.0059750155,-0.05516979,0.009439163,-0.046771437,0.07078449,-0.075278394,-0.056702256,-0.02334854,-0.0060967505,-0.004399948,0.019937903,0.024135858,0.013076171,0.00513117,-0.023421831,-0.020238265,-0.044033617,-0.059622686,-0.013761386,0.0105691925,0.051518463,-0.05597925,-0.059799824,-0.030368555,0.075193636,0.0024834052,-0.044129886,-0.048714202,-0.06776268,0.037705854,0.028942302,-0.030217893,0.071016766,-0.010226846,-0.028513145,-0.019894816,-0.056621186,-0.0383242,-0.0252021,0.033216685,0.066209845,-0.032782923,0.047579534,0.027023882,-0.03823822,-0.033616327,0.016922615,0.06022472,0.035207868,0.004433438,0.058907993,-0.03215068,0.078802414,0.024182275,0.009721033,0.022757739,-0.020695444,-0.020548489,-0.018782496,0.031951763,0.031801566,-0.030416902,-0.0032316819,0.04060573,0.06596381,0.028965138
-0.07872096,0.054095514,-0.005066812,-0.0039407015,-0.05763898,-0.0033609942,-0.07822505,0.036978215,-0.018304631,-0.01858101,0.016973712,0.008315235,0.017292075,-0.061004948,-0.0674254,0.0038011,0.060465746,0.04622022,0.0050603673,-0.024437074,-0.030266237,0.009497911,0.06675624,-0.056503072,0.01068414,-0.04587064,0.06811877,0.020990796,0.021608405,-0.0029630736,-0.02348217,-0.035418503,0.035367295,-0.0010798723,0.06555689,-0.07845384,0.05313506,-0.059353128,-0.048114616,-0.025842234,0.035493843,0.074730285,-0.03831196,-0.050696727,0.02341669,-0.0016312078,0.028174937,-0.058643665,-0.00076009333,0.078540094,-0.057067554,-0.058969185,-0.07477995,-0.035704825,0.0381615,-0.055216435,-0.054014407,0.040347315,0.079000704,-0.028024022,-0.03287331,-0.04082644,-0.010988101,0.05253745,0.056391142,0.048930503,-0.04428637,-0.06440994,-0.052289467,-0.021326914,-0.07617141,0.0629751,0.037286192,-0.078688994,-0.075842276,-0.0046042725,-0.019011252,-0.00023815036,-0.046062417,0.019082412,-0.03385173,-0.07701499,0.04824678,-0.0045392215,-0.03964019,-0.015938975,0.024937108,-0.047564927,0.0042854846,-0.012287401,-0.01668679,-0.036793515,0.009103909,-0.03212606,0.07859068,0.020242192,0.013066389,0.050045468,-0.05827587,0.067744486,0.05139851,0.0009078756,0.022830911,-0.05526679,0.038399383,-0.0004634261,0.07563109,-0.048695773,0.013416678,0.01091148,-0.068028405,-0.035297617,0.07253712,0.027326949,-0.0155982375,0.018007904,-0.048227843,-0.060770974,0.023322552,0.013425425,0.043186694,0.0589248,-0.07258606,0.032011963,0.017855033,0.024167515,0.048164673,0.07772369
-0.05032696,0.05389046,0.016907513,-0.04019218,0.017852984,0.046274997,0.042304017,0.06405083,-0.014278047,-0.07429305,0.004024379,0.023373857,0.052408032,0.035979003,0.023630165,-0.043909777,-0.070705466,0.056064628,-0.080406174,-0.047614567,0.05954098,0.060101308,-0.055905517,-0.018263109,0.01964721,0.053975947,-0.05294867,-0.034177255,-0.0040127933,-0.06215612,0.07360365,-0.07381236,-0.03281746,-0.05166337,0.033834696,0.05074855,-0.010604002,-0.0018530563,-0.054515034,0.063536085,-0.055365957,0.030144677,0.047243528,-0.058068387,-0.03159101,-0.050329667,-0.041498404,-0.02651913,0.016524948,-0.07315004,0.069884576,0.00066446513,0.035097353,0.04795324,0.02731581,-0.014957808,0.043390326,-0.04122819,0.026268102,-0.011069514,-0.04637241,-0.026456594,0.055121772,0.0064301193,0.017521463,0.03569773,-0.046264213,-0.023946192,-0.049977824,0.002453357,-0.0541566,-5.954504e-05,0.07659901,0.05839438,-0.005260788,0.013297461,0.007113382,-0.01689367,-0.020624299,-0.064494,0.041132465,0.031496674,-0.04957874,0.05508762,0.06459191,0.07246617,0.060670488,0.017822258,-0.0060979426,-0.02603469,-0.015793122,0.07727166,0.031192794,0.03979352,-0.010748327,0.011691242,-0.009971179,-0.034062173,0.019647054,0.05054336,0.0034148544,0.031641774,-0.021140918,-0.04783876,0.00824593,0.07987749,0.063881345,-0.0519272,0.056437515,0.076151125,0.064559005,0.012906574,-0.04564121,-0.011794023,0.020968616,-0.069144055,0.052236058,-0.031966984,0.05490864,-0.06412261,0.03403069,-0.08000212,-0.06982588,-0.049917296,0.0587871,0.037717223,0.059734903,-0.030080765
-0.0693075,0.04620672,0.027160332,-0.010594159,-0.036700226,0.0063520297,0.047952197,0.054230683,-0.068309605,0.012618393,0.07201531,0.011946894,0.042075768,-0.041978806,0.04220292,0.05982495,-0.069585,0.037706897,-0.011004269,0.05061131,0.009018205,0.0205108,0.0106282905,-0.06826714,-0.05900154,0.062662415,-0.0027990416,0.039797872,-0.03772405,0.05437147,0.016514577,0.07781508,-0.07234137,0.03971383,-0.06517301,0.07807452,0.011918835,-0.07049729,0.040447526,-0.03528609,0.045285888,0.015022032,0.07203596,0.025622979,-0.06815012,0.032710813,0.071959324,-0.025387824,-0.03449423,-0.05822555,-0.07130172,-0.018642876,0.06493708,0.022608757,0.07858356,0.03722971,0.07768262,0.011891335,-0.048482202,0.07910185,0.027559593,0.03784459,-0.045250267,-0.04671555,0.0583814,0.02193994,-0.0321845,-0.02243881,-0.016478263,0.059098013,-0.027441338,-0.025017358,0.059866317,-0.06274588,-0.02845747,0.015864447,0.014305778,-0.054398984,0.018351004,0.00873892,0.024054542,0.01092954,-0.0402804,-0.056638766,-0.06110497,0.011607371,0.020491906,-0.059453435,0.07424993,-0.013541028,-0.032645952,-0.052015636,0.035107948,-0.045129985,-0.054729458,0.006755583,0.032343812,-0.012055516,-0.053880796,0.017996743,0.018318184,-0.02215761,-0.0009294972,-0.05795679,-0.020627197,-0.056189287,-0.02728746,0.00040610135,0.065522514,-0.058523804,0.03787429,-0.018740244,0.07624345,-0.03344004,0.015969276,0.054284774,0.0642254,0.00033377856,0.06632719,-0.017023526,-0.059885047,0.054385044,0.038469195,0.07865784,-0.037391182,0.040584378,-0.005449496,-0.060927868
-0.04150264,0.0795876,-0.04712651,0.07265649,-0.06842614,-0.0051330626,0.059453018,0.01747223,0.03793136,0.015829712,-0.03326621,0.033700503,0.0022770837,-0.039491497,0.05392947,-0.045707464,-0.005444236,-0.07115108,0.009585917,-0.066999145,0.004942924,0.034681827,-0.056482434,-0.038494144,-0.04554123,-0.004999779,-0.0024911761,-0.06345356,-0.08026634,0.034923345,0.0036639497,-0.023220617,-0.07064569,-0.016042434,0.053803332,0.034330532,0.02331081,-0.0008226484,0.011287749,0.02287808,-0.00784988,0.0039495155,0.06751,0.063836075,-0.07360372,-0.030975062,-0.07615519,0.04586058,-0.014974847,-0.06513153,0.036547996,-0.034217943,0.030959189,-0.06033936,-0.06250021,0.029376388,0.06950856,0.05952952,-0.014873743,-0.035921145,0.069610514,-0.017229944,-0.008663133,0.060075603,-0.015162908,-0.07156803,-0.0022105053,-0.04508402,0.005408846,-0.046949487,-0.051092543,-0.0033352375,0.034645975,0.07600779,0.02128511,-0.029950038,0.066503175,-0.06906637,-0.080937885,0.032927208,-0.026928816,-0.042405758,-0.050678976,-0.034450583,0.04050687,-0.006940149,-0.041309025,-0.012640826,0.008126013,-0.0588343,-0.015347704,0.00047011673,-0.0077513903,-0.02517135,0.04648342,-0.071753256,-0.0014057755,-0.031193934,-0.0034674332,0.080648266,0.041139297,-0.0030083805,-0.0059077367,0.04349988,0.024968065,0.07473149,0.020827249,-0.022517905,-0.07098576,0.0002277866,-0.007573031,-0.046062768,-0.03830664,0.03798172,0.07062603,-0.019142907,-0.047993813,-0.08099489,-0.051063843,0.012859173,-0.0722236,0.04955133,0.041394137,-0.06621138,-0.0033278912,0.008377083,-0.04779548,-0.022063531
0.010566309,-0.04647365,-0.012499236,0.07685568,-0.037185792,0.073130794,-0.02741614,0.06975358,0.062319584,-0.0802872,0.07215086,-0.052504104,0.035604224,0.044292443,-0.004764922,0.010469444,-0.073015794,-0.010645829,0.008857772,-0.061341047,0.020588055,0.019689158,-0.07609074,-0.06424678,0.045774825,-0.002245739,0.003002964,0.019725107,0.0740866,-0.06786643,-0.056764137,-0.054809786,0.034371488,0.045364745,-0.00805036,0.0047555193,0.013975732,-0.070162624,-0.00043789297,0.04161136,-0.08060817,-0.0048872307,0.07742048,0.03988795,-0.065457106,-0.06737336,-0.08050796,-0.0036053583,-0.018606074,-0.036318295,-0.012741715,-0.019642435,0.0014484599,-0.075127594,-0.0024453476,0.074186824,-0.023851648,0.07563623,-0.07031783,-0.00041536987,0.026705809,-0.0058721155,-0.04395195,0.054181658,0.040364735,-0.04522422,-0.07145476,-0.04981488,0.07650524,-0.0121835545,-0.06543232,0.06927698,-0.036028586,-0.011238299,0.079221584,0.049924426,-0.026637774,-0.07242975,0.0069244653,-0.08071114,0.037587874,0.01850041,-0.08071555,0.027142406,-0.011224546,0.0084593445,0.072467186,0.06973883,0.061381854,0.05504792,0.015888251,-0.04807683,-0.040455066,0.0067305416,0.03378842,-0.06764297,0.0378467,0.009593904,0.07910264,-0.049544606,0.044626035,0.044039153,0.066365235,0.032402948,-0.07909206,-0.06597172,0.014802963,0.043320946,-0.0022414848,0.023123346,0.02242291,-0.046168298,0.025815763,-0.0038470477,-0.052788958,-0.06942606,-0.0345546,0.046394415,-0.06684229,-0.017171964,-0.030905195,0.070478626,0.0545037,-0.04045907,-0.0028282255,-0.006121613,0.07202531,-0.02286141
-0.062334493,0.019646317,0.0010920167,0.042218603,-0.071949676,-0.030211065,-0.050318718,0.07847036,-0.014796644,0.028808013,0.024498284,-0.057330478,0.029477797,0.004704699,-0.041738994,0.058836855,0.061108522,-0.054418437,0.043855548,0.029525928,0.06123703,-0.010125011,-0.07840756,-0.076022334,0.0777737,-0.03192208,0.07665778,0.020678967,0.07565009,0.004524231,-0.056389265,-0.056115627,-0.020354528,0.047142483,0.065780275,-0.053787738,-0.042060975,-0.017754823,-0.06421176,0.0074305683,-0.013799675,-0.053213686,0.047079794,0.053690128,0.009050824,0.020734683,0.004374303,-0.021414671,-0.005138576,0.033237822,-0.0042116866,0.008640833,-0.07744515,0.07746353,-0.028591368,-0.0014006123,0.0018094108,-0.0070391,0.05092562,-0.018137254,0.07762239,-0.055090405,-0.036826678,0.06922851,0.0041840747,-0.029007316,0.058661096,0.027964674,0.07120807,-0.064311974,0.06301727,-0.06925989,0.062971,0.051659353,-0.0714867,-0.024674878,-0.015893392,0.037123196,0.021107733,-0.041170023,0.01916445,0.039286688,0.077480815,0.023149103,-0.059233174,-0.05958318,-0.015918188,-0.022874791,0.036130793,0.015304677,-0.017627478,-0.006976217,0.01531779,0.05011616,0.03579612,-0.026333582,0.001264587,-0.039732046,0.024561167,0.033398673,0.035681255,0.0014166832,-0.059223928,0.0659134,0.049088247,0.07704259,0.030138299,-0.022711344,-0.039698202,-0.028079152,-0.069999866,0.0047485605,-0.005372621,-0.06730527,-0.06756415,-0.08090629,0.07899868,-0.06566855,-0.004676506,0.040052578,0.035043627,0.0055095404,-0.061637737,0.025619902,0.017071813,-0.008875586,0.044321932,-0.055953417
0.07687556,-0.06943418,-0.012018308,-0.021954,0.0027468726,-0.024288382,0.024464555,0.05356442,-0.0637607,5.9485435e-05,-0.07249089,0.036433958,-0.011147507,-0.010800675,0.031689517,-0.049362518,-0.06976152,-0.014387518,0.044333242,-0.03368614,0.041949704,-0.06371028,0.05629707,0.026703179,0.06767333,0.030975685,-0.029558476,0.07219178,-0.015885063,-0.046604373,0.05585905,-0.065701,-0.054735973,-0.040868517,0.062847115,-0.028056044,-0.030094068,-0.05944615,0.08076192,0.042295218,-0.051843524,-0.05064115,-0.05731818,-0.06663303,0.06796204,-0.07859629,-0.01662229,-0.063861236,-0.06625441,-0.039952695,0.04539538,-0.076510824,-0.04987473,0.0076084435,-0.03177105,0.034120493,-0.010052994,0.07471358,0.06073942,-0.025845155,0.07341894,0.07415902,0.02444721,-0.041044593,0.08052621,0.040429033,0.052846648,-0.0065336972,-0.05974069,-0.079590484,0.01325646,0.043641225,0.007963918,-0.08020962,-0.044012345,0.019211985,-0.04094777,0.05623635,0.0214438,0.075055115,0.08029292,-0.057471283,-0.051626533,0.05550132,-0.07595711,-0.0030918866,-0.010559022,-0.026041787,-0.02611034,-0.0031297281,0.07429839,0.043366604,-0.025397047,0.016035259,-0.04513913,-0.015978113,-0.015732251,0.058771767,-0.031120565,0.03165341,-0.07790786,0.0726339,0.057897694,0.05974806,-0.063389786,-0.029762242,-0.079275176,0.049955003,0.06240543,0.068695836,-0.039807428,0.07862083,-0.020873122,-0.039770413,0.058933966,0.013853051,0.014283381,0.056168772,-0.034657948,-0.010837704,0.03387188,0.029990919,-0.05343611,-0.04066682,-0.056377158,-0.056238525,-0.05524809,-0.064256646
-0.049132664,0.032374516,0.026505247,-0.04775976,-0.07532512,-0.05711352,-0.04639328,0.0125181675,0.030200392,-0.0073932484,0.03398192,-0.07755128,0.010771953,0.0673034,-0.08092777,0.026465356,-0.07053018,-0.079035304,0.024653241,0.0033535883,0.07524439,-0.02611303,-0.007915378,0.0109464675,0.023578376,0.06280405,-0.04714254,0.07853354,-0.0010395274,0.064982854,-0.07841039,0.015557684,-0.024380974,-0.031407505,-0.034949318,-0.05183438,-0.07553086,0.043965377,-0.00820265,0.05753409,-0.0315497,0.040158108,-0.05098877,0.04919254,0.026361756,0.051000662,0.0586252,-0.018844496,-0.06988253,0.015111335,0.03173028,0.058173142,0.008649424,0.052561097,-0.021947462,0.0126855,0.060417198,-0.024236478,-0.054799847,0.052842103,0.006836705,0.064266734,-0.0053556263,0.06643724,0.05967594,-0.01021944,0.042586207,0.072391056,0.07346637,-0.007896699,-0.04577795,-0.044628,0.037081458,0.04006967,-0.04564301,0.017345272,0.0067389756,-0.0753174,0.046658374,0.001574643,-0.06677921,-0.0043742657,-0.028244805,0.014830694,-0.008963183,-0.073100746,-0.06662576,-0.076692,-0.061945796,0.024765827,-0.053475194,0.021411382,-0.052956793,0.03380201,-0.046604607,0.0067476556,-0.0093454495,0.014953665,-0.076133534,-0.06626791,-0.014675699,0.018465817,0.02482158,0.010712609,0.08105504,-0.018285751,0.03902842,0.052770726,-0.051642947,-0.01522775,-0.045490645,0.054617815,0.030387178,0.031578146,-0.0019870698,0.008984111,-0.0057681873,0.079246394,-0.08070427,-0.017154485,-0.05473522,0.04727944,-0.0393377,-0.064091995,-0.06264946,0.027268939,-0.07358492,0.07814675
-0.053158607,0.011797912,0.008059472,0.051514097,-0.07796926,0.039862923,-0.07761253,0.05317097,0.063281186,-0.009619273,0.03685431,-0.00220377,0.00893157,0.02399595,0.06595052,0.0325557,-0.0642066,0.029505625,0.020699002,-0.061713427,-0.008187801,0.05691772,0.063958384,0.026110768,-0.07609554,-0.012682214,-0.077807166,0.0007696822,-0.048143473,-0.015593611,-0.03317992,0.065928824,0.030995041,-0.052348353,-0.057380777,-0.0510931,-0.04457354,-0.07160013,0.05924847,0.004867837,0.04497551,-0.019644,0.057532005,0.06431986,-0.014086306,-0.033583704,0.06487077,-0.07138517,-0.06747382,0.051177166,0.003922887,-0.0062769204,-0.02237619,0.04232353,0.02603434,-0.04752975,0.008070916,-0.048808552,-0.009525351,0.04402273,0.07799957,0.022474878,-0.022357877,-0.04587623,0.012450233,0.07707719,-0.0049292,-0.057069566,0.06495071,0.035767697,0.06915384,-0.035838027,0.037496135,-0.07390847,0.08022273,-0.030528776,-0.012552701,0.0066273287,0.0548949,0.039211616,0.06313396,-0.03364837,-0.04797896,0.035473518,0.079705186,-0.08080321,0.07527416,0.06704878,0.015057169,0.032791376,0.067369364,0.07335129,-0.049034387,0.03348817,-0.044105113,-0.008446179,-0.075584635,-0.013659991,-0.081042156,-0.06118402,-0.047394305,0.06912548,-0.057837877,0.016221002,-0.07490447,-0.07605881,0.07654864,0.07573768,0.057492517,0.06432866,-0.01890371,-0.02111166,0.042059273,0.019648083,0.035966977,0.04374043,0.07961682,-0.056378804,-0.048065323,0.05005469,0.02365639,-0.04318631,0.06318175,-0.026392873,0.015718132,-0.078426205,0.025070287,-0.06141173
-0.055749282,-0.07230213,-0.07756447,0.055885114,-0.028263468,0.04582589,-0.007663153,0.009134717,0.021740526,-0.0147769,-0.01902682,0.06600755,0.06727653,-0.069692254,-0.04899927,0.013579585,-0.026200108,0.060688384,-0.04761956,0.056744687,0.03341633,0.03042657,0.07506261,0.010601781,-0.020259269,0.041576765,0.02359692,-0.043617245,0.07470896,-0.039412517,0.07057177,0.07302544,-0.072502576,0.03474439,0.046956353,-0.031189952,-0.04562806,0.06921,-0.046094347,-0.03406925,-0.03669564,-0.033456903,0.027348533,0.01773987,0.043657914,0.0034241378,0.050035186,-0.035678294,0.08109669,0.069883846,0.07362429,-0.026199102,-0.035734568,0.041640796,0.01923345,0.0059293956,-0.015678026,-0.07978952,0.03341645,-0.0109699,-0.045336902,0.041908883,0.011743166,0.026900738,-0.0061048865,0.07560355,0.020588405,-0.048004042,0.044672094,-0.05637992,-0.06891186,0.003311105,-0.007514648,-0.052386913,-0.012248978,0.033000194,-0.077563636,0.06826981,0.036163956,0.005012892,0.05864484,-0.041164145,-0.024988525,0.07876124,-0.041523952,0.0064807087,0.073534735,-0.069692194,0.04742033,-0.06359035,-0.0013789982,-0.007013753,0.046361454,-0.013141185,0.03859517,0.050464176,0.055277772,0.07788501,0.05073794,-0.013125487,-0.07955463,-0.022252098,0.042308412,-0.016998343,0.04458163,0.06447702,-0.05711221,-0.057947777,0.015584461,0.04852117,0.07532758,-0.0035006031,-0.059368752,-0.036136128,0.016456619,0.07116815,-0.017871276,-0.016112223,0.0484507,-0.06654466,-0.034090463,-0.034671888,-0.024657417,0.055999555,0.028077893,-0.024310987,-0.0028364658,-0.044311743
0.07339368,0.0036869273,-0.05563186,0.039528042,0.015465535,-0.056118064,0.040616907,-0.036277395,0.02434408,-0.009595066,0.020168258,-0.055081956,0.08571761,-0.01120355,0.022070222,-0.04551526,-0.025214203,-0.066085696,0.041849434,0.011865661,0.06051954,-0.07892821,0.027631879,-0.07426845,-0.019234087,0.07768559,-0.021592103,-0.017656177,0.005060293,0.06544142,-0.07494751,-0.055398755,-0.031899784,-0.0630153,0.06388018,0.07078572,-0.034216683,-0.04846644,-0.075152926,-0.06377825,-0.05234348,-0.051581934,-0.0076808035,-0.020138983,-0.030871779,-0.021467932,-0.07171258,0.037542135,0.0762637,-0.011259064,0.07567895,-0.014468141,0.0032770112,-0.016765743,0.0027667284,0.053855546,-0.07692466,0.006749667,-0.007319413,0.05008606,-0.07078301,0.07378905,-0.023903493,0.04907558,-0.058544926,-0.048248943,-0.064750314,-0.023443494,-0.052478943,0.065055065,0.04403668,0.03527882,-0.031273145,-0.024943043,-0.004218705,0.054543786,-0.072924845,0.021412397,0.039355725,-0.016761705,-0.030100916,0.13021052,-0.073958844,0.031437673,0.038576968,-0.032310624,0.0061581656,-0.07634622,-0.009246223,0.044065468,0.024918228,-0.015124366,-0.037368365,-0.041959584,-0.05043502,0.054345973,0.05033908,0.024665654,-0.01613839,0.042828143,0.02372796,0.054750763,0.012921676,0.044005223,-0.049258325,-0.07602315,-0.057914533,0.06548331,0.040676877,0.06544011,-0.07216468,-0.0019778833,0.05397875,0.04438355,0.059823014,0.014696099,0.04815393,-0.010472581,0.079280324,0.062888466,0.0021445602,-0.075685695,0.045484237,-0.03168393,-0.017602243,0.025184482,-0.06738593,0.0102361515
-0.006490767,-0.061934523,-0.042894457,-0.0335633,0.020831503,-0.0062571615,0.047273718,0.05992218,-0.008115299,-0.077704206,-0.036819335,-0.047778074,0.00525666,0.0507723,-0.0028040335,0.057341598,-0.0784637,0.043412395,-0.0010494515,0.18171294,-0.007725118,0.036711864,0.06591674,-0.012651175,-0.015285201,-0.05941853,0.080247395,0.07953622,-0.057362482,0.02988249,-0.04350835,0.07813252,0.06776867,-0.015472941,-0.012181275,0.0055378303,-0.07368258,0.0051598474,-0.010421,0.004856214,-0.022485878,-0.07502775,-0.06884392,0.042931587,0.07393422,-0.0552724,0.037996687,-0.06530424,0.07080015,-0.058764994,-0.07144073,-0.040791243,0.01468046,0.04747992,0.018501721,-0.027376514,-0.017973438,0.02911932,0.05870355,0.05785603,-0.016498491,0.02764988,-0.069422156,0.033423275,-0.04314371,-0.06773251,-0.021042991,0.0482317,-0.0648466,0.053327225,-0.0749679,-0.03703122,-0.069196075,0.03270542,0.053292103,-0.080509305,-0.018285893,-0.05641145,0.03773407,0.00043272972,-0.0039160848,0.12749659,-0.04172188,-0.03671651,-0.01809156,0.012226507,0.03527025,0.033658043,0.03791473,-0.06811614,-0.066096395,-0.04693423,-0.080225304,-0.06617166,-0.016246721,-0.04755222,0.037815563,-0.06290393,0.014065288,-0.05711505,-0.07327083,0.045527227,0.06907623,0.07850223,-0.053415902,0.025303468,0.04976485,-0.030639913,0.009675264,0.05955226,0.016887844,-0.015780263,0.028164089,0.03667468,0.025354698,0.02177959,-0.031234682,-0.076810546,0.019516215,-0.007876672,-0.020205408,0.08070659,0.06767113,0.00425715,0.047698133,-0.018818911,-0.06713691,0.027909748
-0.076594986,-0.06752039,-0.020887818,0.0568844,0.046069406,-0.050178073,-0.037210893,0.032174796,-0.012672894,-0.0402308,-0.038276993,0.028689042,0.099434495,0.04653687,-0.011998162,0.043569654,-0.031328954,0.0054999515,0.04033509,0.13489553,-0.011618376,-0.077593595,-0.05524935,0.019498654,-0.07135552,-0.04216519,-0.0055760816,0.022028312,-0.029301584,0.041646324,0.07665808,0.044780545,0.04487907,0.043838456,-0.057422876,0.071762405,-0.05767317,-0.0338854,-0.07602777,0.03182365,0.026035137,-0.06584471,0.015705273,0.046538927,0.02449929,-0.07309384,0.03348732,-0.020837966,-0.0487563,0.03484644,-0.023816276,0.01853197,0.07347942,0.056275614,-0.04734743,0.04061737,-0.023778394,-0.07510611,0.06050182,-0.06354594,-0.011751689,-0.054510143,-0.07982742,-0.05702857,-0.032393277,0.008083895,-0.06394872,0.07532517,0.06311033,0.028051324,-0.058673505,-0.072992936,-0.0734053,0.04372289,0.07409648,3.426522e-05,0.011829622,-0.017739227,-0.056082346,-0.07709312,0.012239367,0.099857986,-0.031114977,-0.07165488,-0.0071972907,0.015075192,0.027873047,0.04121829,0.023700073,-0.0052056015,-0.055180892,0.016121082,-0.02533992,0.0104371905,-0.0061505064,0.017189719,-0.07968946,-0.03458396,0.0073983893,-0.055162057,-0.000906311,0.043716237,-0.018016972,0.0022739097,-0.004037969,0.015745208,-0.035814706,0.036408335,0.0040751398,0.023978874,-0.061476707,0.06304822,-0.07780154,-0.00057771057,0.044968046,0.0077192336,0.046588086,-0.07578993,-0.042386886,-0.009399855,0.016179547,0.059844784,0.0069237277,0.0070017055,-0.07603303,0.07562583,0.02896206,0.08072252
0.0075018257,-0.028723408,-0.003034182,-0.007839203,-0.0035569146,-0.026964493,-0.04456198,-0.0023257956,0.03458438,-0.043481063,-0.030193042,0.01613696,-0.049016055,0.024070784,0.021730699,-0.041558508,0.01787702,0.023724727,0.0014324263,0.075916655,-0.05137782,-0.031479426,-0.06737584,0.051788814,0.005075261,-0.04648552,0.0016689897,0.04647333,0.042901807,0.027406178,0.01200299,0.021257527,-0.036299363,0.028265014,-0.045808893,-0.020552244,-0.048972484,-0.0048488304,-0.022938684,-0.04749848,-0.05894515,0.02316939,0.04351367,-0.03332929,0.05257722,0.0729801,-0.014887743,0.061972983,0.044730492,-0.07428748,0.0052712336,0.046428896,0.029574297,-0.041836206,0.07736953,0.021231309,-0.058551133,-0.023133423,0.06973509,-0.06103792,0.014590651,-0.06261792,-0.005224645,0.03112708,-0.005854383,0.035429813,0.046482466,-0.058529202,0.02083806,0.06550727,0.05212774,0.07266442,-0.075857535,-0.009618945,-0.05380468,0.045636795,-0.025788996,0.007348928,-0.045538526,-0.058175735,-0.036189172,0.07745529,0.0780685,0.07013375,-0.035290714,0.062866054,0.016305089,-0.03660709,-0.0104205385,-0.05362383,-0.06359079,-0.04757678,0.04981879,-0.025688805,0.073120214,-0.027921565,0.014244281,0.06398662,0.008579247,0.020463578,0.07409861,-0.07479681,0.053053103,-0.02965919,0.030048795,0.019529171,0.061487116,0.059806056,0.071913876,0.05151368,-0.0247228,-0.0022730231,-0.026020862,-0.07064267,0.05942545,0.030935034,0.048118643,-0.015422195,-0.06844842,0.015371577,-0.014243722,-0.059155453,0.06927081,-0.025828235,0.0084187165,0.032835312,0.028884634,0.07604597
-0.041012164,0.02001027,0.051134802,-0.016495861,-0.013664871,0.07601259,-0.068686545,0.036271535,-0.07197417,0.06218324,-0.014832281,-0.027784958,-0.07563998,0.07127904,-0.066912934,-0.0644936,-0.030356027,0.017614737,-0.0789201,0.043620788,0.010367207,0.020409197,0.054216333,0.010589205,0.07821181,0.07920671,-0.028844602,-0.040145013,0.04994505,-0.042766478,-0.07294472,0.052502982,-0.00043435395,0.031394824,0.05091486,-0.005431898,0.0018002614,-0.022927877,0.07737691,0.06816157,0.020654835,0.0006570369,0.010629803,0.0016147494,0.016939074,0.031074017,0.024811909,-0.065232664,0.00048140436,-0.06104111,-0.057495434,-0.0028661862,-0.04698294,-0.017696999,0.051172994,0.03569957,-0.0049589947,0.058350943,0.07008519,0.009901904,-0.023955822,-0.02950427,0.023661703,-0.015509896,0.005941555,0.052448906,-0.018989477,0.07726071,-0.03547342,0.0517293,-0.0004113242,0.0047258735,0.03451314,-0.07278892,-0.07438684,-0.0140262395,0.061157145,0.061905585,0.0681174,0.04085113,0.003904961,-0.013640754,0.03499718,0.064696394,-0.024318203,-0.04171447,-0.039272297,0.07265801,-0.039645545,-0.07839737,0.021516427,-0.019313507,-0.0029601306,0.03444341,-0.033140488,-0.025814965,0.07395498,0.032259956,-0.039763298,-0.046691842,-0.025600042,-0.039234277,-0.057219844,-0.07233018,0.07173792,-0.045956116,-0.07243804,-0.06256715,0.024267443,0.0613058,-0.059588633,-0.050178207,-0.045430735,-0.06410615,-0.033824097,0.06586697,0.06575244,0.050577424,-0.036029536,0.054999985,0.041874476,-0.03235002,0.07884159,-0.016784467,-0.014123939,-0.028390363,-0.032153927,0.05516229
0.036396287,-0.010948785,0.045410298,0.073450305,0.009775706,0.029954694,0.006457597,0.027328901,0.012263089,-0.0033130944,0.044960476,-0.006457232,0.02019924,-0.028956398,0.079613425,0.021472163,0.03630808,-0.034361955,-0.07985339,0.04010129,0.027744927,-0.021165054,-0.07525596,-0.0731962,0.01053682,0.06469568,-0.070133634,-0.07710159,0.0070244223,-0.064143345,-0.07144338,-0.069634914,0.06607268,-0.072647244,0.02536837,0.015037984,0.02101706,0.0096619725,0.04506015,0.011910997,0.0007939935,-0.018746935,-0.02034977,0.08108234,0.06494763,0.07746071,0.0096331835,0.020116262,0.033451602,-0.045364227,-0.02109097,0.070611455,0.061497055,0.007175572,-0.007042408,0.04858982,-0.01854574,0.041248284,-0.035884343,0.0009869337,-0.07122634,0.017019384,0.05636718,-0.08077567,0.032591067,-0.072615474,0.069074355,-0.034707163,0.05897852,0.03250724,0.04813216,0.07154565,-0.04666496,-0.050603226,-0.07504999,-0.06528616,0.06484278,-0.00046808273,-0.022797901,-0.029854216,0.06576828,-0.031146422,0.024930723,-0.076216765,-0.0007599145,-0.06841653,0.0033814982,0.049209006,-0.057326183,-0.073985435,-0.037725,0.07669193,-0.016445175,0.041816324,-0.02531809,-0.05505322,-0.044522624,-0.07578527,-0.07863842,0.015509687,-0.04297688,-0.03353035,0.050390787,-0.026351836,0.03654235,-0.07762448,0.02816759,0.04590655,0.055271707,-0.00094463676,0.01007802,-0.015732013,0.02979108,-0.040832665,-0.04683276,0.05593381,0.034913138,-0.0807,0.023751743,0.025997944,-0.03694762,0.030599631,-0.069304794,-0.065407425,0.026567787,0.016342916,0.038000554,-0.03372971
0.051367052,-0.009232804,0.0011492148,0.026322946,-0.060585678,0.008019112,0.056028374,0.044765867,-0.023119964,-0.01009956,-0.024709977,-0.077792294,0.03492973,0.04244583,-0.056466773,-0.028570153,0.071270205,0.0520095,-0.0305193,-0.070199475,-0.010137275,-0.07584357,0.03742864,-0.075071186,0.036028005,0.07463353,0.06362096,-0.033476222,-0.00757692,0.05351209,0.015472807,-0.027445573,0.036571003,0.028793685,-0.035375956,0.056378834,0.020241633,0.06802177,0.024416268,0.049560122,-0.06472069,0.037150458,-0.04878359,0.015424535,-0.03193169,0.028223976,-0.0165046,-0.016881794,0.06275613,0.07877182,-0.034519523,0.048271485,-0.07406783,-0.02925703,0.01805932,0.007999152,-0.061595097,0.033191003,0.06626838,0.017606534,0.03374622,-0.03018954,-0.05083689,0.053280495,-0.06859974,-0.056183368,-0.0049294904,0.023430921,-0.023781043,0.044399388,-0.0641827,0.0478035,-0.038274188,0.004820265,0.073166065,-0.019222695,-0.0009817705,-0.032341857,-0.010312572,-0.011753589,0.07653997,-0.07406768,0.0061689913,-0.018397585,0.0074303,-0.03946187,-0.072071694,-0.0114360675,-0.0722421,-0.05481381,-0.06703434,-0.07101853,-0.045642875,-0.0022399947,0.0032535493,0.0036336482,-0.06935153,-0.07579813,-0.007412873,-0.059511237,0.023995176,0.06516356,-0.04547144,0.030903086,-0.022281744,-0.044963248,0.0015533492,0.041377403,-0.04620966,0.05912856,-0.0036627725,0.018831402,-0.060384866,-0.07361441,-0.047418673,-0.06312559,-0.051414855,0.04431192,-0.027764305,-0.063873805,-0.03541359,0.032686345,0.06612053,0.017362408,0.03682436,-0.053330526,-0.031656798,-0.01120647
0.0037947148,0.03619834,0.02663166,0.046058126,0.06911359,0.00087200105,0.013466746,0.02672027,0.058044694,-0.026486818,0.007059194,0.05123309,-0.057102807,0.06745278,0.02619531,-0.06264973,-0.072142124,0.024777755,-0.029912658,0.03628076,0.023486517,0.018371053,0.022761196,-0.015965387,0.019858502,0.0049368367,0.06386357,-0.043816876,-0.013525456,-0.015303329,0.055397995,0.05416014,-0.058763057,0.010768048,0.067018054,0.03413541,0.050525792,-0.070284255,-0.033135887,0.030352876,0.032613114,0.051955186,-0.027869932,0.0012702569,0.042213365,0.00017837435,0.056489937,-0.044691257,0.065185,0.032716088,-0.020539422,0.039815784,0.05801093,-0.012849376,0.0073441267,-0.07676456,-0.035366327,-0.0763444,-0.030422278,0.0115034655,0.0028661713,-0.00575123,0.04163681,0.031103566,-0.013104096,-0.022196751,-0.025240097,-0.07260619,-0.07834997,0.033655755,-0.059420716,0.057977594,0.045792915,0.061291568,-0.0243393,-0.030861296,0.07583789,-0.008542828,0.041574985,-0.011270113,0.080104224,-0.023718327,-0.059176065,0.0014705211,-0.03083871,0.0243299,0.036795408,0.04601591,0.023011744,0.06593167,-0.065002605,0.043925963,0.014507592,0.029195458,0.07712806,-0.052884854,0.044092916,-0.0480848,-0.009795815,-0.07751125,0.04890942,-0.005158901,-0.022864215,-0.032627907,0.06692896,-0.0075913817,-0.056579843,0.046590574,0.007088259,0.06160254,-0.050217137,0.06351026,0.06720684,0.0009161532,-0.053246133,-0.030943155,-0.032804545,-0.044138875,-0.03920463,-0.06629015,-0.05948016,-0.02098335,-0.05118662,0.01226408,0.01779715,-0.05096162,0.011551306,-0.015984423
0.008788906,0.054150157,-0.030496422,0.061586313,-0.07596846,0.017503463,-0.0792301,0.066498645,0.037733912,0.050201647,0.0199112,0.056652106,0.026058324,0.010654941,-0.03320164,0.07911415,-0.0055497065,0.043259583,-0.01930612,0.028995618,0.0017947331,0.0041946545,-0.047022585,-0.05562374,0.048861735,0.04286839,-0.04975288,0.021866724,-0.037375364,0.053085543,-0.07881821,0.05075594,-0.006281987,0.05058051,-0.06347112,0.054381616,-0.07919092,0.06498102,-0.028963938,0.033712804,-0.0078219175,-0.03377525,0.036738746,0.023225434,0.03249173,0.048013188,-0.008546293,-0.014515795,-0.010092676,-0.056123342,-0.06137286,-0.020080097,-0.021611053,-0.029574275,-0.0078252405,-0.013082653,0.013611846,0.0654368,-0.062099054,-0.0007350072,-0.03704294,0.032680124,-0.058613595,0.055784456,-0.019121248,0.02270171,-0.009498723,-0.014427513,-0.013460502,-0.062832534,-0.065864705,0.07133185,0.07428334,-0.06825269,0.040432617,-0.06800447,-0.0030101612,0.075401,-0.0494835,0.0038269758,0.041403376,0.035077453,-0.05571923,-0.07483193,-0.027869392,-0.0551549,-0.07285856,-0.06995171,0.055416428,-0.03879532,0.07209196,-0.073996015,0.026369825,-0.030445773,-0.0064203143,0.07914292,0.015442461,0.04738588,-0.0100353435,-0.024793152,0.011241429,-0.063562535,-0.019592423,-0.06007319,-0.044663485,0.066254415,0.011826761,-0.024497699,-0.06998657,0.079856284,-0.052824594,0.06665125,-0.05601849,0.035206847,-0.07681722,0.0028733984,0.047086693,0.060160287,-0.0057259575,0.029483736,-0.011263654,-0.023633473,0.07636783,0.020500302,0.0036384612,0.008591294,-0.07022404,-0.046315055
-0.014237419,0.023913391,0.009097375,-0.024379678,-0.006062731,-0.005769469,-0.015166201,-0.032824386,-0.074201524,0.05583959,-0.015814051,-0.0418037,-0.044666715,0.05847498,-0.03242774,-0.033890292,0.023484334,-0.08023027,-0.009740293,-0.062000774,0.072453566,0.015054598,0.06738932,-0.074033976,0.012328163,0.018250637,-0.017639123,0.059285812,0.07580497,0.07441271,-0.048433952,-0.06141032,-0.016680382,-0.075358085,0.017470472,0.06770607,0.051376604,-0.027260523,-0.07991566,0.037937105,0.025232807,0.01282379,0.051469497,0.07011726,-0.010222457,-0.045353573,0.054314964,-0.035326954,-0.039027166,-0.0624542,0.043727398,0.031286336,-0.056531478,0.00638067,0.03277509,-0.024866521,0.027255945,-0.06423814,-0.055298507,-0.07848501,0.008927427,0.04117439,-0.015454069,-0.057714865,-0.05324915,-0.045556955,0.06115461,-0.04675202,-0.0008152053,0.010475114,-0.036820143,-0.034306668,0.0776257,-0.031461596,0.04576055,-0.020169016,0.04329151,0.07475866,-0.046422344,0.07727257,0.0050210133,0.0067456216,-0.075859606,0.050998427,-0.07165854,-0.022937603,-0.073247075,-0.06187989,-0.012299292,0.0019308925,0.04526744,-0.040282164,0.06895576,-0.075067066,-0.00032480806,-0.014341749,0.006292917,0.05829815,-0.010234989,0.077415936,0.048772655,-0.05722578,0.03134717,0.050261058,0.05388782,-0.018569812,0.011694275,0.05314932,-0.04167094,0.0322489,0.034257412,0.07712712,0.033230454,-0.07285486,0.0043187663,0.052551605,0.027102977,0.05803267,0.07042136,0.009275965,0.001624994,0.0673782,-0.02416769,0.038842887,-0.016523495,0.046543695,-0.05908624,0.012226738
0.06653104,0.054355748,-0.042306323,-0.00788442,0.025294557,0.04847973,-0.064165,-0.03136966,-0.0660653,-0.04636251,0.010414235,-0.0793767,-0.03731874,0.043674834,-0.040306933,0.03864982,-0.06317486,0.07426945,-0.010009274,-0.06528743,-0.0738597,-0.0647753,-0.0037980229,-0.017688416,-0.031065375,0.07871539,-0.00058258325,0.08047698,-0.047947556,0.0005402118,-0.05185718,-0.045786597,-0.022285629,-0.06804343,-0.06930721,-0.0669164,0.076029964,-0.038972244,-0.020470481,0.080559395,0.058460183,-0.047085203,0.05900138,0.072873406,0.01601737,0.05979856,-0.07436226,-0.06893833,-0.04774899,0.0033407286,-0.038664203,0.011094496,-0.015661858,0.03402769,-0.02446755,0.019607738,0.0028113425,0.046557166,0.036488123,0.039928757,-0.06898293,0.0034427792,0.036729507,-0.07978047,0.013998009,-0.062473305,-0.012631774,-0.07822017,0.052235164,0.032548852,-0.050021105,-0.038490564,-0.016233288,0.0043805093,0.036193505,0.01729519,-0.06821978,0.013449341,-0.0018484518,-0.018569082,-0.01226791,-0.004401803,0.06287023,0.04536899,-0.0069415197,0.0526328,0.070428796,0.06455346,0.06754208,0.011354461,0.043760657,-0.060811296,-0.02219658,-0.07263069,0.040128097,-0.040282473,0.015466191,0.07378567,0.023056768,0.07269774,-0.029614303,0.037375152,0.06082692,-0.06164373,-0.07757354,0.028421037,0.04246787,0.022107929,-0.0034422204,-0.043693632,0.058067285,0.067216165,-0.013541937,0.015246101,-0.011077248,-0.04634555,-0.056451067,0.050218545,0.04610548,0.053086646,0.022358514,0.048755415,-0.054638974,-0.07003031,-0.05762879,-0.05089005,-0.06859931,-0.07839892
0.06963555,-0.0058265924,0.049219884,0.0017863736,-0.07777027,-0.06988055,0.057279952,-0.014724068,-0.056645803,-0.030292075,0.06804969,-0.019059442,0.00021960586,-0.046791065,-0.07047112,0.0040636957,-0.07803824,-0.05671794,0.033062868,-0.06216293,-0.06333837,0.009570099,-0.027642049,0.050564356,0.041581757,0.04282082,-0.00972382,-0.027121734,-0.03711298,0.02048251,0.039885014,-0.0761561,0.020966873,-0.05676553,0.04179591,-0.0067192838,-0.050840102,0.050604872,-0.036990784,0.041068032,0.023986354,-0.0075302795,-0.04864124,0.042411216,-0.040976696,-0.019021846,-0.007903174,0.014127366,0.033385716,-0.035489824,-0.057193197,-0.035288684,-0.041537758,-0.06352952,0.024123907,-0.014007464,0.047924675,-0.06453355,-0.029553853,0.0325616,-0.014675662,-0.04634555,0.062161423,-0.06994066,0.016072273,-0.050937742,0.076493226,0.03776083,-0.014197193,-0.050075058,0.05977986,0.051179387,-0.016214855,0.023100585,0.052947573,0.0012705848,0.05272866,-0.062399916,-0.030653566,-0.08012877,0.07498387,0.04214084,-0.024945576,0.052638255,-0.024184477,-0.07982208,0.025803559,-0.03699811,-0.028879412,0.025616772,0.07769895,0.0061839446,-0.060979053,0.015271433,0.07208984,0.06873954,0.080734484,0.079361476,0.07624266,-0.049747776,0.054694705,-0.014157012,-0.033610255,0.0044115484,-0.016227886,0.022145815,-0.08089217,0.06611996,-0.043797206,-0.07873169,-0.001543507,-0.02298177,0.069813944,-0.030590117,0.0075779855,0.06649407,-0.04244347,-0.047871903,0.017201304,-0.02971527,-0.050507754,0.0016065687,0.022764541,-0.079589926,0.0572649,0.052042656,0.072666906,0.067999
0.002483189,-0.049422603,-0.03730619,0.05851423,0.03892293,-0.041346718,-0.051344678,0.009453796,0.0016966835,-0.046203066,0.055819117,-0.0570008,-0.07368265,0.031710923,-0.029174339,-0.07377613,0.048053928,0.019758001,-0.00051902235,0.067578055,0.06102083,-0.031538602,0.068134315,-0.051218726,0.00449536,-0.06988482,0.01243861,0.064777635,-0.01117114,0.030020274,-0.035768855,0.06533503,0.055167504,0.052594148,0.037726164,-0.033622265,-0.021450546,-0.032968167,0.03131625,0.00068229437,0.00871674,-0.0036805049,0.009478703,0.053249784,0.061367325,0.056711502,-0.06257857,-0.04711456,0.08000552,0.018450573,0.006809287,-0.055797495,0.06248019,-0.037369,0.039192334,0.058202155,-0.0681239,-0.05166341,0.08095441,0.023753777,0.05646623,0.07828111,0.019851096,0.06368821,-0.06299244,0.076194175,0.06528386,-0.02869564,0.01830107,-0.04906614,-0.025798105,0.07650506,-0.01376044,-0.044347383,0.04476068,0.055022813,0.042147905,0.025815003,0.021103248,0.033207245,0.05851329,-0.002820842,-0.0777056,0.08022233,-0.04898842,0.057024084,0.048582204,0.029736891,-0.016300835,-0.062713176,0.036713764,-0.019267581,0.038161814,0.06500367,0.01704812,-0.039952464,-0.010865845,-0.005357228,0.039766505,-0.05286403,-0.019434102,-0.071089484,0.036354207,0.028477192,0.007728897,0.039688498,0.06922688,0.06320747,0.07678533,3.7252903e-08,-0.07593858,0.053970464,0.048433833,-0.0017848089,0.00090408325,-0.067656435,0.01660601,0.016937025,-0.050467122,0.06687348,0.060196064,-0.05243897,-0.064409226,0.009766191,0.008910969,-0.040830404,-0.038246807,0.07692277
-0.006657578,-0.06935033,0.055298485,-0.08075562,0.03277739,0.029351152,0.0058277696,0.0069792345,-0.010130018,0.028977841,-0.016073972,-0.052473143,-0.053394884,0.07675376,-0.07844962,0.0101766065,-0.0026614368,-0.080414064,0.07398646,-0.033846084,-0.028760053,-0.06778818,0.051220395,-0.022678487,-0.068067744,-0.007908672,0.073500656,0.06403888,0.060404055,0.06537593,-0.00688608,-0.037588067,-0.046979364,-0.054868538,-0.07247738,0.00064394623,0.032006063,0.019754075,0.080878146,-0.045209736,0.046579696,-0.053921603,-0.03626053,-0.0467544,-0.001411654,-0.039582368,-0.0044850335,0.053076766,-0.07176128,0.05393023,0.078017406,0.065180056,0.0074629188,0.052651636,0.059616454,0.032293275,0.06780288,-0.022083893,-0.04852366,0.03334035,-0.065191746,-0.055751506,-0.06913842,0.03480407,0.012851268,-0.06883818,0.039035767,-0.06556997,0.009742729,-0.040937364,-0.040942915,-0.01782643,0.01684998,-0.056239527,0.0033384264,-0.03870286,0.041023843,-0.06327223,-0.018878415,0.01816257,-0.003248237,-0.06484497,-0.06850714,-0.07207408,-0.0074195415,-0.012399599,0.07520462,-0.049850155,-0.021268126,-0.081052035,-0.034295797,-0.033173442,-0.05663807,-0.06214208,0.050543554,-0.0041611195,-0.07407476,-0.007985771,-0.07556932,-0.06553077,0.012409352,0.069174476,-0.043270953,0.0016828999,-0.04103334,0.013115354,-0.06332338,0.07886995,-0.024414431,0.054708205,-0.032927766,-0.04441839,0.009278789,-0.036816914,-0.001147747,0.029263586,-0.019603215,0.04648433,-0.027047262,0.042267993,0.040469974,-0.036535192,-0.036378145,-0.04063033,0.073798485,-0.06621697,0.007051438,0.039660417
0.025550306,-0.03642943,0.045473583,0.06130535,0.00056334585,-0.0556143,-0.025910307,-0.01343374,-0.08004074,-0.0075107813,-0.004572466,0.024307199,0.038847335,0.03667698,-0.0773965,-0.063606024,0.034863167,0.03529259,0.018306777,-0.051783018,-0.07161069,-0.022742458,-0.016162775,-0.06917304,0.008215584,-0.0071283504,0.038397297,0.037110932,-0.051391378,-0.06484099,-0.0030263662,-0.06025615,0.031619996,0.0011507422,-0.0070481747,0.000104889274,-0.0688329,-0.018543996,-0.010608062,-0.05310011,-0.047763724,0.0006964505,-0.053213026,-0.063745975,0.03608486,0.05487875,-0.051748708,0.07127706,-0.06263335,-0.048071977,-0.03000049,0.029206693,-0.04731908,0.06528004,0.015629098,7.4490905e-05,0.056059532,0.036196753,-0.0024329498,-0.03511549,0.054412104,-0.0811045,0.039576717,0.023242041,-0.022568204,-0.06272016,0.054602437,0.0714666,-0.04702413,-0.08003018,0.005244933,0.023647763,0.014521204,0.06148427,0.054285116,-0.037265174,0.007442653,0.04794813,-0.072498515,-0.039991062,0.0019129068,0.079320274,-0.072395906,0.030237965,0.008049257,-0.056293752,0.0069381148,-0.07338086,0.018023372,-0.016064227,-0.03617144,-0.011434369,-0.06147454,-0.0022962466,0.07560333,0.059166856,0.03581041,0.0054323375,-0.07300262,-0.05326166,0.05140581,0.01954814,-0.07911913,0.04777155,0.033775233,0.009586692,0.07292328,-0.06346372,-0.04807455,-0.06828499,0.020429753,-0.06616182,-0.06195336,0.037991405,-0.07627288,-0.025073402,-0.017199486,-0.0474079,-0.049371086,0.07324996,-0.01030124,-0.04178376,0.034726,0.02274356,0.050198294,0.038421936,-0.08024205,-0.07548767
0.056992866,-0.02696902,0.007443078,0.05217897,-0.010063596,-0.07313929,0.06908154,-0.039282702,0.047214977,-0.01247251,-0.04316676,-0.04656152,-0.030826315,-0.0185972,-0.044836234,-0.048993718,-0.020123474,0.08020755,0.0046955347,0.05576808,0.05969145,0.033512056,0.0030776486,0.05856628,0.02679722,0.0067515224,0.008377314,0.024448253,0.013342284,-0.03565911,-0.00976567,0.07400992,-0.0039439127,-0.07403993,0.048652805,0.048487507,-0.04829829,-0.070498504,-0.007107906,0.023437172,-0.0361183,0.02417738,0.07066295,0.015933037,-0.04690671,-0.06670225,0.06917844,0.033456206,-0.052563295,-0.010758944,-0.055232234,-0.043043595,0.04214883,0.07218697,0.06970195,0.053696655,0.051192097,0.041411556,0.042406842,0.010221995,0.022334017,-0.04663607,-0.06821034,-0.057319492,0.08014298,-0.06408436,-0.05412504,-0.05181995,0.026246987,-0.06184212,0.062927596,-0.008439213,0.057176836,0.031446204,-0.02931963,0.073808335,0.03542369,-0.02216788,0.032988377,0.0070353895,-0.012573011,-0.011694603,0.01608906,-0.017037526,-0.021432813,-0.020045888,-0.07229353,-0.020148054,-0.03994237,-0.007165268,0.078666486,-0.053713404,-0.04408875,0.061286457,0.027710453,0.06304713,-0.02198343,0.053788565,-0.071269855,-0.024000995,0.05653832,-0.015522003,0.079261325,0.041361198,0.016368635,0.006533988,0.014509723,-0.0429499,-0.03002325,-0.055803254,0.07871061,-0.055754736,0.022368439,0.024079837,0.018853433,-0.06272677,0.06264106,-0.0086539835,0.03040079,-0.0007923469,0.06849121,0.001569204,-0.011265971,0.07146444,-0.055481873,-0.015922554,-0.05530015,-0.029422857
0.0746469,0.060431503,-0.07320258,0.0066497996,0.078056864,-0.05608397,0.017708585,-0.005686313,-0.06282159,-0.019769195,-0.07424996,0.05231271,0.069724895,-0.0021136552,-0.06463893,-0.022358034,0.034765527,-0.0170639,-0.0702835,0.05774132,0.07837755,0.036111802,0.05944767,0.0021007955,-0.030551825,0.018412076,0.06452767,0.021771811,-0.010144196,0.07939053,-0.039790254,0.0790107,-0.03154506,0.00093972683,-0.010629296,0.044294648,0.019945912,0.07265385,0.0038067475,0.006229274,0.0599866,0.0053969547,0.039546885,0.042362347,-0.055296265,0.069337495,0.06721114,0.018893734,0.07131303,-0.004585035,0.006852314,0.0305847,0.031052068,0.038092293,-0.0534207,0.07503923,-0.0018220544,-0.022841763,-0.061190654,0.07392412,-0.012208499,0.024103217,0.07011732,0.04578402,-0.058772516,-0.037264112,-0.009284489,-0.07537052,-0.035144903,-0.02312468,0.0030275285,0.050740756,0.04205502,-0.060004752,0.0032325312,-0.07170812,0.0075340644,0.025859714,0.0607739,0.03923863,-0.056093834,-0.044700596,-0.053935386,0.07059846,0.06608137,0.014349483,0.022236936,-0.020411052,0.06760416,-0.009041257,0.039814346,-0.037689902,0.004656777,-0.034209512,-0.023304876,-0.0718122,0.049182795,-0.009961754,0.027792677,-0.0686425,-0.014269173,-0.055665664,-0.0584205,-0.025292445,-0.035282206,0.068228655,-0.005501859,0.08107538,-0.03556408,0.052675553,0.078437336,-0.035274856,0.005283244,-0.057478435,0.03406418,-0.041586548,0.06363014,-0.071562245,0.069895424,0.05917599,0.0064465553,0.0016179606,0.048110656,-0.0011370704,-0.013944246,0.06111022,-0.06596213,0.020892657
-0.07884561,-0.0606077,-0.025815528,0.027208753,0.0049802884,0.07685723,-0.07213938,-0.024460841,-0.031949442,0.045927785,0.07524755,0.015777715,-0.033245187,0.0785039,-0.074936025,-0.019241724,-0.054961577,-0.068869546,0.01946839,-0.008517861,0.02562756,0.043007202,0.019226372,0.043225877,-0.01791425,0.050442792,0.06341236,0.020282201,0.054982267,-0.07052701,0.06301778,0.072058834,0.070992835,0.03982158,0.047123156,-0.08089805,-0.061800584,-0.026038945,-0.008299261,0.031024687,-0.069395915,0.028905593,-0.055407688,0.0028338134,0.060392387,0.0016576201,-0.056410365,0.0051565543,0.00457637,0.038359396,-0.037614617,-0.043540087,0.034934543,0.0785448,0.054848887,0.016898364,0.06281146,-0.022820082,-0.005930826,0.014963165,-0.014206305,0.030059263,-0.0461313,0.003462404,0.009156607,-0.07924642,-0.040885538,-0.073645934,0.014853671,0.019259766,0.016564801,-0.030720107,0.058687888,-0.040571406,-0.061986133,0.054483585,0.04991474,-0.063523844,0.015642308,-0.07447129,0.07432524,0.029378667,-0.020721607,-0.03699413,-0.050053537,-0.080714025,0.07411694,0.01022356,-0.020118233,0.017617904,0.07407998,-0.0069143474,-0.004389003,-0.026966467,-0.07449525,-0.06874307,-0.06400279,0.0161803,-0.07988033,-0.04225022,-0.05202003,0.05940687,0.061907463,0.017162435,-0.025450654,-0.057829365,-0.07544461,0.035388544,0.025620677,0.025287151,0.067408465,0.026793636,-0.02488694,-0.014345579,0.06763329,-0.034736633,-0.04190598,0.011520289,-0.04036553,-0.035527434,-0.009403788,-0.061375123,-0.05278358,-0.07195789,0.027243063,0.0061109588,0.051467992,-0.044884756
0.030311428,-0.011526749,-0.0013690963,-0.013191871,-0.028952975,-0.03192042,0.0035912395,-0.07184501,-0.02469698,0.073557265,0.06007915,0.022027351,-0.03931838,0.013583839,-0.063257515,0.06945736,-0.05121606,0.078852125,-0.073349476,0.016706474,-0.057932884,-0.01993806,-0.07155132,0.024507098,-0.02629307,-0.038760662,0.040458582,0.013609216,-0.03543117,0.033238806,0.0027147308,-0.02910335,-0.00031647086,-0.024902336,0.015823528,0.045597173,0.0015169382,0.01624342,-0.037408005,0.013260603,-0.02701947,-0.06525444,-0.032395404,0.021517709,-0.06711966,-0.053815357,0.004630208,-0.06609396,-0.056826234,0.07444113,0.00030063093,-0.064235315,-0.065513074,-0.030810803,-0.028196208,0.02966509,-0.02380864,0.017904826,-0.06420413,-0.008820452,0.054023303,-0.046347234,-0.050466888,0.05289682,0.0028635934,0.038937278,-0.080058165,0.019500434,0.07501849,-0.07197553,0.03430096,0.05462768,-0.038943022,-0.049338616,0.079087906,-0.054497786,0.0047847405,-0.044385497,0.0362112,0.03402009,-0.064972475,0.0032976046,-0.05762939,-0.03363553,0.035692275,0.03740555,-0.07560285,0.050641887,-0.06359568,-0.039191596,0.012133993,0.02255492,0.052566193,-0.05628965,0.047653608,-0.024579424,-0.015121333,-0.016025439,-0.08083587,0.010908738,0.007449731,-0.03340167,-0.05697804,-0.009861641,-0.06678195,0.012433693,-0.012334861,0.060331725,-0.01304815,0.03742452,-0.02708584,-0.0140676275,0.0024759993,-0.034011446,-0.015054017,-0.011704393,-0.008374743,-0.022836328,-0.06587571,-0.056040168,-0.0785001,0.035323627,0.06982855,-0.04208679,0.009582169,-0.030060168,-0.034875307,0.044337325
-0.008555092,-0.06613107,-0.042224307,-0.06993598,0.031464674,-0.016760968,-0.06593099,0.050478004,-0.043038547,-0.07669276,0.055774488,-0.03059696,0.015071556,0.051731415,-0.0052623004,-0.030879688,-0.047892828,0.030512296,-0.053494398,-0.015799776,-0.0077724904,0.017119981,-0.06369357,-0.007795982,0.078144334,-0.03298847,-0.023957506,0.024898507,-0.05429481,-0.06933237,0.06959612,0.016275927,0.054303937,-0.013689488,0.0035537407,-0.00877402,0.05833759,0.00012726337,0.07789665,-0.019057564,-0.053648487,0.049563907,-0.02500274,0.04391537,0.015232757,-0.026989575,0.032702222,-0.029823389,0.023604445,-0.041694593,0.06610761,0.03104522,0.06374987,0.068296276,0.0665598,-0.014947787,0.03545188,-0.07602707,0.04436972,0.03536018,0.047333665,0.039676256,0.021257624,-0.011843316,-0.036307484,-0.07393291,-0.0009936616,0.079553954,0.058520906,0.07889537,-0.07345013,0.04474709,0.04163275,0.006967649,-0.055197597,-0.05355092,-0.07592756,0.07680114,0.020604394,-0.012000553,-0.001831837,-0.030231468,-0.02353622,0.07439079,-0.046962693,-0.050966516,-0.036219977,-0.006493397,0.0783179,0.0014214441,0.0770902,-0.06844455,-0.049388703,0.021239877,-0.079113446,0.047166146,0.068476744,0.070949905,-0.016688801,-0.003087245,-0.045512784,0.03403247,0.0051599815,-0.06716946,0.003399767,-0.055388026,-0.0688878,0.06496107,-0.068225235,-0.013169289,-0.059890345,-0.07027778,0.016847663,-0.04296417,0.011254661,0.031209156,-0.07649616,-0.038171675,0.076912366,-0.0623338,-0.047872115,0.009646699,0.0062650293,0.026516035,-0.06236559,0.07273432,-0.053808063,0.040909246
0.009828076,0.007366866,0.043857872,-0.07598809,-0.015657715,0.048792057,-0.022060513,-0.054201618,0.024740934,0.034999907,0.015938938,0.04277402,-0.050670348,0.01844433,0.06258363,0.031914577,-0.07911513,-0.07814928,0.080158435,0.072269045,0.040746205,-0.021931354,-0.026289355,0.004045747,0.027511805,-0.069418386,0.07641164,-0.0199707,0.06686846,0.04673166,0.0691584,-0.029474836,-0.060467422,-0.00010344386,0.020850688,-0.017979413,0.012464285,0.0021637604,0.011394337,-0.04072559,-0.061397072,0.07610754,0.031860605,0.0612363,-0.035814065,-0.0473279,0.026426114,-0.08074848,-0.055944853,0.05742555,-0.0037804618,-0.07483812,0.014632307,-0.015633568,-0.01285734,-0.06744186,0.053451143,-0.02615358,-0.02701464,0.020995013,-0.0045316964,-0.015091032,0.039925523,0.05826334,-0.0044962913,0.02771575,0.06431658,0.02006393,0.018892787,0.016493522,-0.06788702,0.010605335,0.013230182,0.060866125,-0.037208203,0.01326029,0.07877857,-0.05418797,0.045749642,0.062786914,-0.03787756,0.018061996,-0.030269235,-0.020617645,-0.07378906,-0.072221085,-0.04839396,0.027650446,-0.0100868195,0.027899735,0.014109008,0.015604265,-0.017830454,-0.020533908,-0.014362805,-0.014084332,-0.063867904,-0.048977185,-0.02082406,-0.07909192,-0.06863341,-0.025778804,0.072648115,-0.037601836,-0.07477337,-0.07176294,-0.01284376,-0.04933208,-0.02823767,0.036608018,-0.07001453,0.0005482584,-0.050879125,0.004868783,0.02068825,-0.036454998,-0.01947239,0.024068005,0.08041781,-0.066255145,0.011310101,0.020799989,0.030071676,0.026863411,0.0048290268,-0.057603784,-0.039254833,0.025538273
-0.036459908,0.0699257,-0.06004896,0.06824659,-0.06372658,-0.045678146,-0.046576373,0.0588916,-0.04911493,0.030381419,0.018938735,-0.030354556,0.0077767447,-0.053532995,-0.061297014,0.012305677,-0.0016817376,0.012520328,0.049154676,-0.06656622,0.07643934,-0.06805237,-0.037436724,-0.06327078,-0.038827322,0.06317695,0.018886559,-0.056275807,-0.033564944,-0.06758929,0.007644467,-0.07123649,-0.006939359,-0.041964266,0.06551582,-0.04400898,-0.0151801035,-0.0040588602,-0.007762663,0.07563015,-0.022182629,-0.033677533,-0.013912782,0.05964113,-0.013886772,-0.04404089,0.01005996,-0.013220742,0.0043572485,0.023287177,-0.028509662,-0.048811898,-0.048951503,-0.055883452,-0.05701171,-0.068133295,0.011497892,-0.039758366,0.00936386,-0.009892836,0.0032019615,-0.045332108,-0.06589458,0.04337745,-0.009013869,-0.065861225,0.0012702569,-0.075273596,0.042190135,-0.00087192655,0.013139933,0.006072402,-0.043369096,0.029723257,-0.07220368,0.07831191,0.03619273,7.312e-05,-0.04687832,-0.008968197,-0.04030941,0.028144056,-0.01044216,0.07753614,0.026964564,-0.009318702,-0.00756561,-0.06862277,-0.075136214,-0.022956263,-0.0684191,0.037806354,-0.03483371,0.014639653,0.030541405,-0.069724604,-0.010084301,-0.06246002,-0.06727779,0.06429546,-0.012775846,-0.070351675,0.031479135,-0.02528233,-0.078601874,-0.061541528,0.001709832,0.052031375,0.0035694242,-0.06502058,0.074025504,0.042103633,0.012630388,-0.02709559,-0.04302735,-0.06317043,0.07419776,-0.05539108,-0.06319147,-0.0017472729,-0.080278836,0.00010570632,0.064923204,-0.01478523,-0.039207436,0.062205367,0.03617908,0.050038822
-0.012871226,0.07067605,0.044320293,-0.17334157,0.0064774603,0.05926054,-0.03835566,-0.06488607,0.05880191,-0.02277698,-0.0099300975,-0.08295352,0.049453817,-0.06946567,0.039376322,-0.0658123,-0.027902652,0.0250225,0.0515602,-0.09814186,0.05924519,-0.025740128,-0.04918265,-0.054516852,0.06907498,-0.0026208167,0.00012407474,0.06654323,-0.05316406,0.07344388,-0.01830519,-0.022434477,-0.041896272,0.061498467,0.05185666,-0.059940085,-0.02567691,-0.05321055,-0.03980292,-0.050162755,-0.20636712,-0.064146884,0.019575484,0.034152098,0.0637121,0.023563877,-0.05594218,-0.05252354,0.031209245,0.07179608,-0.06982263,0.045823433,-0.029712252,0.007548161,0.0067313537,0.037940852,0.041844346,0.002216518,-0.01921659,0.011191636,0.046592005,0.011527732,-0.051236615,0.0398715,-0.03175556,0.03301657,0.012818836,0.062466286,0.06159722,0.030438542,0.04193905,-0.07558097,-0.001002498,0.06360943,-0.03538058,-0.06351346,0.08102479,0.08060724,-0.06092421,0.08042426,0.02931574,0.19350688,0.06282561,-0.062028848,0.106742315,0.059259303,-0.05410268,0.07401452,0.07464754,-0.054022875,-0.064247206,-0.055730145,-0.057936408,0.06693248,0.06738535,0.016562589,0.005945906,-0.05822391,0.00910718,0.02009499,0.07009182,-0.059486233,0.054954074,0.06823859,-0.06880674,0.041242123,-0.0405744,0.04996667,0.025788106,-0.041352537,0.025803521,0.03077323,0.008506448,0.0648874,0.030659229,-0.05566684,0.05609279,0.03901322,-0.04808612,-0.11335859,-0.06144739,0.034528337,-0.073491454,0.07885685,0.026347585,-0.016140863,0.075090535,0.038917944
-0.033437412,0.062377833,0.07015415,-0.15187128,-0.0077600926,-0.024718016,-0.008849844,-0.010637686,0.05583138,0.038529918,0.011604886,0.029815745,0.06881896,-0.079356745,-0.022368407,-0.04166771,0.0059685707,0.07032331,-0.020039354,-0.0136638135,-0.051106915,-0.06825834,-0.088281125,0.012734987,-0.0061514154,0.03730975,-0.054937895,0.0021577477,0.040142037,-0.054212738,-0.023470003,-0.025544018,-0.06077701,0.091701664,-0.0450816,-0.07185338,-0.04210648,-0.008564621,-0.04589497,0.056478046,-0.23776299,-0.06450884,-0.071802646,0.06613641,0.023624554,-0.07452163,-0.06732368,-0.058166124,0.058570046,-0.06350077,0.0172223,-0.044646814,-0.06188049,-0.032320604,-0.054600626,-0.013737481,0.02658377,-0.002585858,-0.059637494,-0.026785344,-0.05024779,0.054909844,0.07164509,0.017615192,0.058498196,0.027038366,-0.05945009,0.028316453,-0.025642585,-0.014707647,0.008326374,0.016575666,0.02850376,-0.06281176,-0.07826713,-0.07853222,-0.026536498,-0.07216767,0.046551965,0.0069333613,-0.002126187,0.23000945,0.06588714,-0.017137984,0.050567485,-0.008207485,-0.046318382,-0.00096952915,0.01612851,-0.034550678,0.004021883,0.003385384,-0.08038013,0.037549507,0.02318883,-0.052182496,-0.049072348,0.01149188,0.07969654,0.0022128448,0.0050725937,0.047808416,0.031976074,0.028670192,0.06537018,0.05502403,-0.026361138,0.011566505,-0.06581885,-0.069107406,-0.05458854,-0.0078044534,-0.08761575,0.061131056,0.030812643,0.036666267,-0.07982805,-0.015531227,0.038524024,-0.06916818,-0.042899195,0.067477435,-0.0019612685,-0.042712364,-0.071043424,-0.07137043,0.06490148,-0.046311863
-0.053259518,-0.06583357,-0.032952193,-0.12709926,-0.06670327,0.084603906,0.04082319,0.0380506,0.038657263,0.03357073,-0.07629745,0.00563439,-0.028921299,-0.033873934,-0.0801197,-0.046902977,-0.06854068,0.08804348,-0.043835614,-0.006791318,-0.01932631,0.016825095,-0.061890353,-0.050115168,-0.0768183,-0.008520514,0.044121232,-0.03497262,0.066466756,-0.054573108,0.08044737,0.01026506,0.026014268,0.08937492,0.07056501,0.06982432,-0.03493889,0.0626057,0.027810521,-0.012478597,-0.114096545,-0.047476433,0.05860675,0.016581953,0.04119046,-0.03720101,0.037897483,0.049364246,0.029229492,0.0062430575,-0.048487905,-0.0102430135,0.060405962,0.061461605,-0.0605902,-0.030232025,0.034938,-0.0013735965,-0.07624909,-0.060525727,-0.020779293,0.06889087,-0.013986081,0.017512016,0.060546108,-0.06534419,-0.060233988,0.06630095,0.013563402,-0.049954716,-0.067509115,-0.0013122037,-0.041092068,-0.031780735,0.041348398,-0.017346993,0.012108155,-0.05916375,-0.016622603,0.05292692,0.008691907,0.16192718,0.0018424647,0.0009918653,0.16310893,0.050185584,0.0369832,0.013150491,0.0017518178,0.06796188,-0.0750338,0.07493239,0.006764747,-0.06953021,-0.048147704,-0.05865084,-0.030492939,0.06256712,-0.048804533,-0.071799666,-0.07932592,0.020601496,-0.021149565,-0.025068488,0.014002711,0.007397018,0.11475118,-0.047282103,-0.036832422,-0.039602842,-0.0023895353,0.0020728707,-0.080873154,0.045301206,-0.013798185,-0.00043468922,-0.06665322,-0.012788765,0.107087225,-0.21228679,-0.07294569,0.17747785,0.0064787567,0.01208333,-0.010379523,0.03615278,0.02328211,0.049131386
-0.037035413,-0.0321547,-0.0659484,-0.12979436,-0.061029512,-0.03156034,-0.004546608,0.010484703,-0.03977951,-0.0049248636,0.03364163,-0.03486709,-0.023059877,-0.010973263,-0.081538156,0.08018804,-0.068409234,0.09696654,-0.06634046,-0.1438648,-0.08499579,0.04155708,-0.048176035,0.027674638,-0.037096255,0.040276516,-0.0552466,-0.021839362,-0.041857865,-0.016814843,-0.01997244,0.014338747,-0.037838634,0.10978839,-0.013553694,-0.038262654,-0.0842013,0.07095497,0.075432755,-0.02184023,-0.069577545,-0.0048202225,-0.011850469,0.039351024,0.06418311,0.007223785,0.05087059,-0.08118412,-0.028352037,0.03785876,-0.024092058,0.040389918,0.0789618,0.033661887,-0.05196041,0.025789753,-0.0049410136,0.043469556,-0.01995381,0.039798997,-0.05710538,0.098362885,0.079444714,-0.011028459,-0.01210133,-0.027427454,0.027142562,0.006523967,-0.04471953,-0.014425704,0.0073076487,-0.03222287,-0.03599609,-0.011205405,-0.071575806,-0.05705321,0.03648533,0.047241308,0.026688479,0.019028597,0.04496298,0.22616534,-0.06562959,0.08584917,0.11751363,-0.008797491,-0.01625748,0.069125004,-0.07588935,-0.034055907,0.067324005,-0.0014287904,-0.017541789,0.011903817,0.044346847,0.08884545,-0.05642113,-0.00029421598,-0.06140119,0.026080312,-0.026812494,0.058316715,0.0771093,0.04563334,0.001935415,-0.04350552,0.04374469,-0.07077108,0.07024222,0.027921429,0.01690568,0.04325798,0.0055241175,0.0146381855,-0.022810299,0.05581626,-0.036622506,-0.062953286,0.072014235,-0.21005991,-0.06266433,0.12639932,0.019925324,-0.06871783,0.015829943,-0.044428043,-0.056214042,0.036003098
-0.052050635,0.06048865,0.008837141,-0.08338677,0.06444408,-0.057806585,0.0852777,-0.051082313,0.0041606664,0.04985223,-0.011764215,0.014590739,0.053423062,-0.016225453,-0.025793683,-0.00877361,-0.06374826,-0.008790362,0.030409709,-0.15393235,0.20052183,-0.08095728,-0.07772623,0.04688046,0.05361768,-0.08228574,-0.04054532,0.07921266,-0.006370038,0.01598005,0.02296982,0.00026029348,-0.03384597,0.08005221,-0.024791915,-0.078721,0.080494635,-0.06519502,0.081085145,-0.03726889,-0.07088196,-0.0011288623,0.0589365,0.07768159,0.023572885,0.012230545,-0.011894923,0.066610806,0.053012677,0.07054455,-0.03406152,0.05271112,0.036549635,0.06137953,0.06186112,-0.04132829,-0.059365787,0.00029613078,-0.07704183,-0.07263373,0.015791483,0.08225587,0.029123634,0.044696692,0.034537815,-0.02181277,-0.078711465,-0.027785521,0.03864301,0.05618773,0.0130620245,-0.010663731,-0.020862626,-0.0109488815,0.06216588,-0.060600102,-0.023779862,-0.06881375,0.047186203,0.041918606,-0.068521746,0.22173496,-0.013557436,-0.029777518,0.059944034,-0.040077697,0.04721605,0.006942585,-0.058369488,0.013684787,-0.0632631,-0.053190634,0.011034839,0.004698964,0.078995936,-0.0019945584,-0.06915289,0.04841975,-0.020589449,-0.052460127,-0.058782473,0.06403733,0.009267747,0.018984929,0.07684264,-0.0417035,-0.04546046,-0.06371668,-0.027234942,-0.00037030876,0.021996096,-0.060609896,-0.06591259,-0.016902812,0.017049342,-0.08646153,0.039591208,-0.027864821,0.06786515,-0.040057678,-0.0791768,0.09761864,0.062234268,0.061880153,-0.017731734,0.053869583,0.009009674,-0.05689024
0.025163122,0.031096138,-0.0614395,-0.0655634,0.03293576,0.064303964,-0.03143299,0.073126025,0.02616038,0.039433345,-0.062984735,0.00550257,-0.0145213455,0.077518664,-0.0135443,-0.061381966,0.021490293,-0.050724804,0.027027823,-0.061722193,0.19986263,0.06349825,0.024831928,-0.050204217,0.052985568,0.009184548,0.03533096,-0.07582441,-0.068404496,0.043409936,0.051662408,-0.004826218,-0.030544575,0.03432974,-0.050919637,-0.101469465,0.0061492138,-0.009630702,0.031999018,-0.007944174,-0.08433629,0.044922777,0.02200865,-0.051240806,0.05979567,0.045400165,0.07120978,-0.07564905,-0.030358126,0.03095491,0.06659042,0.030296057,-0.030500446,-0.003614273,-0.007331535,0.04657885,0.038153596,0.00048330426,0.07773197,0.03594982,0.06552916,0.014452384,0.04209689,0.0300334,0.05713951,-0.06589918,0.015731998,0.061310835,0.048090912,-0.057405148,0.014156623,-0.0008506363,-0.07791082,-0.061677344,-0.010110877,-0.075546265,0.0162304,-0.039826367,-0.06663568,-0.010371886,0.0737791,-0.042663146,0.074254215,-0.050392102,0.0956525,-0.041895717,0.07011332,0.04717411,0.021700084,-0.04491852,0.06665063,0.0133992955,-0.010942034,0.023944994,0.04043691,0.024480412,-0.01985531,-0.017511863,-0.060600355,0.055290148,0.026342288,0.059611265,-0.022368185,0.03481149,0.04259123,-0.029543351,0.07069061,-0.07035603,0.002342619,0.06317198,-0.04923156,0.04952327,-0.0096127195,0.07903772,-0.036768008,0.022649499,-0.022494871,-0.060668614,-0.14821799,-0.011627379,0.0469755,0.08110118,-0.006849223,0.060039677,-0.0449361,0.06105911,0.0031611174,0.07599201
-0.022798818,-0.06844066,0.058813073,-0.112269066,-0.042970467,-0.06842328,-0.047427684,-0.0624566,-0.013009626,0.025046445,-0.0006682761,-0.05904366,-0.04250256,-0.046443015,0.051734637,0.06525848,0.059723176,-0.05882579,0.07463353,0.029731248,0.1715781,0.021472627,-0.040831212,0.045175977,-0.0028983187,-0.048200656,-0.028972974,0.011089129,0.034166194,-0.05361969,-0.049577717,0.038260523,0.036782198,0.05978324,0.07394964,0.023122791,0.03972133,0.07603923,0.059260063,-0.030957777,-0.15543513,0.021240136,0.05265545,0.0019875811,-0.014630429,0.032051183,-0.06413655,0.006702385,0.063579276,0.057499837,0.009136157,-0.06519571,0.036516607,0.031086856,0.065829374,0.060565997,-0.06127584,0.015527688,-0.033642888,-0.03009028,-0.053229656,0.022571996,0.05128991,-0.013440274,-0.0048668906,0.052217297,0.04372088,0.018710889,0.07762585,-0.021691298,0.019634018,-0.012485482,-0.03635015,-0.059224643,0.021827891,-0.014813701,0.06624729,0.055194527,0.022069506,-0.007841833,-0.07059418,0.060519196,0.010760078,0.01224656,0.1639822,0.030284518,0.028937094,0.05215352,0.08093819,0.015837764,-0.05240062,0.033269763,0.076146565,-0.055525757,0.05530589,-0.0018251643,0.024472699,0.04304546,0.0038150623,0.004602177,-0.02495503,-0.074319966,-0.022328563,0.04787103,0.03536737,-0.01558549,0.05472773,0.015950523,-0.039047297,-0.011193158,-0.027153313,0.009752657,0.028247194,-0.07482953,-0.067085296,-0.010336325,0.008398525,-0.06621974,-0.0733735,-0.09738527,-0.05262336,0.06412267,0.0053002955,-0.072589174,0.040647388,-0.07766553,-0.0353526,-0.0054596066
-0.041571617,-0.020310842,0.020245463,0.014637787,-0.06333727,-0.04571577,0.051053144,0.011130102,0.02595982,-0.02624648,-0.042874295,0.053782098,0.08322525,-0.00742511,0.047331266,-0.058256783,0.036880624,0.08034253,-0.030976709,-0.040616743,0.16112751,0.07245002,-0.043022476,-0.07153775,0.047496818,0.044759504,0.0070101577,-0.029590944,0.057776324,0.04634831,0.06781439,-0.06503381,0.059373938,-0.066730335,-0.00047846884,-0.009856071,-0.04764132,0.015544511,0.047803454,-0.040515304,-0.13974419,0.10797614,0.06811305,0.043718588,0.07214839,0.03673424,0.06601932,-0.033246767,0.0055878763,0.057580583,-0.042766012,0.016384453,-0.00046477467,0.005419968,-0.05024237,-0.055009943,0.06314742,-0.052225843,0.03811968,-0.003866598,0.033797413,-0.12580904,-0.049643543,0.025496952,-0.010689922,-0.080615126,0.09253244,-0.017922133,-0.015528247,-0.0783566,0.07343065,0.03316418,0.0003755195,0.026824892,-0.009889454,0.019543214,0.002784133,0.028563993,0.02873706,-0.025947608,-0.067707196,0.050504602,-0.057769485,-0.03757983,0.18895328,-0.025685914,-0.00096043944,0.051440272,0.040177125,-0.052671168,-0.051978778,-0.06447219,-0.018281639,-0.028321113,-0.024743896,0.02441664,-0.080718935,0.06785328,-0.056091473,0.08360423,-0.042792216,0.020251323,0.038848266,0.033736244,-0.07556334,-0.05474419,-0.0047120745,-0.058037873,-0.05072852,-0.017758975,0.06949205,-0.02208874,-0.012270841,0.04244621,-0.005173829,0.005446747,0.062466852,0.047579933,-0.120621465,-0.10528365,-0.02936111,0.060227264,-0.05541929,0.07622846,0.043347843,-0.0144428685,-0.04854593,0.015276037
-0.047290534,-0.031659834,-0.065739974,0.101488546,-0.061602563,-0.031124467,-0.05348523,-0.014419794,0.026580922,-0.021199185,0.08898714,-0.02666508,0.07409446,-0.032168295,0.031917565,0.0073505044,0.06866487,0.04782987,-0.07360114,-0.11227065,-0.008756532,0.007682465,0.036074534,-0.045015536,0.030968571,0.049339086,0.07162844,-0.058152866,0.05214522,0.04836578,0.026775926,-0.06499598,-0.0069898292,-0.0752443,-0.02237834,-0.01337361,0.041944347,-0.060368486,0.17193861,-0.06278123,-0.17043898,0.33154258,-0.021201815,-0.0087360265,-0.07774876,-0.029101297,0.028823681,0.03754485,-0.036950946,-0.1666971,-0.059369683,0.061875932,0.045463897,-0.072143964,0.0686015,0.056699604,0.01823714,0.06545053,0.011143848,0.0065730885,0.047397368,0.29653558,0.062135912,-0.06759012,0.0005412623,0.07221799,0.074843764,0.080062084,0.011301808,0.00696209,-0.073441446,0.025817215,-0.07072355,-0.031420793,0.0045181215,0.04587408,-0.080975845,0.049789663,0.03503678,0.034545727,0.0100005865,0.048095807,-0.09194976,0.08591778,0.16872719,0.060479987,0.043377258,-0.008195293,-0.02344158,-0.017594436,-0.05422556,-0.067667454,-0.02498195,0.058706753,-0.06903289,0.09289091,-0.00897032,-0.01277937,0.016645133,-0.10543351,-0.074294075,0.04208298,-0.0041587204,0.061085247,0.061147265,-0.16345038,0.033631187,0.019668847,0.074113496,0.010277204,0.046611957,-0.018024392,0.024342101,0.03117688,0.16301566,-0.07932557,-0.06198188,-0.0054273074,-0.102056466,0.063690424,-0.016313963,0.08794089,0.07217265,-0.016282097,-0.044181883,-0.015537433,0.029680507,0.019314244
-0.105883285,0.08083043,-0.034892462,-0.22729926,-0.0010765269,0.098811895,-0.030610764,0.073141955,-0.060496196,-0.058550917,0.06367358,-0.06551795,0.0927314,0.025343403,0.009251522,-0.03343791,0.04084324,-0.10576459,-0.04952788,-0.11737796,0.02920796,0.070850156,-0.03484278,0.020978538,0.0550684,0.057836156,-0.005701168,0.004024146,-0.029969782,0.026289046,-0.029548012,0.051765177,-0.06960235,0.02430132,-0.033475988,-0.015235677,0.097989894,-0.040666994,0.14782602,0.0007548928,-0.028228564,0.29490566,-0.013312794,0.009154846,0.080519356,0.08058315,0.028793491,0.02285585,0.019092932,-0.057919767,-0.057569347,-0.0403903,-0.06805335,0.06264611,0.075839825,-0.014912695,0.07457862,0.053383835,0.0028852872,0.05385814,0.045204066,0.45224383,-0.05753349,-0.07621206,-0.03623166,0.048034377,-0.07022581,0.020960607,0.03793159,-0.05660833,-0.07514043,-0.0007669512,0.030562483,0.00382635,0.007763438,0.02311946,0.059138782,0.049784865,-0.059770394,0.06092364,-0.06792537,0.14814952,-0.10655396,0.0498916,0.27059907,0.032752275,0.024687678,-0.023691759,-0.04360667,-0.03422505,0.0088999495,0.064259686,0.044459917,0.042798847,-0.0390086,0.057465322,-0.06196879,-0.013461836,0.013840437,0.02322409,0.0691695,0.07371132,-0.026269358,0.013723016,-0.07471478,-0.14338489,-0.07501534,0.0027740598,-0.06496185,-0.04500703,0.002450779,0.014094751,0.04608781,-0.07464402,0.0942977,0.03681303,0.0008077249,0.046531077,-0.32254976,-0.187526,-0.031958785,0.09889237,0.045124315,-0.05228351,0.012638021,-0.035676572,0.012135074,0.0061411485
0.020819558,-0.0072275177,-0.018196777,-0.1062275,-0.04008845,0.09878356,0.04989246,0.039387826,-0.06552911,0.06883732,0.03296633,-0.0122275185,0.04372406,0.030161776,0.067735456,-0.060571402,0.0040833578,-0.020790836,0.058155097,-0.13080403,0.13096967,-0.07973659,0.0347054,0.030212078,0.0029486045,-0.079469934,-0.05174795,-0.009159796,0.07204043,0.066491686,0.047068693,0.07394734,0.0046563745,-0.029928554,-0.006870456,-0.016399827,0.07121172,-0.070566535,0.15985858,0.0088657215,-0.13170813,0.32886237,0.037382945,0.007172971,-0.04553485,-0.026826784,-0.0071063787,0.049817014,-0.053477958,-0.09572703,-0.017580427,0.00096755475,0.071559586,0.015430704,-0.038217258,0.0765852,-0.051389705,-0.05208096,-0.06989301,-0.038561832,-0.007357873,0.2773431,0.04818686,0.05964207,-0.033838507,-0.080556184,-0.027148413,-0.016657434,0.049357884,-0.062290106,0.018002488,0.06838492,0.080365546,0.035218824,0.023537397,0.018654808,0.022944584,0.0597168,0.070725515,0.02983992,-0.06332321,0.028927462,0.070652284,0.044228364,0.3337372,0.09501681,-0.026853647,0.0005513556,0.07920349,-0.06172934,0.05251082,-0.051280856,0.029995851,0.036570236,0.08762281,-0.05468943,0.009086736,-0.019205116,0.031115554,0.012555015,0.02410759,0.016647886,0.038118362,0.027025916,0.06602863,-0.067314394,0.07273176,0.0778567,-0.078399055,-0.054512925,-0.06766094,-0.02818267,-0.06820411,-0.0031798184,0.029556854,-0.07289034,-0.04866197,-0.00769227,-0.3660269,-0.049288634,-0.04039129,0.024711046,-0.057129435,-0.06332156,-0.0661863,0.058528073,0.027896233,0.015095286
-0.084827945,0.070961274,-0.057066202,-0.13572259,0.0022024233,0.20710436,0.082488574,0.03014746,-0.026166964,-0.053327587,0.008426487,-0.020009717,-0.05545235,-0.04607261,0.03131587,-0.011882633,-0.04347041,-0.0752376,-0.007910639,0.03965423,0.18021436,-0.02234643,0.077839546,-0.07112745,0.068874024,0.019735537,0.0030057845,0.026141785,0.010110334,0.08106517,0.03514322,0.01947469,-0.02580731,0.035578452,0.05063636,0.07389308,-0.003065366,0.019397825,-0.015683003,-0.018238142,-0.13048516,0.19995616,0.030624248,-0.061283648,-0.06420766,0.06405745,-0.035450354,-0.013881378,-0.07733912,0.020508705,0.06136418,0.059117816,-0.0130613,0.06961972,-0.057691738,0.015728982,0.046092197,0.045622505,0.0028061063,0.05796264,-0.05591244,-0.04403758,0.048785098,-0.033410296,0.00023451447,-0.0066182986,-0.0075991377,-0.04471943,0.037634224,0.019925365,-0.058904376,-0.010162664,-0.06373322,0.035363726,-0.07472679,-0.07401926,-0.06944735,-0.03071982,0.06843751,-0.05648629,0.07225748,0.13200273,0.3102914,0.16593106,0.2556585,0.034237266,-0.0636665,0.016766809,-0.014410616,-0.01107315,0.03568054,0.06418625,-0.0155066475,-0.03921439,0.07143724,0.05565299,-0.025414452,0.013479442,0.025070228,-0.019029116,-0.033260386,-0.07274421,-0.040455434,0.07840846,-0.053106107,-0.060753237,0.028572788,-0.039635915,0.0033941641,-0.017785277,-0.010708369,0.06063752,-0.0652538,0.06566093,0.06926147,0.06586789,0.023634225,0.033288695,-0.39562285,-0.0001212516,-0.06648484,0.19399795,-0.0484978,-0.01656583,0.05133079,0.06952978,0.05624462,-0.07065689
-0.10569251,-0.076358475,-0.058405668,-0.03790424,-0.041153327,0.06036392,0.025829062,0.070744835,0.029152527,-0.056878023,-0.0813736,-0.045669354,-0.08904995,0.06794087,0.07228524,-0.014510125,0.081530035,0.05198609,-0.024047274,-0.1644554,0.19204079,-0.052450866,0.03008261,-0.02209977,0.054953158,0.080862775,-0.0787444,0.015410811,-0.031264134,-0.06912585,-0.028603707,0.076351404,-0.046080615,-0.06135594,-0.005494416,-0.05514359,-0.07215685,0.045437478,0.051957473,-0.07498536,-0.19949216,0.12388774,0.031553797,-0.0078747375,0.077931605,-0.05701252,-0.018364117,-0.053467575,0.037513223,0.049904723,-0.018531606,0.06430385,0.027678095,-0.022052586,-0.0672344,0.07625911,0.010906286,0.031238995,-0.0028996759,0.05473627,-0.06217768,-0.025129221,-0.011430807,-0.073869385,-0.021407556,-0.07640933,-0.030357938,0.04289405,0.059357103,-0.07665936,-0.0077631273,0.026406094,0.02348712,-0.0600761,0.046865366,-0.03029447,0.0013709515,-0.05702045,0.07734469,-0.033595636,0.04289531,0.62496525,0.108382724,0.31376353,0.097951494,0.018916553,-0.058669344,0.06627695,0.04304737,0.0072537586,-0.060878858,0.024413943,-0.050864503,0.07715876,-0.058078907,-0.0649184,0.009766884,-0.0032048642,0.029603593,-0.063443616,-0.0014632717,-0.07024976,0.016310602,-0.078679055,-0.050125398,0.03432645,0.06591471,0.05075287,0.035274588,0.015451038,0.07884384,0.039428487,-0.05811168,-0.05961398,0.025453575,0.0021997243,0.06704468,-0.0031570196,-0.003623659,-0.080203444,0.042124815,0.018465342,-0.0010543274,0.03489382,-0.0316243,-0.07985347,0.021355383,-0.07509801
-0.046665974,0.018951729,0.03695199,-0.13483143,0.053687047,0.09252506,-0.014866296,-0.010835692,-0.04580731,0.046162732,0.07079206,-0.07997449,-0.012899176,-0.026193574,-0.06303776,-0.0009500161,0.067774616,-0.019606661,0.05642169,-0.14737833,-0.026995428,0.02855698,-0.04887575,-0.05069514,0.072291784,0.05043202,-0.041784998,0.030684397,-0.030716337,-0.013003282,-0.033966757,-0.034987263,-0.06735124,0.022784188,-0.029834796,0.039306067,0.07155716,0.019164234,0.058653574,-0.040912725,0.04830063,0.13415526,-0.05858008,0.04048923,0.06584752,-0.07504463,-0.02645373,-0.067911506,-0.01693637,0.0015864001,-0.010823354,0.044195466,0.05564948,-0.030749407,0.034107827,0.01526067,0.024192398,0.035608463,-0.038224824,0.009276907,0.0628527,-0.039169602,0.0033932105,0.079424195,0.08109967,-0.013024479,0.05792875,-0.07440898,-0.033439472,-0.059510592,-0.045433015,0.012349591,0.006709151,0.014066395,-0.009374224,0.029873934,0.037727267,-0.033770397,-0.053803887,-0.066012755,-0.056279115,0.26722988,0.010250195,0.19020839,0.004480785,0.050810315,-0.07902652,0.007532768,0.0774016,-0.065184906,-0.06690635,0.05485309,-0.06323164,-0.033626363,0.06660279,-0.062081177,-0.045115307,-0.045065645,0.051319264,-0.0228848,-0.022174746,-0.009411685,-0.063790515,-0.04564734,0.042591713,0.075696506,0.0018960868,-0.068815455,-0.06343531,-0.035955418,-0.03420052,-0.070022695,-0.011161213,0.054482277,-0.037593402,-0.05168264,0.0603093,0.07372288,-0.10661545,-0.021294054,-0.04633389,0.058661398,0.049861547,0.06284764,-0.05647364,-0.072828054,0.06321571,-0.07965254
-0.036847193,-0.070525214,-0.07425768,-0.43076485,0.07387361,0.067911275,0.003592141,0.024278753,0.07131978,0.009258792,-0.011717647,0.055128217,-0.0001199966,-0.06162049,-0.030192299,-0.0579283,0.09887628,-0.10223492,0.02001056,-0.2151628,0.016003534,0.032372795,0.0335826,0.00040820986,0.018432863,0.027193554,-0.052413434,0.092697755,0.03920728,-0.02126335,0.01862812,0.05363608,-0.048509218,-0.047044087,-0.02566286,-0.022839364,-0.04888496,0.044937126,-0.07816607,0.059235327,-0.23007517,0.0035513497,-0.05800502,-0.0017536638,-0.0024718568,-0.050857097,0.03532376,0.06755426,-0.02567424,0.1526598,0.048614837,-0.053534564,0.016977325,0.022209242,-0.07710764,-0.0027612024,-0.009663896,0.05325655,0.0023014236,0.027047187,-0.040942043,0.013771579,-0.08008083,0.042547777,-0.027795691,0.041059487,0.07657928,-0.019993037,0.006711052,0.03868285,0.03824044,-0.03873511,-0.027968984,-0.037248176,0.054851018,-0.065872416,0.05290305,-0.055642903,0.056387775,0.05863168,-0.05298526,0.367863,0.0057051242,0.12083089,0.1530945,-0.041126397,0.06299759,-0.05405937,-0.05878348,-0.07000081,-0.0066435505,0.035999484,-0.04413002,0.06966027,-0.05029078,0.03945645,-0.017321855,0.028045215,-0.048304386,-0.07507511,0.041181393,-0.019535644,0.07201644,0.035542168,-0.07273891,-0.0072944504,-0.02267203,0.07072658,0.07119558,-0.072683044,0.049548827,-0.00801815,-0.025085565,0.020583244,-0.0026555732,-0.008782168,-0.077389635,0.07617115,-0.20137796,-0.11611633,0.018873602,0.10485678,-0.06642955,-0.007856958,0.01777432,0.009103641,-0.06302468,-0.02822483
-0.05654961,-0.080206156,-0.03390066,-0.1882711,0.0245015,-0.06755714,-0.006622245,0.06547854,-0.0128493905,0.059826516,0.027617529,0.032786924,-0.087097384,-0.074685,-0.07797666,-0.009862743,0.08524447,-0.03614631,0.060867466,-0.16383213,-0.004885888,-0.048430625,-0.06699323,0.06200888,0.059325345,0.009447552,-0.039573204,0.03332002,-0.040128227,-0.067921236,0.07490174,0.043978512,0.03871972,0.018046498,0.07178942,-0.0057311696,-0.03966769,0.07803815,-0.024903882,0.044832014,-0.2731308,0.0024483888,0.037956342,0.05987035,0.059553333,0.042025357,-0.03917847,0.03950099,-0.038164295,0.0469402,0.051188074,0.02570124,-0.06939464,-0.010220505,0.03864833,-0.044604767,0.025980217,0.012302488,-0.020430958,-0.031903457,-0.039176397,0.0039244965,-0.009673826,-0.037385516,0.045880847,-0.059770238,0.04016097,-0.011639431,0.064087264,-0.032575086,0.027762003,0.027536644,0.043256894,0.0692225,0.030936174,0.07778923,-0.05614568,-0.07228684,0.014545031,0.0036605299,0.03668441,0.33281076,-0.05499772,0.15334618,0.1570761,0.07656292,0.018645197,0.025823332,-0.053848363,-0.045341156,0.07727115,0.0023829266,-0.038961474,0.0076470226,0.026523292,-0.013890076,0.032165565,-0.04398705,0.011412248,0.019845845,-0.0529642,-0.046955314,0.028709836,-0.002806954,-0.025691241,-0.046723977,-0.07557124,-0.068426274,-0.033073213,-0.07846248,-0.021069948,8.5688e-05,-0.028021563,0.052300494,-0.030491434,-0.07027194,-0.045449547,0.034821764,-0.038608544,-0.033236664,-0.05065213,0.08667962,-0.00079301005,-0.074008815,0.025612382,-0.078161865,-0.013700955,-0.031575073
-0.16501065,0.01568462,-0.070594095,-0.23971017,0.014800768,0.014267969,-0.054952003,0.028114155,-0.0806678,-0.023312125,0.0268958,0.06976017,-0.021278726,-0.0019928887,-0.04514703,-0.033639494,0.07655408,-0.076076224,-0.049025886,-0.051463075,-0.030892212,-0.048482317,-0.004004501,0.068913855,0.037860494,0.07952208,-0.061094437,0.096618384,0.0733903,0.014420785,0.072889306,0.044024233,-0.02505387,-0.005158089,0.06941327,0.03783252,0.028295191,0.06984756,-0.024869516,-0.044319835,-0.26514095,-0.034881458,-0.07539887,0.070719264,0.047362752,0.045536898,-0.013054632,-0.016443089,-0.04900565,0.12611338,-0.013035327,0.0613453,-0.012632415,-0.06001678,-0.057718057,-0.06370449,0.058134273,0.0343934,0.08032143,-0.0543541,-0.042028274,-0.043457646,0.05766099,0.021827836,0.06810989,-0.03382845,-0.055387463,-0.05518362,0.068070464,-0.07163601,0.0687416,0.013559196,-0.058566697,0.04742686,-0.006535977,-0.058452055,0.04001218,-0.009314448,-0.019599307,-0.047243755,0.011592828,0.31998682,-0.0016144738,0.10759232,0.15588906,-0.058127575,0.046221457,0.026279667,-0.057104915,-0.051620185,-0.046320044,-0.07420521,0.030043304,-0.05972052,0.0091527775,-0.05307819,-0.041425984,0.0046205968,0.07611833,-0.037092213,-0.035761565,0.07989079,-0.025070734,0.023099482,-0.047147278,-0.006782398,0.007181995,-0.014573149,-0.011147812,-0.050271325,-0.06908279,-0.040207826,-0.078023516,-0.07265499,-0.030045472,-0.014795213,0.00039014965,-0.031255662,-0.007970435,-0.09201261,-0.019560903,0.12398459,-0.042165965,0.0379671,-0.093062215,-0.06795378,-0.04617545,-0.065819584
-0.1342152,-0.066802666,0.00755246,-0.17974758,0.07975982,0.03269178,-0.0062582046,-0.080730885,-0.022788156,-0.022336684,-0.011115227,0.011099162,0.028591456,0.07918353,0.008841686,0.037907846,0.011585243,0.004578172,0.0013080272,0.07345637,0.08124646,0.008414753,0.011273183,-0.0028686598,-0.011862285,-0.07343124,-0.007241533,-0.057773434,0.0084173605,-0.024778571,0.047981597,0.025542405,-0.041358996,0.03321904,-0.009693921,-0.0052118823,0.04957155,-0.044147983,0.0035206378,0.06787489,-0.266574,-0.01520814,-0.06484908,-0.0059430823,0.023262888,-0.04513996,0.06463126,0.07177631,-0.048414536,-0.06112682,0.012890503,-0.06541524,-0.044093065,-0.05763697,-0.06627266,0.07391033,-0.04568736,-0.03512922,0.0137557015,-0.023052067,0.07585534,0.030049495,0.03398308,0.079107314,-0.013190344,-0.049122762,-0.0027270839,0.00752227,-0.062271047,0.045588233,-0.011215672,0.03580779,-0.012737557,0.055940904,-0.062838376,0.030556448,-0.029795755,-0.05051052,0.044763036,-0.0014832318,-0.028978713,0.27516732,0.006171897,0.035150968,0.04165858,-0.012062247,-0.06214028,0.040275723,0.064609684,0.066326864,0.04527629,-0.0015007854,0.0716834,-0.0011628394,0.07143844,-0.07155021,-0.034375355,0.0025587678,0.05369652,-0.07267552,0.0057059377,-0.017607287,0.08101108,-0.04097921,-0.043704614,-0.03635978,0.0119742425,0.0021504164,0.039395653,0.044999175,-0.029842827,-0.044480797,-0.0770794,-0.023757568,-0.04784808,-0.00095451256,-0.022563078,0.06471222,-0.097608194,-0.007566651,-0.015179776,0.1052621,0.04695732,0.037346583,0.045368128,0.03795936,-0.07946475,0.039282605
-0.016656503,-0.07971773,-0.016756736,0.06790166,0.027627297,0.052914448,-0.0052456707,0.06438885,-0.016896881,0.043861523,-0.03917781,0.07728777,0.059639476,0.071132876,-0.019846667,-0.014464468,-0.02300581,-0.02191393,0.043337926,0.04304783,0.05073587,0.014047474,-0.03528203,-0.07193273,0.04823401,0.0076880753,-0.008359171,-0.05851201,0.013329312,-0.019133914,-0.03267956,0.05981291,0.0746494,-0.044341967,-0.07572346,0.017592438,0.06340069,-0.028419275,0.07839931,-0.0107396245,0.076029904,-0.08000144,-0.071171574,-0.014566667,-0.07921925,-0.056087278,0.06558519,-0.072173744,-0.027836323,0.042096637,-0.064484276,0.018368892,-0.029956885,0.033503562,-0.0006260425,-0.03984419,-0.06872302,0.025857687,-0.009310812,0.0070833266,0.0064518526,-0.039482698,-0.061492562,0.018960446,-0.032799054,0.07132689,0.071507595,0.062547155,-0.019141957,-0.06305465,-0.05020252,-0.032341335,-0.028023925,0.045721136,-0.018666893,-0.065367416,0.013431899,0.03170377,0.060533293,-0.012516215,-0.0043069124,0.0591361,-0.003078252,-0.01790239,0.024400122,0.019291036,-0.014263757,-0.06278341,-0.03456634,0.04009044,0.076615535,0.013316721,0.050421678,0.014905229,0.038699828,-0.007149309,-0.033276767,-0.07222507,0.07247571,0.0420791,0.005940549,-0.03011534,0.06322614,0.0073719174,0.03205677,0.06243006,0.047070332,0.062161587,0.023596048,0.03805387,-0.07879558,0.004356742,-0.040316157,-0.016001493,0.011661269,0.0075184777,0.047016613,0.0014003068,0.078328066,0.007395506,-0.036806855,0.06131407,0.0019193292,-0.051386602,-0.0031698793,0.0725848,-0.07118893,-0.059502825
-0.053997405,0.078089215,-0.06688911,-0.06490813,0.012781262,-0.017970711,0.008294158,-0.018556856,-0.038401164,0.0741043,-0.046504434,-0.07922729,-0.05529847,-0.048968907,-0.05742272,0.029573716,0.054122217,-0.040206067,-0.020122353,-0.072884314,-0.02182623,0.08081771,0.020240933,0.052493952,-0.004745908,0.016750216,-0.015335329,-0.053706653,-0.019079804,0.050311603,-0.03985848,0.01916404,0.035385378,-0.057479035,-0.039216835,-0.050879665,0.028023653,-0.044584587,0.020607837,-0.003781408,-0.049479302,-0.046413098,-0.025236849,0.0016444102,0.039760225,-0.00085796416,0.079997964,0.0014841929,-0.07273697,-0.056825437,0.038805023,-0.051055454,-0.038964722,0.0077458397,-0.023420963,-0.0061154887,0.07193714,-0.028134983,0.0070819184,0.04088474,0.037501156,0.010597721,-0.010610715,0.063835956,0.051101305,-0.053989418,0.0493579,0.022464141,-0.014391214,0.015353337,0.058935486,-0.02936165,0.041333273,0.00016213208,-0.00832282,0.02796305,0.0643703,-0.038157366,-0.06828883,0.017057851,0.0020628572,0.01541698,-0.011554711,0.0074430034,0.051663764,0.077876635,0.006787084,0.012908757,0.010254137,-0.03771104,-0.023025397,0.053554304,0.0152052045,-0.036965296,-0.03427439,-0.06219116,0.047437094,0.063810445,0.05153165,0.018463492,0.015971407,-0.025543284,0.014084317,0.002358593,-0.020464446,0.06742614,0.054719396,0.047876395,0.06845688,0.015889704,-0.0723032,-0.03415376,-0.026176225,-0.007534802,0.07792049,0.0033994392,0.014024079,-0.057551146,0.07012171,-0.031560842,-0.033682078,-0.046093613,-0.073189646,-0.073384285,-0.038504817,-0.0221457,0.06608584,0.00823763
0.05579496,-0.01306621,-0.06896223,0.075558804,0.021999866,-0.03989385,0.025073715,-0.051148973,0.008271471,0.053613402,0.05101206,0.007851392,-0.030897517,-0.032838736,0.010776304,-0.070254534,0.028727062,0.021362327,-0.05003818,-0.0071870238,-0.06627185,0.03643997,0.047184177,-0.054970764,-0.013221882,0.07566013,-0.029810414,0.052759595,-0.0097927,0.052187882,0.006987393,0.037785508,0.06898556,0.05037076,0.07125839,0.06969201,0.0051506236,-0.08024865,0.0073874444,0.0218862,0.042988442,0.021162562,-0.026729707,-0.05163156,-0.06988372,0.051106237,0.06736269,0.07577508,-0.00878945,0.05698692,0.03542587,-0.030971989,-0.07062554,0.0792047,0.07459434,0.07961988,-0.06627232,0.026322775,0.05489049,-0.07056673,0.06139966,0.025525302,-0.014505811,-0.074390784,0.08014364,0.03378647,0.041908883,0.055368073,-0.025373243,0.05582335,0.014775895,0.005725622,-0.05681755,-0.044069067,0.061576836,0.031772636,0.05967053,-0.073064215,-0.048315544,0.019104883,-0.013263442,-0.025219675,0.054077215,0.0069574565,0.036136143,-0.027085707,0.0386765,0.019920401,-0.0724508,0.041143358,-0.035681676,-0.017723322,-0.038615547,0.07809747,0.024364263,-0.01841513,-0.029179424,0.062231846,0.07390363,0.025426768,0.054117553,-0.0011409968,0.044670723,-0.077920645,-0.0131729245,-0.06319323,0.045053534,0.012104787,-0.04497584,-0.06777364,0.06322945,-0.032876965,-0.07231281,0.04707565,0.011301205,0.0775611,0.01731348,-0.066682115,0.045675196,-0.04130713,0.035952255,0.07106916,-0.0067427605,-0.079930454,-0.08076128,0.06670474,0.021734163,-0.043893047
0.043671995,3.0130148e-05,-0.037643895,-0.039452415,-0.05862605,0.01713153,-0.05409172,0.023328759,-0.042532444,-0.056185305,-0.018935889,-0.0005574301,0.024806418,0.06083142,0.06143234,0.050069086,0.0063187703,0.0018818453,-0.05170597,0.05277846,-0.028737914,-0.002397813,0.024914056,0.053261913,-0.026562024,-0.021966413,-0.024271905,0.055423386,-0.032205462,0.066223316,-0.0015020445,0.027191393,0.009941801,-0.04898716,0.031245217,0.060645126,-0.043598294,-0.013641298,-0.045400586,0.078652166,-0.004675865,0.058703832,-0.072501875,0.070864655,-0.03679686,0.06380997,0.042937003,-0.020487208,0.021680035,-0.07314122,-0.06879836,0.045356818,0.07676963,-0.05108624,0.050074704,0.0037969947,-0.0028299838,0.0019172207,0.040727116,-0.013107076,-0.032481518,0.025852948,0.057299815,-0.028575335,0.06776152,-0.033969134,0.060380645,-0.0391003,0.048411004,-0.0551117,0.0048461035,-0.06638332,0.0002508983,0.063922785,0.03582762,0.056765683,0.026103765,0.034823924,-0.0058340356,0.0673647,0.035737567,0.03481002,0.048449777,0.06746907,-0.0040843263,-0.0068143755,-0.04562278,0.0686978,0.07334355,0.044876106,-0.002477795,-0.07164877,-0.06438602,0.06987842,-0.044014897,0.015487596,-0.0742745,-0.060075086,0.047610603,0.0059307665,0.00016928464,0.044956543,-0.052214436,-0.0192004,0.048685618,0.068670444,-0.040242944,-0.058929637,0.032754146,0.06864678,0.03594646,-0.075560965,0.017859213,-0.060457967,-0.011452936,-0.0404797,0.057675235,-0.08058842,0.06760035,0.056358986,-0.027132563,-0.08005087,0.004827343,-0.0696798,0.07104396,0.05030743,0.037080146,-0.017670445
0.07103077,-0.06441286,-0.049465843,0.048392333,-0.016077556,0.04722541,-0.02733254,0.02499713,0.05035772,0.013716325,-0.08094357,0.042246506,-0.030924726,0.029531866,0.049973942,-0.07036123,0.034695715,-0.034919534,-0.02450408,0.049912266,0.07642589,0.07061557,0.032908723,0.016230807,0.050504155,0.05522985,0.024335898,0.06474177,-0.06264867,-0.0048449785,0.028933614,-0.026228439,0.020361625,-0.0055832565,0.025173262,-0.0695372,0.008966781,0.027724646,-0.027114734,0.054497935,0.030693308,-0.033959735,-0.0014885813,-0.06790638,-0.062045,0.039850533,0.013452031,0.07411357,0.06580003,0.053418957,0.044532843,-0.039766796,-0.04199279,-0.011452198,0.006388448,-0.06344602,-0.06485704,0.020657867,-0.006646827,0.025856934,-0.028059795,0.036051042,0.02470164,0.06031593,-0.03742253,-0.079873964,-0.009658955,-0.04219435,-0.071392536,0.05238775,0.051816873,-0.027258918,0.025089316,-0.0018953457,0.03174115,0.06532488,0.0062180385,-0.014037669,0.007087253,-0.059213273,-0.007607281,-0.080474265,0.052498035,0.067832686,0.042812772,0.0065648854,0.05829694,0.014163084,-0.005166903,0.049772166,-0.07671132,0.05127368,0.0028584749,-0.066984296,-0.023851976,0.07585066,-0.06450812,-0.00013254583,0.05832704,0.05126538,-0.061117575,0.04645986,0.024164595,-0.026943665,0.06404748,-0.056372806,-0.052249707,0.061922796,0.07483911,-0.036276136,-0.067731336,-0.01413653,0.024914905,-0.03292007,0.075905405,0.034288585,-0.040975593,-0.064346895,0.050183214,0.025628276,0.019601472,0.07183366,0.0036392137,0.016529277,0.039836995,0.059699543,-0.05200214,0.043736637
0.02539324,-0.047187656,0.016352005,-0.07308295,-0.057763096,-0.0366863,-0.06725969,0.030256025,-0.0010339245,-0.018606387,0.07478925,0.018028475,-0.048507456,-0.037797656,0.0029852763,0.045719005,0.05760371,0.07034504,0.03869205,-0.05063142,-0.008516416,0.077451535,0.0030090958,-0.07937918,0.026677303,-0.055175707,0.0577716,-0.029901866,0.008759476,0.055700414,0.07226988,0.043824762,-0.02059229,-0.058357477,-0.039532803,-0.054768946,0.027812965,0.048348494,-0.015601248,0.046725012,-0.07000111,-0.023008227,-0.0528636,0.07036186,0.012851559,-0.05123261,-0.033783138,0.004513152,-0.029767852,-0.07779261,0.06358404,-0.049923114,-0.013424955,0.07114611,-0.067287266,0.00117217,-0.06986158,-0.05076849,0.06674253,-0.008198179,-0.07263974,0.055436246,0.0060753375,-0.045587566,0.016349353,-0.060271524,0.051574893,-0.010088056,0.05943849,0.08086213,-0.05605042,-0.013385586,-0.07294619,-0.032861013,0.028140843,-0.07829598,0.042054944,-0.0421766,0.02574794,0.016244717,-0.015690789,-0.03796499,0.08015842,-0.047763553,0.03627515,0.046091206,0.08093167,0.016613066,-0.06512062,-0.028345305,-0.037217256,0.05969637,-0.004143484,-0.041052792,-0.011701472,-0.03159567,0.06818739,-0.038069356,0.055299215,-0.030595258,-0.06459085,-0.06956526,-0.0378864,0.056787543,0.07641164,0.03070984,-0.044270433,-0.05627358,-0.036942977,-0.03198033,0.051364146,-0.0024771616,-0.06459412,-0.054247104,0.075997435,-0.0011183321,0.045460843,-0.07117871,0.0060111135,0.046470247,0.059837572,0.035966456,-0.030518021,-0.045975298,-0.049249195,-0.04966259,0.080185466,0.014950946
-0.05553306,0.038655423,-0.019984063,-0.018656857,-0.05962087,0.035130113,-0.009541713,-0.07113967,-0.075643115,-0.047451295,-0.06339439,0.03616751,0.04813019,0.020426214,0.0072535425,0.067348756,0.027983606,0.051963545,0.0014888719,-0.057984732,0.069416754,-0.02404853,0.059852816,-0.072090186,0.01882504,-0.008910686,0.06874067,0.07266616,-0.07741197,-0.011284359,-0.057334073,-0.059970565,0.043065272,-0.018898316,0.0025711432,0.033999108,-0.004265487,-0.0019474849,-0.032407008,-0.024902586,0.02441445,0.026161669,-0.024249725,-0.03692304,-0.07652239,0.018987775,-0.04016366,-0.0020321086,0.00031146407,-0.026632398,-0.05000884,-0.05530077,0.022356078,0.009569503,0.060500927,-0.052590698,-0.036141813,0.07712177,-0.025446765,0.06576683,-0.03465226,0.05353632,-0.07183569,0.075401224,-0.058037333,0.0528133,0.0051307008,0.05858188,-0.06361185,-0.08006128,-0.06470835,0.07457479,0.016474955,-0.016548038,0.07598101,-0.07602415,0.0022909716,0.027111135,-0.0022516549,0.023942515,-0.028760578,0.21271692,0.057604484,0.015982263,0.02337119,0.05446454,-0.004165411,0.04275886,0.0073843077,0.046078198,-0.050935768,0.050987087,-0.028651297,0.008208603,0.061201043,0.06934751,0.012243889,-0.0018595904,0.00944633,-0.014730871,0.03374829,0.019814909,-0.029840235,0.075822316,-0.002566196,0.02231089,-0.02552263,-0.041925106,-0.034285665,0.030291148,-0.026163269,0.072826974,0.017808467,0.07877917,-0.037027024,0.06047637,0.038657844,0.038791105,-0.042839557,-0.0023683459,0.060894825,0.0060263574,0.06493827,-0.009362288,-0.07368585,0.010322511,-0.060506117,0.07979775
-0.07578401,-0.0028554127,0.03735446,0.029179074,0.0045449436,-0.0010123677,0.076590784,-0.0034886673,0.007888906,-0.0058728904,-0.054277964,0.04900197,0.07263038,-0.031270377,-0.054755136,0.041619793,0.016213074,0.00055814534,-0.017943874,-0.037236165,0.044610865,0.028027773,0.035546117,0.04097546,0.009336412,0.0734166,0.063625224,0.03173583,-0.054029413,-0.02742898,-0.007118851,-0.0019691214,-0.009298243,0.047073565,-0.0108560175,-0.012475237,0.017284863,-0.030582767,0.041901916,0.015773997,-0.49763882,0.12714712,0.03714052,-0.071426496,0.065133296,0.047859542,-0.0170208,0.029082969,0.0017398447,0.013624683,0.0329222,0.00984741,-0.013336234,0.027008839,0.016401239,-0.04530629,-0.06061209,0.04886218,0.02710773,0.05819338,-0.026557267,0.051547028,-0.030572016,-0.015022516,0.06154459,0.014839031,0.04238621,0.026567958,-0.06899635,-0.0047074035,-0.06085521,0.011098117,0.041678466,0.009146258,0.0052256733,0.06356721,-0.08019732,-0.0099108815,0.023437537,0.036855377,0.061442383,0.018818215,0.007511422,0.18013854,0.05026538,0.0600537,-0.023095828,0.06869452,0.062387817,0.011373743,0.03224833,-0.071609415,-0.08002898,0.06769223,-0.07972845,-0.0069552287,-0.059997637,0.0348235,-0.07129459,0.50628954,-0.0692317,0.055657767,0.05098561,-0.035421673,0.06654846,-0.014889561,0.039036337,-0.07393608,0.056871396,0.054661505,-0.050015148,0.048330497,-0.038594432,-0.06719085,-0.07202188,0.045679964,0.053052805,0.026434064,-0.26962265,-0.20271747,-0.069251634,0.025647052,0.04032606,-0.037785433,0.01578191,0.0043912604,-0.037957042,0.07627723
0.054937087,0.062353633,0.05236236,-0.07192044,0.057053424,-0.07760572,-0.074255124,-0.00016076118,0.016405955,-0.075038694,0.08077548,-0.032803558,0.025541373,0.04071507,-0.0018598214,0.056615524,0.026047185,-0.033568792,0.0735857,0.07213543,-0.07450606,0.08096791,0.06033645,-0.0047681704,0.03251621,0.04581759,-0.049092535,0.012209371,0.057802685,0.033934116,-0.07780181,0.071648635,0.013417318,0.03025794,0.032554813,-0.040691283,0.007845648,0.050449587,0.034217015,0.03490468,-0.4309401,0.03934836,0.055830963,-0.005562313,0.029293388,0.047545575,-0.024356358,-0.03546967,0.08028058,-0.075066425,0.04364594,-0.004337676,-0.020086382,-0.046661306,0.05741068,0.063776664,-0.042619873,-0.07292057,-0.0038662255,-0.00091584027,-0.061585505,-0.06807573,-0.05267304,0.07882277,0.040754773,-0.0067397654,0.04957048,0.05136455,0.028117962,0.07255841,-0.050071906,0.0053273886,-0.008710109,0.07177309,-0.029024933,-0.041124288,0.032184444,-0.023051698,0.07989211,0.061012633,-0.007073134,-0.0015434779,0.06395265,0.07536631,-0.010651652,0.04845213,0.05235269,-0.013088413,-0.01990493,-0.078054056,-0.052099466,-0.04935958,0.029969998,0.042138055,-0.011068448,0.041151457,-0.010509223,-0.015603706,-0.03285314,0.54358536,0.013373829,-0.038763024,0.019149013,0.062075935,0.035586573,0.021243177,-0.06022382,-0.07412113,0.02813632,-0.036180664,-0.07411419,-0.06730747,-0.06740104,-0.061408114,-0.0077077225,0.032090306,-0.07459848,-0.013630137,-0.15977931,-0.1355508,-0.020068496,-0.06019387,0.06948335,-0.005337432,0.07786999,0.008359656,-0.07199869,-0.05927425
0.06789652,0.018056847,-0.06384273,-0.041794997,0.021228135,0.008081208,-0.0780786,0.016068213,-0.039956506,-0.059431605,0.06156317,-0.059410527,0.021869145,0.074635394,-0.006743729,0.020513102,0.057519928,-0.014372595,0.0060823187,-0.018807437,-0.0543642,0.043012463,-0.045622278,-0.015709117,-0.0495747,0.026292488,-0.046108965,0.01685816,0.07491145,0.07243069,0.06311516,0.06165769,0.008571759,0.08072818,-0.075124264,-0.100360125,0.05217638,-0.011768036,0.07337538,0.04887513,-0.0028297135,-0.035517726,0.0158891,-0.029013678,0.018606134,-0.00062642246,0.006454371,0.007047087,-0.0046153143,0.05995209,0.000667423,-0.025815843,-0.04545626,-0.043138042,0.080503725,-0.041088704,0.027748562,0.04208059,0.022404693,-0.029726893,-0.01675526,0.06741798,-0.079264365,-0.07695475,0.076773606,0.013141476,0.06985638,-0.020181585,-0.010377921,-0.04929791,-0.02657798,-0.02736178,0.026200205,-0.057666946,0.05894109,0.03935404,0.040560327,-0.012981683,-0.0011044294,-0.018788066,0.008166388,0.44852075,0.074618936,0.04347978,0.12551384,-0.010286257,-0.07030395,0.036181882,-0.021948583,-0.03420518,-0.063890375,-0.04788927,-0.017754592,0.07901537,-0.046930302,-0.02965834,0.08032576,-0.033396218,-0.070076466,0.021194162,0.0051749498,-0.043033656,0.025074854,0.00871142,0.03498271,-0.032688417,-0.033840492,0.06801934,-0.00086569786,0.008733697,0.027285643,-0.048473574,-0.068367235,0.054696,0.057747282,0.05904586,-0.009650394,-0.033209935,-0.06469849,0.01764898,0.055974133,-0.00035346558,-0.039974142,-0.07688396,0.0490598,0.008643642,-0.004644476,0.015441731
0.05662858,0.036967017,0.04440459,-0.14703709,-0.08099981,-0.0002703894,0.00876081,0.060956024,-0.0007342547,0.04097467,0.03128659,-0.037880413,-0.04490945,-0.089328766,0.045430988,0.031695418,0.090867355,-0.008920084,0.05417628,-0.055741657,-0.09110083,-0.011373803,-0.038887914,0.022482008,0.096986525,-0.08826439,0.022968343,0.040377676,0.076037414,0.07471491,0.05944746,-0.017707981,0.06461979,-0.015145521,0.009525798,-0.009070886,0.03363775,0.0067733154,-0.08282707,0.07952104,-0.23821568,0.057478845,0.04981608,0.04492492,-0.0042750016,-0.019246057,-0.04451721,0.003145218,-0.042516965,0.04908992,0.010737486,-0.002296509,0.011742912,0.054906674,-0.046242863,-0.022158334,0.040227704,-0.019617602,0.08837386,-0.02095446,-0.004556626,0.013224078,-0.0017175782,-0.074843496,-0.06979107,0.0024413615,0.07112109,-0.07982204,-0.06250471,-0.04657059,-0.07731083,-0.08398086,0.0126875825,0.051317926,-0.05529058,0.018819982,0.03927046,-0.044003803,-0.0652307,0.00947544,-0.022982933,0.4342625,-0.004564025,0.0053566294,0.14285992,0.043291435,-0.04438834,-0.03887385,0.043724015,-0.012873195,0.017944748,-0.020503394,-0.025418915,-0.060047906,-0.07161094,-0.090525486,-0.03044295,0.0490292,0.060568355,-0.04479023,-0.063964695,-0.06294969,-0.080326386,0.041886993,-0.054777436,0.003450833,-0.028635567,-0.008601442,0.041591503,-0.0035844296,-0.060112737,0.078040816,-0.07020819,-0.029244542,0.066471614,-0.026289627,0.074390106,-0.06244103,-0.07722027,-0.14635015,-0.07842708,-0.018196091,0.03353009,-0.07224426,-0.079161115,0.030543491,-0.0577355,-0.005518593
0.046661645,0.03776391,0.04329054,-0.07658122,0.05513075,-0.0069282176,-0.039085332,0.07041367,0.004137911,-0.06587638,-0.06940625,-0.01621581,-0.053798843,0.008028748,-0.031894054,-0.041957226,0.065207005,0.08501526,-0.0861658,-0.05448217,0.019225156,0.04121831,-0.022023685,0.022121452,0.0056253145,-0.069057405,0.06400721,-0.064291894,-0.07825193,0.038665056,-0.06228816,0.06499968,-0.060842954,0.02343662,-0.06367999,0.038042266,0.0918155,0.004000113,-0.053283334,0.002448231,-0.3307167,0.19886446,0.0035024683,0.05488753,-0.00019290298,-0.038603205,-0.0007496869,-0.091068365,0.018526087,0.092850275,-0.052520636,-0.013835805,0.015161537,-0.041106865,-0.034245074,0.064376116,0.041741405,0.013283998,-0.0114281215,-0.07703626,0.054727443,0.041267715,-0.092220575,0.042760137,0.046097793,-0.06550097,0.017811535,-0.07656596,0.023012243,-0.028334452,-0.008054226,-0.030622594,0.04456752,0.020497086,-0.025042938,-0.007887501,-0.017929817,0.059480663,0.0051634,-0.012677453,-0.005310193,0.19102328,-0.003825083,0.055175107,0.15143445,-0.06252087,0.07661306,-0.001377739,-0.04504882,0.032351837,-0.020723477,0.09055644,0.029248895,-0.11365092,-0.026663087,-0.08140846,-0.004948963,0.029110475,0.009426383,0.11603132,-0.076049104,-0.06793102,0.068656765,-0.008851349,-0.0062476248,0.03381034,0.03272481,-0.07322319,-0.028010346,-0.026704712,-0.051879786,0.0054643103,0.048495162,-0.020761635,0.0015105576,0.051834263,0.050187916,-0.077242285,-0.080476195,-0.27964,-0.0016908896,0.0815397,0.08209908,-0.0048120175,-0.011867434,-0.045043483,0.028933287,-0.08220285
