0.04310902,0.18500602,-0.010273673,0.10509024,0.0059916987,0.018139353,0.04231225,-0.121073365,0.062105883,0.13342877,0.18771955,-0.07002503,0.004305149,-0.0607946,-0.12684272,0.10515425,0.17803444,-0.010904582,0.011354021,0.12079368,0.31702557,0.04968847,-0.08174824,0.03655664,-0.079136096,0.10734184,0.058655534,0.13515355,0.11256934,0.015608899,-0.01854104,-0.012178056,0.029108545,-0.1470223,-0.019047987,0.14233427,-0.002844161,-0.013311376,0.04597988,-0.091493554,0.028234001,0.068111,-0.012867048,-0.10167505,0.15039818,0.070117235,-0.039254364,0.10064348,0.04322177,-0.018206386,0.08881597,0.22504307,-0.033454616,0.11606943,0.0035087774,0.03936471,-0.1557063,-0.10808965,-0.045895185,0.3272611,0.07617922,-0.038531534,-0.011935502,-0.06734804,0.07380217,0.15130228,0.0111707635,0.1700614,0.08905942,-0.017544372,0.01438766,-0.09825332,0.01977814,-0.0064436975,-0.04480249,0.07934209,-0.003726647,-0.101110615,-0.09032017,0.185083,-0.18868174,-0.027536359,-0.08935264,0.11774863,-0.016793042,-0.006792089,0.20993923,0.09961806,0.0059672073,0.080075875,0.019303404,-0.048596315,-0.01659057,0.12214363,-0.07632295,-0.07173839,0.08284554,-0.037317414,0.064418614,-0.06324152,-0.18278643,0.33066374,0.06996558,0.26778433,0.11829954,0.021572718,0.035936538,0.06673521,-0.18559538,0.022779765,-0.07502054,-0.18347003,0.06598296,0.015127956,-0.004650322,0.23451015,-0.16365108,-0.023657635,-0.01743012,-0.000104760664,0.1720453,0.29713616,0.03766874,-0.025730439,0.05143127,0.04413677,0.01407609,0.2057778
